34 128
34 -0.03298213 -0.21394947 0.08692487 0.000843262 0.109305955 -0.17548044 0.12726147 0.052295234 -0.041794427 0.095055185 -0.22033957 0.052070405 0.19540875 -0.27364463 -0.10854717 -0.22962935 0.027490836 -0.046409238 -0.0055499617 0.05388442 0.24995486 0.04954634 0.31406844 0.010624124 -0.050754674 0.0017618015 -0.0014135649 0.0022340417 -0.0326586 0.19225128 -0.04679663 0.15075323 -0.10847077 0.01181783 -0.1380651 -0.13409294 0.11085106 -0.04704769 0.0076926607 -0.21086471 -0.2808798 0.11238235 0.07569766 0.13440509 -0.08337032 0.088773526 -0.13095158 -0.0626874 0.03757727 0.087885775 -0.0065372027 0.19171096 -0.023391979 0.18296304 -0.14883754 -0.00911085 -0.06616514 0.08793494 -0.09285589 0.03678968 0.1356369 -0.16583648 -0.14882603 0.04410291 0.038570926 -0.12445523 -0.025381358 -0.0416599 -0.023552934 0.051792793 0.008876153 -0.022182696 0.078602776 -0.006751834 -0.009600962 -0.082658276 0.051898737 0.054613348 0.051904555 0.048925843 -0.12009551 -0.16702338 0.011898503 -0.22418672 -0.040042233 0.17668684 -0.14906788 -0.0063286545 -0.04151116 0.04748994 0.053986914 0.047752973 0.118513264 -0.054287102 -0.043290887 0.17956573 -0.10848977 0.07433653 0.1212355 -0.12824579 -0.17192473 0.116762646 0.009161842 -0.04704201 0.043632764 0.11359791 0.21544352 0.122751236 -0.09597012 0.040931087 -0.02917383 -0.15649901 -0.02031073 0.061135594 -0.03609421 -0.118511006 -0.039903563 0.09935174 -0.112663046 0.05249325 -0.08597081 -0.12613548 -0.074245825 -0.15998551 0.088763244 0.16864765 0.00034438388 0.024340075
1 -0.021068819 -0.24934879 0.052437924 -0.025173262 0.0571107 -0.19825393 0.09385645 0.12921527 0.02911468 0.07243918 -0.17275521 0.10304795 0.1556142 -0.21790284 -0.021204295 -0.21671273 0.019415267 -0.13934077 0.058762092 -0.0020227742 0.25406176 0.0015830288 0.25100848 0.0054220804 0.031269778 0.023601813 0.00075689744 0.020948363 0.004680751 0.1697289 -0.018404173 0.077919655 -0.077389926 -0.01220478 -0.09127059 -0.17203227 0.12409835 -0.022820912 0.009281882 -0.2174284 -0.21839055 -0.009694748 0.068446316 0.19361264 -0.14657806 0.10286991 -0.07884295 -0.030534813 0.1156596 0.16080892 -0.13414791 0.1724717 -0.05798097 0.2166382 -0.16112053 -0.044959217 -0.042327624 0.17083682 -0.1046069 -0.039376963 0.19923764 -0.22290988 -0.07844019 0.09169575 -0.07681101 -0.012225123 -0.08663674 -0.0033159796 -0.0206321 -0.038881768 -0.13861045 0.014107388 0.0022524293 -0.051700372 0.1384092 -0.010563731 0.08136971 0.015972633 0.04283321 -0.093087375 -0.2108421 -0.119918995 0.039307557 -0.13165314 -0.118984535 0.07279984 0.017033806 -0.061211303 0.06451248 0.04968702 0.11674195 -0.06555166 0.17274451 -0.012596378 -0.10812503 0.120164976 -0.0659433 -0.06420849 0.15799421 -0.04281489 -0.15010698 0.107225716 -0.034253996 -0.021801408 0.004294308 0.15679848 0.21646254 0.107897565 -0.12337959 0.03936724 -0.051458552 -0.076384194 0.008899327 0.12346979 -0.10135062 -0.109297395 -0.037624463 0.102364324 -0.12628652 -0.041096587 -0.08015422 -0.082740195 -0.0043005734 -0.23331264 -0.04104648 0.06118061 0.03616536 0.062811926
33 -0.03172301 -0.21103068 0.07947575 0.00088127883 0.10086673 -0.17204814 0.11828058 0.059896253 -0.028608255 0.089342654 -0.20276797 0.056822035 0.1825756 -0.26245168 -0.092522934 -0.21650997 0.021378728 -0.05291255 -0.008861225 0.044496033 0.23946574 0.04399818 0.2941537 0.008515181 -0.04480358 0.0018951452 -0.0094204275 0.0029622295 -0.025884578 0.1824213 -0.04257774 0.14230111 -0.09670162 0.009724976 -0.13413279 -0.13473827 0.10501753 -0.0397297 0.0009107927 -0.19711211 -0.2632418 0.09837019 0.072851844 0.12635253 -0.088505246 0.08948197 -0.1197886 -0.057260416 0.033817735 0.085963145 -0.01666048 0.1854131 -0.025810955 0.16971658 -0.14277929 -0.008921264 -0.064146936 0.08929744 -0.08497973 0.03405646 0.13714361 -0.16678856 -0.13372146 0.049351178 0.028807234 -0.11307577 -0.023111435 -0.034313392 -0.023801064 0.0402303 0.0037442988 -0.01662933 0.069506265 -0.008295431 0.0008597997 -0.06991931 0.05325692 0.047250967 0.046498764 0.0333996 -0.11280559 -0.15080799 0.011922713 -0.20440198 -0.044773452 0.1603923 -0.12943168 -0.009288017 -0.030177334 0.042678505 0.060122952 0.04180557 0.11617277 -0.046628386 -0.038214933 0.16682893 -0.098351516 0.056045268 0.12116359 -0.11633677 -0.16173206 0.105358645 -0.00058497605 -0.037042137 0.04283924 0.10778763 0.2034319 0.11695531 -0.08713434 0.034443367 -0.02962649 -0.13916779 -0.017125113 0.05789989 -0.036769565 -0.11110857 -0.040841974 0.090725355 -0.11007857 0.035844192 -0.080335185 -0.11982135 -0.06342126 -0.16025324 0.07560625 0.15013158 -0.0018733115 0.025486086
3 -0.028827582 -0.22204453 0.06352068 -0.014882098 0.06715194 -0.17692457 0.099318005 0.09749544 0.005177476 0.07482942 -0.17192881 0.08306112 0.14990366 -0.22493568 -0.042928748 -0.20618811 0.018947408 -0.108918525 0.02920137 0.009873773 0.23333432 0.017340066 0.2528266 0.007813445 0.007837064 0.015366255 -0.0036042568 0.01643718 -0.0015664758 0.16863449 -0.026029669 0.09491136 -0.08190186 -0.0012985511 -0.101033054 -0.15358646 0.114924334 -0.022156559 0.0061449353 -0.19411978 -0.22584404 0.025310157 0.06867361 0.16612576 -0.12258805 0.09420455 -0.08317203 -0.040417556 0.07430242 0.12882075 -0.083506905 0.16376007 -0.047870975 0.18710119 -0.14613521 -0.032909434 -0.053369578 0.13361259 -0.09199947 -0.00991392 0.16453749 -0.19034581 -0.09033044 0.0762163 -0.035281092 -0.04971635 -0.05738432 -0.01120151 -0.01852266 -0.016687987 -0.08074226 0.005048698 0.021174766 -0.032083396 0.09243118 -0.029302727 0.074768014 0.026295101 0.043873724 -0.046931725 -0.16694334 -0.12057672 0.027808981 -0.15432185 -0.08980205 0.10398564 -0.03252244 -0.039777312 0.028243823 0.044138893 0.09210804 -0.02256915 0.14383525 -0.021533893 -0.08308955 0.13625541 -0.07718015 -0.014967402 0.14306988 -0.068238296 -0.15106615 0.10307701 -0.029513419 -0.025161847 0.01873703 0.13815144 0.20358819 0.106638335 -0.10418513 0.031165404 -0.03810667 -0.09229027 -0.0021754566 0.09870993 -0.07419741 -0.10357318 -0.043528467 0.10122241 -0.11672864 -0.010782593 -0.08140223 -0.10191425 -0.02419834 -0.20755637 -0.0018439558 0.09167338 0.024640715 0.052327175
2 -0.015028814 -0.21647961 0.05481748 -0.01840361 0.06055843 -0.17090565 0.09506093 0.09883172 0.00123716 0.07137538 -0.17031018 0.08329202 0.15224856 -0.21469629 -0.039396033 -0.2020329 0.014437839 -0.10129176 0.033427287 0.010967559 0.23187967 0.01494129 0.24547943 0.0076331547 0.0044669015 0.018578589 -0.001894748 0.016693527 -0.0018880664 0.16075025 -0.022460919 0.08603963 -0.08101701 -0.00071335596 -0.096633986 -0.14362821 0.110232815 -0.03009017 0.008724207 -0.19609517 -0.21150629 0.023842532 0.06401653 0.16156423 -0.117631845 0.09234293 -0.08570923 -0.03677315 0.083553806 0.122653596 -0.088723205 0.15336324 -0.04093982 0.18845062 -0.14401594 -0.030477615 -0.04344591 0.13351655 -0.09358097 -0.013634585 0.16194461 -0.18364841 -0.08477178 0.06741369 -0.04029759 -0.03649228 -0.0654694 -0.013328934 -0.023479866 -0.01791982 -0.092472434 0.0056439433 0.023969492 -0.03879922 0.092284776 -0.02380622 0.0723667 0.023032615 0.04176386 -0.05030521 -0.17239018 -0.12458827 0.025060361 -0.14264765 -0.08755412 0.10031626 -0.026995208 -0.042694833 0.03499129 0.042234704 0.09564232 -0.028362447 0.144072 -0.028471263 -0.087780215 0.1275625 -0.07509452 -0.025846291 0.13314496 -0.060218465 -0.14087814 0.09722157 -0.021365227 -0.02956414 0.0132487165 0.13207747 0.20578751 0.10915655 -0.11073308 0.03577738 -0.045629367 -0.09036158 0.00030460046 0.097137764 -0.0794755 -0.10459137 -0.038689587 0.097540274 -0.11855606 -0.014737718 -0.08028216 -0.09434113 -0.020121513 -0.20855424 8.665817e-05 0.087321155 0.029639838 0.050808866
32 -0.029214641 -0.2192636 0.06460128 -0.0037403496 0.086122334 -0.16996622 0.11989578 0.065968394 -0.018634664 0.086236425 -0.19727744 0.06629258 0.17346273 -0.24715035 -0.080994874 -0.212269 0.024598781 -0.074075885 -0.00085507525 0.038379442 0.23863105 0.03735394 0.27954647 0.008654331 -0.031310894 -0.00015754809 -0.011481587 0.0043942733 -0.025477247 0.17770927 -0.03513743 0.124768496 -0.08323892 -0.0011058082 -0.12701105 -0.13718596 0.11574728 -0.029182984 -0.0003664745 -0.20453079 -0.25464517 0.07753891 0.06602109 0.13775752 -0.10165831 0.09437847 -0.10409161 -0.045211434 0.05016558 0.095752284 -0.038471796 0.18556008 -0.033758078 0.17566407 -0.1435391 -0.021110404 -0.059281778 0.09857426 -0.09040019 0.018324291 0.14596309 -0.17187335 -0.11969252 0.0637698 0.001291251 -0.095044 -0.042372093 -0.023962671 -0.023193046 0.017281823 -0.030604845 -0.004011429 0.05115869 -0.019826662 0.028970815 -0.05920686 0.050191578 0.043905344 0.040420253 0.010293022 -0.13535959 -0.14057651 0.021920655 -0.1814686 -0.061219633 0.14495632 -0.099986844 -0.01651511 -0.014565222 0.038737055 0.07116588 0.018828988 0.13241184 -0.03653261 -0.04543667 0.15202335 -0.08482333 0.03439314 0.120001934 -0.105376236 -0.15294594 0.104163945 -0.0151377525 -0.037684355 0.03752228 0.1213563 0.20991136 0.10994656 -0.0959893 0.040170837 -0.031243172 -0.12908658 -0.009871497 0.071641676 -0.047275767 -0.10796278 -0.040929895 0.093604736 -0.10050446 0.020262677 -0.080965795 -0.11308959 -0.04956348 -0.16713296 0.05422674 0.1290692 0.001914074 0.037028443
4 -0.020590886 -0.21671669 0.056444187 -0.01909513 0.06284051 -0.18080918 0.08714084 0.10755759 0.00931411 0.069992304 -0.1631106 0.087980516 0.15316792 -0.21251272 -0.034333367 -0.20310174 0.016999876 -0.11361805 0.04284245 0.009852682 0.23585986 0.0109077385 0.23825873 0.0050433394 0.01515512 0.023933774 -0.00034891334 0.022952538 0.005421052 0.15753393 -0.026536912 0.0814228 -0.07913947 -0.0021748776 -0.09257311 -0.1532783 0.114925645 -0.022959108 0.011955197 -0.1943384 -0.21036205 0.008571276 0.06646711 0.17322367 -0.12102202 0.08987106 -0.084017694 -0.038414836 0.08669576 0.13070968 -0.09794424 0.15448222 -0.043991648 0.19527805 -0.14947289 -0.032198057 -0.04275854 0.14100146 -0.09495884 -0.025295798 0.17721514 -0.19804682 -0.08290719 0.07509871 -0.044824958 -0.028064335 -0.07445886 -0.00910512 -0.020140927 -0.024207672 -0.10355952 0.008111547 0.020843517 -0.0468841 0.10956825 -0.022668123 0.080477 0.024123149 0.04131128 -0.0569482 -0.18006088 -0.12896006 0.029554479 -0.1422664 -0.09541967 0.09207831 -0.009664474 -0.05078326 0.045525778 0.0475418 0.09694106 -0.04022271 0.14631471 -0.025718953 -0.09470469 0.12763168 -0.07957759 -0.03642368 0.144505 -0.05980621 -0.15203221 0.10356152 -0.021101573 -0.020760508 0.008760087 0.14578128 0.20608626 0.10906263 -0.116248116 0.033421185 -0.04215191 -0.090547614 0.0017173425 0.11119992 -0.08526853 -0.103793256 -0.04167309 0.10349926 -0.12286532 -0.02180055 -0.08005533 -0.09390895 -0.02308629 -0.22368233 -0.014631117 0.083211064 0.033304494 0.057617284
14 -0.020229043 -0.23753202 0.0573759 -0.024917936 0.06142246 -0.18623652 0.092697985 0.112587586 0.014421842 0.07571369 -0.17762616 0.09520811 0.15365997 -0.21972588 -0.028996173 -0.20902805 0.018415986 -0.12195231 0.046737462 0.0033610421 0.24946782 0.0123752775 0.25170788 0.007241435 0.016723065 0.024683762 0.0035206715 0.020852044 -0.0038217995 0.17137814 -0.018434513 0.08442471 -0.07989091 -0.005778359 -0.090669535 -0.16176036 0.118165396 -0.024308832 0.004858798 -0.2071458 -0.22157681 0.0067763305 0.06667097 0.18150963 -0.13209894 0.102220364 -0.080339596 -0.031408604 0.09984029 0.14738862 -0.114961565 0.1658625 -0.051815867 0.20564942 -0.15245567 -0.039565947 -0.048318364 0.15550208 -0.10163501 -0.031540502 0.18480146 -0.20963846 -0.07979017 0.07871467 -0.059551552 -0.025319086 -0.074977525 -0.012387892 -0.020622186 -0.030114124 -0.119356185 0.013447196 0.009521401 -0.04152113 0.12368703 -0.016607463 0.077781074 0.021756275 0.041411176 -0.07480472 -0.19635761 -0.12389373 0.036124587 -0.13914083 -0.10929266 0.09209519 -0.0061018937 -0.05565852 0.05027418 0.046811923 0.10774675 -0.05014231 0.1615594 -0.020151606 -0.09992865 0.12985231 -0.074145965 -0.040703718 0.15152964 -0.05381011 -0.15100712 0.102448754 -0.03076324 -0.01955471 0.00572399 0.14914861 0.2148773 0.11259486 -0.12143703 0.035014637 -0.050486084 -0.08732435 0.0023264757 0.11452047 -0.087304175 -0.10908274 -0.04368406 0.09990724 -0.12437165 -0.025666103 -0.08077577 -0.09321403 -0.012891753 -0.22796525 -0.018113213 0.07537909 0.030285839 0.056427844
24 -0.026794933 -0.21054468 0.07978035 0.0023008324 0.100075744 -0.16971485 0.12379311 0.05387054 -0.034220472 0.09381034 -0.20943409 0.05153524 0.19161253 -0.26769045 -0.10345177 -0.22450373 0.025570866 -0.050288305 -0.008479386 0.04910108 0.24303912 0.04758509 0.29768533 0.017941523 -0.046192516 0.0025414932 -0.007643719 0.00027072255 -0.034728084 0.1858222 -0.04848116 0.14178953 -0.099217765 0.0043199845 -0.13465571 -0.13083717 0.11177449 -0.044398747 0.0034425 -0.20744279 -0.2661066 0.10658099 0.06797086 0.13033526 -0.08335328 0.093845986 -0.12521966 -0.049886696 0.036607843 0.07968082 -0.007207844 0.18838462 -0.025497572 0.17443737 -0.1388097 -0.0047287727 -0.059165973 0.08163742 -0.093582794 0.036044557 0.13121982 -0.16252533 -0.13308333 0.048138175 0.0270443 -0.11993119 -0.029172327 -0.032379985 -0.028266462 0.043850265 0.002847896 -0.013909759 0.06881714 -0.010785409 -0.003282911 -0.07875876 0.04481419 0.04693564 0.04577265 0.045655254 -0.11553628 -0.15535639 0.012975034 -0.20380086 -0.047181513 0.16655661 -0.14387475 -0.0020672225 -0.036209676 0.0440646 0.058012515 0.040543906 0.12178051 -0.051100433 -0.03441451 0.17169048 -0.0978037 0.06551445 0.116419956 -0.12421097 -0.16760859 0.115648575 0.004641008 -0.041509528 0.04375786 0.11686703 0.21553294 0.11982527 -0.09235887 0.043007392 -0.027789358 -0.15459391 -0.019502262 0.059652347 -0.041980457 -0.119873494 -0.043011885 0.09107276 -0.102633245 0.04452969 -0.084938295 -0.12472285 -0.06901267 -0.1627763 0.0900942 0.16044307 -0.0023477115 0.02997897
9 -0.025042865 -0.2073332 0.063044794 -0.011953169 0.078816466 -0.16649356 0.102743074 0.076852426 -0.009890007 0.07850414 -0.1836964 0.06942879 0.16458808 -0.23542084 -0.06829176 -0.2059961 0.01749246 -0.07368792 0.014215423 0.029193232 0.22967134 0.03304237 0.2706396 0.0070149447 -0.019359749 0.015387895 -0.002762324 0.005578825 -0.01800198 0.17124304 -0.03348079 0.11597966 -0.09086529 -0.00037646745 -0.106309064 -0.14104293 0.10880518 -0.03610726 0.0028598835 -0.1956066 -0.24093266 0.054496158 0.067309245 0.14935985 -0.10163642 0.088078275 -0.10232041 -0.047125015 0.059319943 0.10095955 -0.055501178 0.16881639 -0.037948124 0.17942518 -0.13523999 -0.021270165 -0.05527852 0.108802445 -0.09157907 0.0043857764 0.14834079 -0.17312078 -0.11129504 0.058839284 -0.0036778944 -0.07559208 -0.04260897 -0.02286307 -0.024192147 0.01414853 -0.043092526 -0.0023774584 0.049941897 -0.02507541 0.049823076 -0.051779438 0.058640555 0.039320864 0.040999018 -0.004362924 -0.13962401 -0.13692716 0.01655854 -0.1768889 -0.06877606 0.12538789 -0.07811248 -0.025976596 -0.0023562135 0.045113217 0.077318735 0.0019645204 0.13439502 -0.03182042 -0.06528527 0.14028502 -0.0819901 0.018531755 0.12518312 -0.084697455 -0.15379824 0.09822205 -0.011554741 -0.03193218 0.027978089 0.12127981 0.1965203 0.113274395 -0.10246052 0.032359622 -0.03319226 -0.11584601 -0.0055872654 0.076327056 -0.056739256 -0.10867662 -0.04207605 0.09674461 -0.11179084 0.017836351 -0.08036882 -0.105248824 -0.045744706 -0.1771859 0.035554416 0.12034003 0.01274571 0.038352896
8 -0.01977525 -0.23761794 0.059557278 -0.017257668 0.062919796 -0.18479346 0.10246429 0.10715976 0.008264723 0.08085972 -0.18234217 0.08793274 0.15740567 -0.2274817 -0.03732712 -0.21617617 0.022156663 -0.11349038 0.040473156 0.01412252 0.24583346 0.013234627 0.25747216 0.0024670402 0.010368769 0.021600053 -0.00065266003 0.020199219 -0.0052748052 0.17456727 -0.025197154 0.091113776 -0.07996044 -0.0029186066 -0.103184275 -0.15913086 0.12265425 -0.025907455 0.009226673 -0.20443246 -0.22713794 0.020275775 0.063975915 0.1767121 -0.1253693 0.10333185 -0.08922821 -0.03793969 0.08903939 0.14122155 -0.10191908 0.1706077 -0.042749703 0.20482345 -0.15872903 -0.03419854 -0.053255185 0.14370683 -0.100777574 -0.02135361 0.17827134 -0.20822604 -0.0911581 0.079843536 -0.042222977 -0.04513004 -0.06959597 -0.014910029 -0.021239324 -0.02363877 -0.10501153 0.0054580346 0.018876486 -0.041346002 0.10486265 -0.026323667 0.07282339 0.025909163 0.043638755 -0.056864526 -0.18628119 -0.13634434 0.029134855 -0.15162584 -0.102805644 0.10840946 -0.02165454 -0.047581546 0.037261657 0.045128085 0.105124 -0.04015139 0.1558217 -0.024750251 -0.09039886 0.1332588 -0.0808681 -0.03266267 0.1466847 -0.07164927 -0.15208031 0.10441646 -0.030453295 -0.027433496 0.018135369 0.14351526 0.22175899 0.10918526 -0.11925689 0.035489157 -0.04875699 -0.096120454 0.0021811728 0.108735554 -0.087854624 -0.110630825 -0.045553926 0.10084053 -0.12585737 -0.020000115 -0.086770765 -0.10128248 -0.018011034 -0.22106731 -0.0023870626 0.08774197 0.031750277 0.05211941
28 -0.029192327 -0.21171865 0.0718478 -0.0055290326 0.08397584 -0.16280173 0.11162184 0.065220356 -0.021133102 0.083706796 -0.18913187 0.06540913 0.16893977 -0.23821999 -0.08021952 -0.20841946 0.021600027 -0.07174359 0.006871896 0.03784597 0.23087496 0.033792492 0.2743962 0.00882681 -0.029327175 0.0075249234 -0.009297667 0.0072392626 -0.019555543 0.17383315 -0.03668984 0.12520002 -0.085453235 0.0047487286 -0.1214207 -0.13931794 0.11096871 -0.032554265 0.0051144366 -0.19821474 -0.24948597 0.07089059 0.06914823 0.14131595 -0.09917836 0.090653814 -0.110691994 -0.049134634 0.04703496 0.095989816 -0.04299341 0.17875867 -0.028642775 0.17154947 -0.13784185 -0.016318426 -0.060354423 0.09595178 -0.09369714 0.018340118 0.14423533 -0.17427234 -0.11435395 0.05953916 0.006580751 -0.09244295 -0.04097325 -0.023537911 -0.027401384 0.01576041 -0.030827716 -0.0052050855 0.04968333 -0.022428133 0.031574048 -0.058101922 0.055174932 0.045121256 0.039299652 0.012033175 -0.13413948 -0.14448597 0.019442052 -0.17998035 -0.061196484 0.14469777 -0.09735175 -0.016119806 -0.013067826 0.042703025 0.07164077 0.015656503 0.12451797 -0.040108617 -0.047160953 0.14970429 -0.08858756 0.034227345 0.12276435 -0.104153134 -0.15673254 0.108262785 -0.012589909 -0.03693773 0.036332157 0.121530004 0.2084165 0.11564531 -0.093672484 0.033180725 -0.03188992 -0.12584907 -0.015486513 0.07096643 -0.049052358 -0.112711556 -0.044146013 0.090845 -0.10896501 0.018549522 -0.08179965 -0.112368755 -0.050965123 -0.17077729 0.049786013 0.12750992 0.007993597 0.03601397
7 -0.014267683 -0.26712167 0.027643485 -0.029991927 0.02642812 -0.19983731 0.08860421 0.15820885 0.07305569 0.064385325 -0.14927442 0.13424404 0.13166368 -0.19824728 0.025074624 -0.20359465 0.010287795 -0.18870352 0.068878934 -0.02526953 0.26191685 -0.023406528 0.23957258 -0.001048386 0.068999894 0.017462283 -0.015252816 0.009988134 0.010050363 0.17086925 0.00966951 0.05793676 -0.06207069 -0.03857722 -0.080526374 -0.19105512 0.13700774 -0.00464269 -0.006521045 -0.2179564 -0.20806533 -0.04991008 0.06996526 0.21664895 -0.18094186 0.12328946 -0.044405703 -0.019002045 0.14325584 0.19303331 -0.18586396 0.17630237 -0.07533605 0.21962643 -0.1610298 -0.0651408 -0.04000636 0.19679637 -0.09118635 -0.067351714 0.2299407 -0.24250601 -0.04295035 0.12002555 -0.11966435 0.02808858 -0.109088354 0.014032328 -0.010352168 -0.083125636 -0.19095753 0.03518514 -0.040003248 -0.064755894 0.21133213 0.022280054 0.085007586 0.010100432 0.030565958 -0.1540374 -0.24247812 -0.07998703 0.051780283 -0.08744811 -0.15804465 0.025704375 0.085556366 -0.08440427 0.09939295 0.050242037 0.14721389 -0.10835906 0.20074697 0.019946378 -0.12718835 0.100088134 -0.032489263 -0.12206198 0.17275348 -0.009038283 -0.13541488 0.09965641 -0.07121182 -0.007394798 -0.013578121 0.15745015 0.20619227 0.09683504 -0.12091981 0.033595275 -0.04990472 -0.02583418 0.01662072 0.13798404 -0.12659472 -0.10058309 -0.04620734 0.10358117 -0.13832134 -0.075127736 -0.07749919 -0.06692731 0.041752342 -0.26442808 -0.107097596 0.01882958 0.056525286 0.08349249
6 -0.014037036 -0.25153902 0.028613644 -0.023364684 0.025032312 -0.18904445 0.08152165 0.15366748 0.067079805 0.058799196 -0.13154884 0.12799285 0.117216624 -0.18053116 0.030475272 -0.18882394 0.005259179 -0.18525876 0.07218176 -0.028482588 0.24247888 -0.026255164 0.21920563 -0.009332466 0.06883443 0.01913676 -0.010783636 0.008308162 0.017436769 0.16439931 0.009892488 0.044519648 -0.052847426 -0.033397917 -0.0705256 -0.18120371 0.13416108 0.004121403 -0.008358097 -0.20629789 -0.19016838 -0.05238685 0.06857986 0.2028832 -0.17890012 0.116401084 -0.038850565 -0.02181685 0.13827081 0.18761057 -0.18094605 0.16220082 -0.07719248 0.2061233 -0.14759526 -0.066324845 -0.036903117 0.19134626 -0.08544746 -0.07444899 0.22368848 -0.23002101 -0.03707185 0.11502159 -0.117749885 0.02748587 -0.110186435 0.012329524 -0.011231082 -0.08384061 -0.18478373 0.033332516 -0.04358933 -0.060097113 0.20935157 0.026465755 0.08560668 0.010957319 0.027729902 -0.14964768 -0.23522474 -0.07091378 0.05319872 -0.07894567 -0.14483345 0.017742444 0.097635664 -0.08427631 0.10087597 0.045370605 0.14207682 -0.105321385 0.19048595 0.022285206 -0.12231591 0.091581054 -0.030340914 -0.1225189 0.16751343 -0.006838819 -0.11979303 0.08942597 -0.06790561 -0.0032865799 -0.01719487 0.1553168 0.19330366 0.093772545 -0.11371978 0.02818694 -0.045829233 -0.0185375 0.01805996 0.13711256 -0.119158864 -0.088473886 -0.041188493 0.09585808 -0.1269008 -0.08009393 -0.069353834 -0.06721002 0.044039324 -0.25679645 -0.1098448 0.013219062 0.056556933 0.07339146
30 -0.025819227 -0.2236508 0.0739157 -0.0023043586 0.09099536 -0.17419675 0.12528774 0.062036105 -0.028496262 0.09560707 -0.21544303 0.060790755 0.18640675 -0.2668337 -0.096648335 -0.2279704 0.027120655 -0.06426506 -0.004125588 0.046624884 0.25016114 0.039604608 0.30113837 0.009882425 -0.03522366 0.0017190499 -0.0025607243 0.0067799357 -0.032714464 0.18871596 -0.04398759 0.13468818 -0.09561584 0.0023419738 -0.13499278 -0.13779566 0.110506155 -0.037769392 0.0067631532 -0.21444137 -0.2688487 0.09087667 0.07143099 0.1442201 -0.09232319 0.095691465 -0.119483806 -0.056349773 0.045205995 0.09965462 -0.027869832 0.19370815 -0.026969776 0.17746139 -0.14588246 -0.012729611 -0.06875515 0.09806637 -0.09291899 0.027219918 0.14677836 -0.17954852 -0.1287158 0.05455883 0.023504356 -0.109463155 -0.03686565 -0.03307978 -0.025250772 0.029493552 -0.013707245 -0.013444588 0.066811934 -0.016916012 0.01648505 -0.074827686 0.05794578 0.049554817 0.048091266 0.0284923 -0.13830242 -0.15966813 0.0125154825 -0.20433655 -0.05757834 0.16432023 -0.12748581 -0.013436698 -0.027525013 0.04548986 0.070836544 0.024590215 0.12942196 -0.04155427 -0.04610408 0.16806334 -0.1013843 0.052449778 0.12923448 -0.11794432 -0.16423452 0.113350384 -0.0035646963 -0.04607497 0.040691517 0.121157266 0.2204695 0.121252656 -0.1034972 0.04016338 -0.037057005 -0.15021846 -0.019902425 0.06751714 -0.042631295 -0.120402716 -0.04757657 0.09787426 -0.11557873 0.03709204 -0.09148989 -0.11858119 -0.06386004 -0.17471273 0.07331816 0.15324618 0.007960628 0.032846555
31 -0.021492634 -0.2112678 0.06544033 -0.010300519 0.070553534 -0.17284578 0.09862404 0.08207935 -0.007282101 0.07704 -0.17211822 0.078802675 0.16062546 -0.22670542 -0.05317562 -0.20476505 0.0140351225 -0.090470575 0.025393086 0.020061325 0.23474854 0.020208698 0.25465187 0.0097493585 -0.0051495447 0.015843485 -0.00063473044 0.016457995 -0.008797767 0.16624685 -0.03262403 0.1067866 -0.08708143 0.0023572138 -0.10443469 -0.142887 0.110347755 -0.030349126 0.010570505 -0.20242064 -0.23048703 0.04397415 0.06760313 0.15446918 -0.112158686 0.09273434 -0.09788018 -0.04599075 0.06867332 0.11761659 -0.07405538 0.1689035 -0.039071955 0.1815182 -0.14203854 -0.027232423 -0.050364245 0.118535124 -0.0945733 -0.007353593 0.16318074 -0.18417984 -0.10256086 0.062979676 -0.023614746 -0.06106381 -0.05890898 -0.019514363 -0.023392268 -0.002386904 -0.06585906 -0.0024442235 0.034919214 -0.031056624 0.07277539 -0.038730513 0.071489334 0.03152938 0.045517676 -0.024748897 -0.15437937 -0.13182095 0.022240244 -0.16227476 -0.07694881 0.113587245 -0.056148425 -0.036485005 0.01660851 0.041774854 0.081921935 -0.008049779 0.14078017 -0.031104453 -0.076238506 0.13858445 -0.082607225 -0.0028971136 0.13150601 -0.075380564 -0.15221515 0.101827204 -0.016968625 -0.032047063 0.020123743 0.12971239 0.20373338 0.111388594 -0.100807026 0.03457275 -0.040530298 -0.10816717 -0.007862685 0.087722115 -0.06594169 -0.10310379 -0.044148665 0.1005739 -0.11958756 0.0019024569 -0.08248936 -0.10408153 -0.035514746 -0.19809647 0.016902361 0.1059748 0.016657468 0.044782747
25 -0.028029213 -0.2125963 0.067075066 -0.007043915 0.085209824 -0.17117089 0.11269603 0.061592806 -0.020440381 0.08540572 -0.1992564 0.055384476 0.17674807 -0.24440254 -0.08669066 -0.21608517 0.027213862 -0.06578209 0.0053280233 0.042927667 0.23788798 0.034966595 0.27905783 0.014964718 -0.030267369 -0.0004962351 -0.0033057688 0.003690305 -0.029842637 0.17770398 -0.035739776 0.12310113 -0.08718852 -0.0022542637 -0.12665568 -0.130998 0.10312533 -0.03324374 0.00077283126 -0.20231079 -0.2497836 0.07996194 0.061577883 0.130134 -0.08691824 0.09533301 -0.10823378 -0.044329204 0.050453357 0.09444911 -0.03564723 0.18040068 -0.026439507 0.17260139 -0.1429687 -0.01500183 -0.052678388 0.08987206 -0.09113159 0.025167182 0.13784997 -0.16413362 -0.117298946 0.051474415 0.008217873 -0.096016355 -0.037896883 -0.02626213 -0.027758311 0.027646853 -0.022795303 -0.012090607 0.057471782 -0.013556954 0.020116424 -0.067150675 0.046935674 0.04470737 0.04580004 0.016496908 -0.12932798 -0.14491354 0.016966233 -0.18508784 -0.05428508 0.14370343 -0.107657835 -0.020211922 -0.024245825 0.037044615 0.06191243 0.017535862 0.1242156 -0.041989453 -0.04578165 0.15132649 -0.08958806 0.040044226 0.11917594 -0.10214792 -0.1566121 0.105545424 -0.0062423446 -0.034488413 0.03749963 0.11313191 0.20118706 0.11170418 -0.087868415 0.037616827 -0.034074247 -0.13145426 -0.0124873845 0.06379854 -0.04857295 -0.11063087 -0.0357886 0.08451364 -0.099495746 0.023275293 -0.07746278 -0.10186427 -0.057337463 -0.1638886 0.0589062 0.13807315 0.00014824882 0.02846807
26 -0.021772876 -0.22641397 0.067325406 -0.008834428 0.08725298 -0.18382208 0.121963695 0.074306846 -0.020746 0.08556907 -0.20507449 0.064315744 0.18315606 -0.2556529 -0.08036454 -0.22131424 0.027565539 -0.0806528 0.008060559 0.03867177 0.25013727 0.032099705 0.28826192 0.012834607 -0.023836238 0.0011317009 -0.010423791 0.002210019 -0.025955155 0.18638204 -0.031852763 0.120023794 -0.08666978 -0.007323135 -0.12847371 -0.14726616 0.11733375 -0.03458109 0.00033424754 -0.21196733 -0.25228414 0.06359496 0.06159432 0.14639622 -0.104092956 0.103245266 -0.11084191 -0.04664477 0.056535687 0.11119322 -0.04495828 0.18646501 -0.03475264 0.17722921 -0.14612529 -0.021397894 -0.054288078 0.10822018 -0.0968252 0.014082317 0.15421009 -0.18191138 -0.114311434 0.06761285 -0.00017228346 -0.086224005 -0.04461784 -0.027562868 -0.02158141 0.016845752 -0.04134599 -0.00443427 0.04418567 -0.024223762 0.043591592 -0.06137516 0.04991362 0.04171947 0.042792536 0.00030373037 -0.15142635 -0.14129572 0.022545012 -0.1790425 -0.0637343 0.14282131 -0.09418963 -0.022456126 -0.010827919 0.04279193 0.077219896 0.004661738 0.13821325 -0.03065618 -0.051954236 0.14927971 -0.089889735 0.027348736 0.13328594 -0.10283444 -0.15682997 0.10915217 -0.011318389 -0.0337097 0.034999825 0.1270818 0.21484888 0.113569826 -0.094224446 0.04480055 -0.03994782 -0.12850757 -0.010076004 0.080297396 -0.0546697 -0.11492195 -0.039748576 0.089651994 -0.10285555 0.0101583125 -0.083625056 -0.10904177 -0.050936807 -0.18471491 0.04675451 0.13308914 0.0077736164 0.032624707
11 -0.022554649 -0.26868454 0.04042426 -0.022960125 0.042530164 -0.20552972 0.092657626 0.15018424 0.055609163 0.065498196 -0.16101627 0.12509307 0.13927254 -0.20657638 0.009653101 -0.21559097 0.011457833 -0.17350127 0.062328678 -0.016961755 0.2645678 -0.013674819 0.25337118 -0.0017719248 0.05081256 0.016662149 -0.013053463 0.013116425 0.006049209 0.17471372 0.0021294048 0.065156035 -0.06406929 -0.031631716 -0.08507821 -0.18194118 0.1425962 -0.003679233 -0.003569287 -0.21266966 -0.21196555 -0.030686967 0.07254138 0.20760842 -0.1725583 0.12064458 -0.053819858 -0.022417976 0.12556209 0.18309009 -0.16259053 0.1766975 -0.06955798 0.21470329 -0.16087647 -0.06441578 -0.04359242 0.19150501 -0.099930525 -0.056763522 0.21888648 -0.23858176 -0.052699614 0.11487694 -0.104429446 0.009067258 -0.10492049 0.0037788155 -0.008846791 -0.06923398 -0.1694157 0.027918413 -0.027821288 -0.061242472 0.18921697 0.011160471 0.08384564 0.011512755 0.032177735 -0.13057074 -0.22897382 -0.09214254 0.047185905 -0.10959725 -0.14534976 0.05018197 0.0649682 -0.075388476 0.086472616 0.048680093 0.13275252 -0.09332688 0.19215202 0.012204407 -0.1165068 0.10739845 -0.04539715 -0.095703855 0.16933905 -0.02168079 -0.136968 0.105124846 -0.06299089 -0.0107984925 -0.0066375076 0.15790123 0.21628186 0.098052986 -0.12026439 0.03222088 -0.051347136 -0.042772822 0.01126347 0.13128312 -0.11511405 -0.105884984 -0.048044734 0.108687416 -0.13366252 -0.06663921 -0.07737049 -0.08212217 0.02865335 -0.2603746 -0.08285363 0.035581682 0.044041805 0.075413056
29 -0.024458325 -0.21740794 0.06412165 -0.01302212 0.0807961 -0.17728284 0.10553537 0.08109697 -0.011842682 0.08232219 -0.1867343 0.075789645 0.16717257 -0.23886627 -0.06456031 -0.21475907 0.017376412 -0.08721928 0.021972785 0.024778739 0.23969993 0.025876433 0.26301178 0.007827169 -0.015823442 0.013174967 -0.0011814744 0.011168552 -0.0102306055 0.17326555 -0.031632252 0.107748315 -0.085474215 0.0016581191 -0.11176149 -0.14250924 0.11596138 -0.03318281 0.008564038 -0.2059563 -0.23321773 0.052681837 0.063240476 0.1504256 -0.1024563 0.094597094 -0.102307625 -0.044969037 0.0634415 0.11096371 -0.06275887 0.16790387 -0.038621347 0.18566594 -0.1478581 -0.01839778 -0.04875645 0.118315436 -0.09275777 0.0026350273 0.1572275 -0.18377423 -0.10927979 0.06124555 -0.015901884 -0.07018245 -0.055779245 -0.021823004 -0.020799458 0.009912823 -0.061026026 -0.0017086535 0.03811684 -0.026261408 0.059538644 -0.04160467 0.068216614 0.03515134 0.04517821 -0.014148153 -0.15741226 -0.13842016 0.025228223 -0.17366993 -0.07242299 0.12797932 -0.06674825 -0.03370273 0.007739224 0.04219869 0.081883356 -0.0080888355 0.13475451 -0.03440124 -0.06553261 0.14748973 -0.08882391 0.012296613 0.1299867 -0.08911507 -0.15765372 0.1073321 -0.012400751 -0.030868808 0.025737593 0.13057752 0.20451385 0.11016181 -0.1040778 0.039245278 -0.035577834 -0.115542024 -0.010549911 0.08478499 -0.06575439 -0.113683924 -0.042901836 0.093292125 -0.10994261 0.007308185 -0.08255518 -0.10461937 -0.044247966 -0.19148204 0.034153145 0.1156795 0.015021247 0.038978495
5 -0.020848297 -0.24527948 0.04265273 -0.019769438 0.0552924 -0.18745737 0.09925005 0.1160164 0.03550492 0.06894081 -0.16092212 0.10654577 0.14169785 -0.21021497 -0.015352662 -0.20880386 0.012413442 -0.1395583 0.04436685 0.0015153356 0.24712552 0.0046760775 0.2457077 0.005233356 0.0291161 0.011577135 -0.00849447 0.0068327426 -0.0024660951 0.16954572 -0.01183416 0.07873699 -0.07399526 -0.01664842 -0.088909134 -0.16806267 0.12460406 -0.01292034 -0.0013112008 -0.20288691 -0.21249062 -0.0018136817 0.06445437 0.18034646 -0.14639063 0.10711521 -0.068918236 -0.032122046 0.1029067 0.15180066 -0.12475008 0.17496915 -0.053461406 0.1946317 -0.14759089 -0.05046634 -0.044974085 0.1570927 -0.08897912 -0.039392456 0.18939498 -0.21298489 -0.071274176 0.09443507 -0.069736384 -0.01901573 -0.07626156 -0.006762249 -0.012100127 -0.040785644 -0.12464304 0.015889809 -0.0036973124 -0.04920648 0.1360505 -0.013451319 0.070089504 0.01769408 0.032538544 -0.08901724 -0.19829229 -0.10368945 0.035472378 -0.12647574 -0.11779248 0.06808106 0.0170798 -0.05435412 0.05560083 0.044904754 0.11357859 -0.059143573 0.166916 -0.0019764993 -0.0997118 0.11660636 -0.059006263 -0.05855089 0.15368758 -0.0391149 -0.14122286 0.09738848 -0.04437578 -0.022558881 0.001724811 0.13643605 0.20102136 0.09795144 -0.11230331 0.030756611 -0.046012837 -0.06486452 0.007318082 0.105753504 -0.09353313 -0.09598387 -0.03834063 0.09806962 -0.117033534 -0.03525284 -0.075485885 -0.0818089 0.0049924823 -0.22333607 -0.045636598 0.06362808 0.03231704 0.06258836
20 -0.021348415 -0.22362849 0.05846643 -0.015100224 0.06386508 -0.18021257 0.10164313 0.09912415 0.0011139738 0.07398219 -0.17733142 0.08083505 0.16046196 -0.22265172 -0.044921592 -0.20672663 0.013810637 -0.10355079 0.0303919 0.01051093 0.24241684 0.0145672485 0.25776255 0.008535751 0.0055644875 0.019800728 0.00047757616 0.013546953 -0.0054184175 0.16422838 -0.028999006 0.09373626 -0.07943773 -0.0056291996 -0.09662414 -0.14796092 0.11695687 -0.029932993 0.003461694 -0.20354219 -0.22698009 0.02647234 0.06260085 0.16307135 -0.115847595 0.09601205 -0.084018014 -0.037654642 0.08074363 0.122327045 -0.08829622 0.16394958 -0.041396447 0.18323363 -0.14377238 -0.03028771 -0.04813806 0.12711519 -0.09483208 -0.011963931 0.17048344 -0.18708375 -0.08836071 0.07305862 -0.035660192 -0.047034718 -0.063440025 -0.011115094 -0.022516673 -0.009336414 -0.087205306 0.0066234 0.022472404 -0.037315566 0.08888764 -0.027710548 0.07273108 0.025607063 0.04255526 -0.040838752 -0.16860795 -0.12845665 0.028373571 -0.15467766 -0.08764024 0.10674533 -0.036134243 -0.039922312 0.025801526 0.04685457 0.094976045 -0.025543248 0.14660603 -0.025329808 -0.08118293 0.1326554 -0.07281518 -0.018923668 0.13480377 -0.06472786 -0.14943363 0.09860807 -0.02533923 -0.023270128 0.015812352 0.1373662 0.20294541 0.1064115 -0.10389722 0.038585287 -0.04287754 -0.09300482 -0.0025108235 0.09881183 -0.07732341 -0.10750351 -0.038681597 0.10067039 -0.117512874 -0.009291878 -0.08052443 -0.093285866 -0.024112444 -0.209708 0.003913815 0.09405908 0.021054648 0.050418653
19 -0.024729673 -0.20930696 0.07652018 -0.010302807 0.085414805 -0.16545758 0.10962595 0.06298639 -0.018080065 0.086296454 -0.19669525 0.06586897 0.17215414 -0.24559268 -0.08190972 -0.21016026 0.016834412 -0.07012429 0.008061995 0.037564468 0.23877066 0.033696197 0.27916268 0.01412449 -0.029522797 0.011829242 -0.0042689093 0.008328484 -0.02406332 0.17311083 -0.03952395 0.12888809 -0.09158107 0.0008061352 -0.1223083 -0.13683376 0.1026978 -0.03646211 0.00999799 -0.2006968 -0.25195792 0.077636115 0.0689602 0.13728742 -0.09097092 0.091709666 -0.10843291 -0.051846508 0.04878715 0.09675861 -0.03654057 0.17475043 -0.034084305 0.17320523 -0.13619664 -0.011661402 -0.06105311 0.09916866 -0.0872042 0.018350886 0.14074042 -0.17120628 -0.11675745 0.053668756 0.008640013 -0.09419372 -0.03247871 -0.028816642 -0.02840353 0.021494897 -0.021048672 -0.012322339 0.058321197 -0.015964763 0.023736116 -0.06365101 0.060890943 0.04110737 0.040726118 0.0099001825 -0.13044721 -0.14212503 0.016165026 -0.18995242 -0.061642352 0.14118457 -0.102082424 -0.016537629 -0.01538988 0.04070816 0.06852392 0.024313927 0.12960303 -0.03719354 -0.056169834 0.1580757 -0.08965439 0.037018713 0.1214686 -0.10182872 -0.15279417 0.10579063 -0.00737597 -0.03886439 0.03371647 0.116713926 0.20180143 0.11358592 -0.096500866 0.034688074 -0.035021182 -0.12867416 -0.013647131 0.06669818 -0.045836527 -0.10528981 -0.037145678 0.097505845 -0.112459935 0.03049829 -0.08235251 -0.11263717 -0.05631364 -0.17278764 0.053686984 0.133462 0.0032254746 0.030221352
15 -0.030562915 -0.20778753 0.074185565 -0.011707641 0.08456388 -0.16222301 0.10709542 0.06621044 -0.016619438 0.080773465 -0.18632743 0.06417404 0.16797814 -0.23669568 -0.072372295 -0.20760426 0.016737258 -0.07221862 0.007950149 0.02784473 0.23686966 0.03533522 0.27303582 0.011233891 -0.028180648 0.011342368 -0.0048948443 0.009019943 -0.018911729 0.16805467 -0.040021237 0.12361995 -0.08924599 0.0032471693 -0.11720362 -0.13895799 0.10472866 -0.03815991 0.010349359 -0.19908315 -0.25053388 0.06927313 0.06939184 0.14390266 -0.09365304 0.093440555 -0.111710295 -0.04906275 0.05396097 0.100495756 -0.044537026 0.17524745 -0.03456952 0.1818435 -0.14491795 -0.02002861 -0.061321568 0.10259673 -0.09050791 0.016521465 0.1511555 -0.17200498 -0.11736598 0.051856913 0.0040229345 -0.08179363 -0.038858715 -0.026384747 -0.022098504 0.022755897 -0.029442968 -0.012033467 0.056400303 -0.023097621 0.033838138 -0.0573894 0.06354848 0.038762044 0.04126198 0.00097206404 -0.1358293 -0.14091446 0.018283885 -0.18748616 -0.06688867 0.13429932 -0.09506705 -0.026164332 -0.0062285345 0.046003297 0.07350571 0.01661207 0.13176095 -0.040632386 -0.062459987 0.15562361 -0.0871992 0.031297795 0.12750591 -0.09312985 -0.15387842 0.10477222 -0.008245447 -0.033316717 0.034099214 0.117252685 0.20591849 0.115640566 -0.09833104 0.03221572 -0.033880986 -0.12542652 -0.013210949 0.07145646 -0.054392345 -0.10491018 -0.038736228 0.09936313 -0.1163453 0.023667328 -0.07800967 -0.112295315 -0.04753096 -0.17289333 0.04477356 0.12733886 0.010957338 0.037196163
23 -0.02587429 -0.21224335 0.06504896 -0.010361787 0.080422044 -0.16917889 0.10706602 0.07792857 -0.011351973 0.08190198 -0.19198209 0.06987597 0.17013599 -0.24333033 -0.07349153 -0.20933436 0.020230021 -0.076078355 0.015588287 0.032959145 0.23766829 0.029676253 0.2685174 0.014375138 -0.018336508 0.009502481 -0.00647213 0.0071552186 -0.022643173 0.17493467 -0.03539203 0.11807276 -0.08913239 0.00088566827 -0.117969126 -0.14346842 0.10952907 -0.036365703 0.0043191 -0.19995077 -0.24383323 0.06220746 0.06805375 0.14812022 -0.099201575 0.09082948 -0.10516586 -0.04204288 0.05682706 0.10482532 -0.04949696 0.17252758 -0.03176676 0.17506771 -0.14115438 -0.02344964 -0.05762971 0.10767962 -0.092530414 0.0057837334 0.14928824 -0.17795055 -0.1070095 0.060073752 -0.0019906126 -0.078091085 -0.04217195 -0.020959923 -0.022418804 0.015155367 -0.04238778 -0.0056414497 0.050655548 -0.023106532 0.04285825 -0.05205595 0.06282719 0.03654443 0.04675439 -0.0033442415 -0.14023049 -0.14015284 0.022992192 -0.17676541 -0.07140954 0.13308406 -0.08533097 -0.024058845 -0.0031773918 0.041199498 0.077010356 0.006650723 0.12883832 -0.034135714 -0.06591521 0.14483595 -0.08480805 0.019432278 0.12624715 -0.08666164 -0.15500073 0.10288307 -0.007447179 -0.036814023 0.028752998 0.1196248 0.20055744 0.108645864 -0.09774098 0.036992382 -0.039679024 -0.12179165 -0.012148895 0.07436986 -0.057128932 -0.1078543 -0.043486837 0.09584723 -0.10956134 0.016213695 -0.07909202 -0.103195585 -0.04791294 -0.1823401 0.04193848 0.11691879 0.010836862 0.03723434
16 -0.02577543 -0.20317082 0.07162964 -0.008866692 0.08220549 -0.16453618 0.1084197 0.06625943 -0.020279977 0.08309801 -0.19079569 0.064357564 0.16690257 -0.23484908 -0.072919615 -0.20846137 0.015290029 -0.07159473 0.00482724 0.028721226 0.23047751 0.035073686 0.27076185 0.010003011 -0.025377305 0.011761036 -0.00095175556 0.009554903 -0.020495947 0.16441777 -0.041739672 0.12158231 -0.08998 0.0010543749 -0.11402363 -0.13248233 0.107263684 -0.04027592 0.0049408497 -0.20123929 -0.2448459 0.07308775 0.069255 0.13870396 -0.09030341 0.08714335 -0.105234765 -0.045069944 0.04784203 0.099029735 -0.037159543 0.1696626 -0.030358154 0.17373957 -0.13470186 -0.013701039 -0.055900894 0.09877311 -0.08905331 0.012073346 0.14385954 -0.17124362 -0.115317106 0.048031025 0.0074738497 -0.08600298 -0.038838614 -0.021839185 -0.027363282 0.01704842 -0.025609806 -0.013272243 0.05550945 -0.021908034 0.03437 -0.05781861 0.06346557 0.036063954 0.04118873 0.00984196 -0.12841836 -0.14360066 0.017798966 -0.18242982 -0.05862255 0.14085871 -0.09507759 -0.01731255 -0.007506437 0.043072477 0.06657507 0.017227776 0.120526604 -0.038623992 -0.054815415 0.15256928 -0.0863426 0.029134225 0.12032769 -0.10145388 -0.15038386 0.10529512 -0.0010293287 -0.037177905 0.030299434 0.11715235 0.20023073 0.11330142 -0.09389368 0.037118774 -0.03535364 -0.12270617 -0.01717421 0.074052595 -0.047681496 -0.10551975 -0.04169249 0.095714934 -0.10876813 0.019675355 -0.08161096 -0.10748073 -0.054855134 -0.1756274 0.055524528 0.1300722 0.008440051 0.037359226
13 -0.018955795 -0.21769653 0.061546046 -0.016747728 0.068608195 -0.17518815 0.10127265 0.08785757 0.00035381372 0.0800803 -0.18036802 0.07475223 0.15974414 -0.22804762 -0.048974846 -0.2057187 0.016255429 -0.09728399 0.02533713 0.015900195 0.23897982 0.018618165 0.2513717 0.007771519 -0.005533427 0.014142007 0.0024674179 0.015664946 -0.008049127 0.16703323 -0.029569967 0.09992845 -0.08181689 -0.004500793 -0.10405145 -0.14827262 0.114800744 -0.024239425 0.0062414887 -0.19907004 -0.2237576 0.03684868 0.06456726 0.15840717 -0.111564055 0.09798115 -0.08974571 -0.039623197 0.07303966 0.12412668 -0.079593524 0.16901428 -0.037442844 0.18818769 -0.14767699 -0.029039392 -0.053107373 0.121992506 -0.089490764 -0.010017081 0.16510366 -0.18615346 -0.0985515 0.06483138 -0.02297644 -0.058081042 -0.061116163 -0.020212347 -0.017828822 -0.0099152075 -0.07680068 -0.0012396576 0.03011709 -0.034130134 0.0799963 -0.039077524 0.066014804 0.02884331 0.039642144 -0.036560096 -0.16433932 -0.13346036 0.025374994 -0.15993704 -0.08655505 0.11168495 -0.044023145 -0.039081726 0.01696519 0.04826124 0.09300288 -0.020845976 0.13858122 -0.030864296 -0.07474232 0.13503364 -0.080472186 -0.012207654 0.13334414 -0.076049946 -0.14626823 0.10296475 -0.020401062 -0.027294125 0.018866984 0.12805757 0.20825489 0.10646622 -0.105627455 0.03190137 -0.03623308 -0.10323017 -0.005412102 0.09650801 -0.07381085 -0.11045555 -0.04410795 0.09845964 -0.11414074 -0.0076608006 -0.07990332 -0.09627839 -0.02671572 -0.19874734 0.01228053 0.103620194 0.02360288 0.04783074
10 -0.026634404 -0.21389817 0.06936392 -0.009543357 0.08664473 -0.16881135 0.10955007 0.074395716 -0.012320769 0.0817284 -0.19097325 0.06976503 0.17009759 -0.2412923 -0.075918354 -0.21056108 0.022441227 -0.07126033 0.011359454 0.032052707 0.23980603 0.032467026 0.27437904 0.014171366 -0.023929913 0.010662039 0.00026927114 0.008353703 -0.01947773 0.17060378 -0.040601883 0.1170907 -0.09011325 0.007137697 -0.119440965 -0.14082849 0.10978946 -0.040111743 0.004865345 -0.20461826 -0.24890588 0.06518311 0.0727557 0.14922306 -0.09551149 0.09364609 -0.10385181 -0.04859925 0.06191952 0.10137842 -0.047815256 0.17639291 -0.030560123 0.18214548 -0.14614792 -0.015125597 -0.054792672 0.104674034 -0.0968761 0.013275926 0.15143977 -0.1781507 -0.120159976 0.057217896 -3.5055607e-05 -0.08082326 -0.0441463 -0.02726319 -0.028580489 0.014143084 -0.034850407 -0.011658464 0.056217335 -0.021587968 0.043178376 -0.053502735 0.0624962 0.03648699 0.042351928 0.00051651115 -0.14422253 -0.14620835 0.019043555 -0.17983255 -0.06877059 0.13601804 -0.09225452 -0.026581513 -0.004342976 0.04210802 0.07652982 0.010865033 0.13224277 -0.035978585 -0.060784217 0.15319462 -0.09028072 0.0211282 0.12763314 -0.091842264 -0.15891016 0.10419123 -0.0063486104 -0.033470657 0.0284106 0.12209538 0.20853195 0.1178594 -0.10341247 0.0376739 -0.03227594 -0.12823236 -0.009361222 0.07556949 -0.052983772 -0.10880867 -0.039148793 0.097652964 -0.11301788 0.01602259 -0.08140688 -0.10915918 -0.05039994 -0.17810753 0.04941529 0.12349427 0.008414434 0.037333325
22 -0.016044244 -0.23929676 0.05159283 -0.022342432 0.057522558 -0.19103998 0.0934123 0.11532425 0.016634755 0.071372315 -0.17376956 0.09826991 0.15559734 -0.21921232 -0.023448432 -0.21135308 0.01284748 -0.12874961 0.05069021 0.0068930746 0.25200024 0.0061682845 0.2553928 0.005095092 0.017960962 0.026031584 -0.0020008143 0.013815511 0.0033666785 0.17118023 -0.019052967 0.07929637 -0.08051355 -0.010183472 -0.09400342 -0.16564082 0.1206633 -0.02421452 0.0035156303 -0.21123642 -0.21492249 -0.0014038964 0.06293546 0.18549903 -0.13236302 0.10675912 -0.08219734 -0.031476777 0.103800334 0.14505191 -0.120222665 0.16300724 -0.055860344 0.20234208 -0.15006259 -0.039869193 -0.04242626 0.15809049 -0.09525015 -0.03529778 0.19007395 -0.20690629 -0.07773717 0.087535486 -0.061485875 -0.022074295 -0.0832383 -0.005999729 -0.014605507 -0.028462848 -0.12327439 0.014716499 0.008712802 -0.048904072 0.13025548 -0.013624007 0.07626146 0.02373756 0.04375749 -0.07785738 -0.20102654 -0.123128794 0.03825353 -0.14345895 -0.10975682 0.08380064 0.0054791654 -0.059996214 0.053662363 0.047977645 0.112290494 -0.05420845 0.16453646 -0.020800546 -0.10155242 0.12670335 -0.071132086 -0.04828414 0.15440556 -0.055282492 -0.14918768 0.10429949 -0.03137654 -0.01843323 0.0081898775 0.151 0.21167338 0.11077323 -0.118220665 0.036631715 -0.045040283 -0.08115946 0.007395637 0.11860657 -0.09407719 -0.10826889 -0.04407472 0.10399189 -0.12850137 -0.03201719 -0.07952837 -0.0927376 -0.008053468 -0.23163027 -0.025429301 0.07415509 0.035402875 0.059519105
18 -0.019707015 -0.22977005 0.051758368 -0.02017562 0.06278978 -0.18443006 0.091824286 0.11183631 0.017034866 0.076664746 -0.17145234 0.09417299 0.1559073 -0.21820217 -0.030818112 -0.21021584 0.0148920715 -0.11727 0.03750495 0.009421388 0.2448942 0.008795203 0.25316426 0.0056564007 0.019562213 0.022725202 -0.0021501528 0.016346741 0.0014480447 0.16705287 -0.02106905 0.08862891 -0.07638845 -0.0058155456 -0.09258031 -0.15967321 0.1159882 -0.024102904 0.0070696026 -0.19953753 -0.2200755 0.01462785 0.06288994 0.17251408 -0.12991089 0.100750506 -0.08472487 -0.035439465 0.092481814 0.13629104 -0.10465639 0.15986879 -0.046482287 0.19743963 -0.14807622 -0.033335753 -0.045732975 0.14152266 -0.09514773 -0.02576574 0.18013665 -0.20288068 -0.082046665 0.078569986 -0.047579966 -0.030173548 -0.07097692 -0.010699541 -0.015061872 -0.020739961 -0.10844565 0.009425646 0.016074799 -0.046113297 0.11425825 -0.017553871 0.07946099 0.025180774 0.04251969 -0.065176904 -0.18689376 -0.11690027 0.034762856 -0.14346626 -0.103203796 0.09058186 -0.006935577 -0.050199904 0.04010701 0.049456444 0.10186797 -0.04495347 0.15694304 -0.020904463 -0.095686115 0.12691118 -0.07124105 -0.034000892 0.14536017 -0.057674237 -0.14504954 0.103043854 -0.029166372 -0.021397736 0.011192146 0.14054152 0.19960216 0.101120494 -0.11071388 0.03185674 -0.046032928 -0.08522377 -0.0014082701 0.104654096 -0.083964795 -0.10770976 -0.041096598 0.09648002 -0.118220024 -0.024441155 -0.08006282 -0.094415195 -0.015199372 -0.21836524 -0.015666647 0.0747593 0.026903875 0.052647892
21 -0.027821697 -0.21252243 0.064373724 -0.01579267 0.07110891 -0.1728535 0.1033783 0.07943681 -0.004043742 0.085287064 -0.18240477 0.074667856 0.16446052 -0.23630966 -0.06023731 -0.20721759 0.01862176 -0.08841612 0.019953331 0.0234311 0.2416211 0.02438789 0.26528102 0.010884332 -0.0107081225 0.009035964 -0.002586117 0.010917483 -0.014965072 0.17088328 -0.028251214 0.109962456 -0.08476782 -0.0008558441 -0.11474522 -0.14700319 0.10885873 -0.027365914 0.008315397 -0.20027864 -0.24156918 0.056376725 0.06459386 0.14844725 -0.11122838 0.09655112 -0.09749243 -0.042135686 0.06933226 0.11406666 -0.059749015 0.17663276 -0.03520418 0.18006904 -0.145057 -0.02235747 -0.054167256 0.11296375 -0.09449179 0.005197369 0.15626857 -0.18279272 -0.10491292 0.0657567 -0.010155087 -0.06992484 -0.052243453 -0.02448689 -0.024489908 0.00049035053 -0.052042123 -0.008471506 0.041702315 -0.026216395 0.06412415 -0.045489978 0.062498156 0.030433845 0.044413842 -0.015596995 -0.15450832 -0.13250522 0.02141333 -0.17273217 -0.08062322 0.118670344 -0.069790974 -0.034240965 0.012218126 0.041214682 0.0858893 -0.002942807 0.13590403 -0.02581996 -0.067960285 0.14221196 -0.08417075 0.008166387 0.13509794 -0.085128635 -0.15425077 0.10288204 -0.015678067 -0.027883252 0.030237457 0.12850726 0.20611383 0.10762578 -0.10346236 0.033642426 -0.033500634 -0.10909197 -0.0100217 0.08641991 -0.06570004 -0.10496217 -0.046555344 0.09676334 -0.115691625 0.009070904 -0.08196864 -0.105537124 -0.03735158 -0.19553208 0.029717911 0.11425363 0.019591013 0.03874025
27 -0.026087968 -0.2248226 0.07036587 -0.010191145 0.089873634 -0.1736425 0.119460545 0.07344602 -0.022794109 0.09169667 -0.20628117 0.06313557 0.18047401 -0.25249255 -0.08665301 -0.22282822 0.028539293 -0.0739205 0.004345979 0.03382504 0.2512403 0.038154025 0.29298615 0.01678088 -0.02865326 0.0014122342 -0.00906192 0.01022435 -0.029160192 0.18562047 -0.039060432 0.12762773 -0.09352412 -0.0018951017 -0.1250229 -0.143919 0.10836172 -0.03804117 0.00248683 -0.21267854 -0.26482084 0.080056466 0.0691299 0.14408441 -0.09623252 0.09869121 -0.10878807 -0.049141962 0.052742306 0.1048317 -0.034614827 0.18994816 -0.03450842 0.18425016 -0.14631467 -0.019703627 -0.06208432 0.10276097 -0.09119855 0.021899825 0.14655076 -0.17397758 -0.12562566 0.05595835 0.009765763 -0.09639022 -0.043045677 -0.024845667 -0.027515387 0.02353791 -0.029629782 -0.007698149 0.05947691 -0.022882584 0.026328761 -0.06825745 0.060702793 0.040067106 0.044299003 0.014574799 -0.14175779 -0.1496479 0.019261992 -0.1878654 -0.067638665 0.14983252 -0.10540795 -0.020751119 -0.020720003 0.044158243 0.067196496 0.014970378 0.13232404 -0.037528664 -0.054996796 0.1590697 -0.09021688 0.034811694 0.13133723 -0.108918 -0.1659079 0.11054315 -0.0023084753 -0.04207332 0.03944136 0.12546985 0.21793205 0.11410887 -0.10204412 0.042901583 -0.03308895 -0.1373549 -0.016462 0.07181334 -0.04815756 -0.11881781 -0.044278715 0.098157115 -0.115840346 0.02378065 -0.088316895 -0.11163878 -0.05481187 -0.18295707 0.05612824 0.1417441 0.0068617114 0.035161912
17 -0.019700907 -0.25442478 0.03700261 -0.02121923 0.031691454 -0.19562916 0.090715274 0.14490356 0.058511745 0.06697674 -0.1456735 0.124542125 0.13101706 -0.19026068 0.009951671 -0.19550186 0.011058871 -0.1730859 0.059912886 -0.01584224 0.24886729 -0.017973159 0.23798357 -0.0056096916 0.056249097 0.020415964 -0.011927009 0.012739357 0.011644518 0.16996829 0.0027317102 0.05951747 -0.059038404 -0.028485527 -0.08166422 -0.18056424 0.13539015 -0.0024126372 -0.004095704 -0.20241922 -0.20169607 -0.039487947 0.064281926 0.20222469 -0.1682525 0.11149272 -0.048814468 -0.019509044 0.12331779 0.17808954 -0.16288209 0.16434644 -0.06715499 0.20044571 -0.15039298 -0.062493637 -0.04535416 0.18746623 -0.088297516 -0.061974607 0.2116786 -0.22802234 -0.047818553 0.10692037 -0.10117198 0.015808169 -0.09889905 0.0050385143 -0.009171495 -0.06559403 -0.1689734 0.02675096 -0.027845109 -0.060620576 0.18604706 0.017673174 0.077827536 0.0076406463 0.032880493 -0.1329607 -0.22047187 -0.08632378 0.04998272 -0.09472736 -0.1431142 0.041738197 0.069837615 -0.076070584 0.09091423 0.04458205 0.1274494 -0.09082241 0.18215574 0.01575373 -0.11598081 0.100922704 -0.03816203 -0.095950276 0.16665222 -0.01661004 -0.12934679 0.095305905 -0.062593855 -0.007864419 -0.0067269364 0.15015578 0.20478146 0.09164901 -0.11895574 0.035460215 -0.049252287 -0.037455224 0.018295571 0.13249068 -0.11279854 -0.09894778 -0.045339387 0.10703459 -0.13032496 -0.06940877 -0.07205389 -0.07279131 0.030829811 -0.2483469 -0.08764431 0.030808188 0.046481058 0.076715894
12 -0.026465442 -0.22874887 0.056994908 -0.018508293 0.06338231 -0.17970182 0.09588392 0.09605636 0.00769011 0.07808847 -0.17009772 0.09006332 0.15429078 -0.21965797 -0.04112659 -0.20302641 0.01393659 -0.10696968 0.034877516 0.009718607 0.24157666 0.017876726 0.25747287 0.0036743616 0.0022430683 0.0136749055 -0.0021619697 0.013431672 -0.006561879 0.16833524 -0.021274075 0.09670042 -0.082736045 -0.005989955 -0.09970837 -0.15011385 0.1148322 -0.022176452 0.004052265 -0.19890161 -0.22565621 0.025877664 0.06837988 0.16395727 -0.1235458 0.10158168 -0.08402563 -0.03820521 0.08024535 0.12833141 -0.09277337 0.17104857 -0.046369225 0.18711065 -0.14983627 -0.036550846 -0.048926186 0.13563561 -0.09321119 -0.014172774 0.17428695 -0.19301029 -0.093183786 0.07763557 -0.042094473 -0.044725947 -0.06263286 -0.013945989 -0.016572734 -0.011402796 -0.08452333 0.007559566 0.023709409 -0.03553242 0.09534903 -0.028985528 0.07241623 0.030781744 0.040883742 -0.044994604 -0.17290378 -0.122148916 0.026407111 -0.15154113 -0.09635543 0.1028503 -0.029861731 -0.044420365 0.0279069 0.041476138 0.09493541 -0.026522232 0.14839359 -0.021974348 -0.08026678 0.12837444 -0.06937306 -0.02610391 0.14099905 -0.06558233 -0.15071073 0.09802169 -0.025830334 -0.024055118 0.01646417 0.13056368 0.20464946 0.10569988 -0.10374049 0.031223569 -0.04385742 -0.092520006 -0.0007153355 0.0999853 -0.07601915 -0.10242009 -0.042754292 0.100709684 -0.121180564 -0.017261604 -0.08039817 -0.09722324 -0.01904153 -0.202938 -0.0043138238 0.089384206 0.020147296 0.05000274
