34 128
34 -0.0020578331 -0.0017808501 0.0024169332 0.0030555555 0.0034780812 -0.0018777382 0.0035847677 -0.00096598716 -0.0026712266 4.2421085e-05 -0.003796373 -8.969578e-06 0.0011268578 -0.0005492115 -0.0024305098 -0.0015136659 0.0036735677 0.0009064287 0.0028424743 0.0029060966 5.1081428e-05 -0.0007965004 0.003793375 -0.0025540397 0.00046414346 -0.0036295021 0.0024503393 -0.0015713881 -0.0012060795 0.0024801164 0.0037857075 0.0010715671 -0.0026272887 0.0011272259 0.0014216994 0.002883595 0.0038252238 0.0016361064 0.00060309353 0.0018295461 -0.0019375273 0.0034810347 0.0029128024 0.0016004103 -0.0011906832 -0.0031251223 0.0024528902 -0.0026548211 0.0022316207 0.0029687067 0.0017218438 0.00091650255 0.0020181008 0.0028865598 -0.002331177 -0.0035889195 0.00012742795 0.0004898117 8.554051e-05 -0.0012638944 -0.0017029865 0.002249548 -0.0038401643 0.00079451135 0.0003247201 -0.0020930052 -0.0019228624 -0.003675782 0.00368567 0.00041018715 -0.001662725 -0.000326495 -0.0034477066 0.002686206 2.3273638e-05 -0.00048623965 -0.0032208713 0.0038163993 0.0010568389 0.0019712474 -0.0030832016 -0.0018491411 0.0014270665 -0.002083058 0.0024852033 0.0029850083 -0.0003315603 0.0011062833 -0.00266971 0.0019056229 -0.0032508187 0.0005519535 -0.00073007506 -0.00045063088 -0.0014496063 0.0022387432 -0.0014974243 0.002887828 -0.0016373812 -0.0011758604 -0.0013974506 0.0035915403 -0.00037174925 -0.0029336244 -0.0037546346 0.00012895463 0.0024940495 -0.0009971631 -0.00087965926 0.0016032715 0.0018911666 0.00049775385 0.00023750577 0.0034513099 -0.00054338365 -0.0013001368 0.0013342582 0.0034194256 -0.000983229 0.0035094628 -0.0004961781 -0.001008429 0.001733471 0.00046532508 -0.0030556233 0.0026540812 0.0020510063 0.0008234271
33 -0.00020312004 -0.0023557502 0.0007782063 0.0033740145 0.0030609115 -0.003393808 -0.0008434024 0.0036997772 0.0020703992 -0.00032093795 0.0020412146 -0.000120843055 0.00038935384 -0.0028644868 0.0031287437 0.00196681 -0.0010615948 0.0027144942 -0.0031034178 -0.00035290176 0.003038841 -0.00016160434 0.002731342 -0.002858337 -0.0024542056 -0.0002105875 -0.002270823 0.0001370164 0.0019897725 0.001737741 -0.00060542085 0.0032652928 -0.0003461425 0.0035357971 -0.003486705 -0.002763462 -0.0005051234 -0.00018003192 -0.0035431914 0.003334354 -0.0013436658 0.0016786774 0.0019503966 -0.0023202822 -0.001507093 0.0018649116 -0.0010661519 -0.002828684 -0.0029436098 -0.00045383163 -0.0011123148 0.003313358 0.0022486115 -0.0018544577 -0.0038459934 0.0014458846 -0.0021201586 0.0011701265 0.0030128686 0.002386733 0.0037670883 -0.0038575465 -0.0023990024 0.001806421 0.0029323723 -0.0028375096 0.00376449 -0.002148526 0.0016405147 0.0026851078 0.0033727593 -0.0005107947 0.0012656624 0.0018030227 -0.0023103664 0.0025201968 0.0011972208 -0.00041526457 0.0012100902 -0.00045132148 0.0037949246 -0.0019176815 -0.0015168308 -0.0023557737 0.00051551324 0.0026576372 -0.0012591407 -0.0004266606 8.8479304e-05 0.0011598917 0.0032077034 0.0028416987 -0.00034330957 -0.001727752 0.002935876 0.003411413 -0.002576567 -0.0031221714 0.0033380755 -0.0011735492 -0.0028848378 -0.0026577038 -0.0015113108 0.0038578387 0.0013930221 -0.003079308 0.0012264617 0.0009981315 0.002250949 -0.0018734408 -0.0010183875 0.00057280855 0.0009908064 -0.002915389 0.0017173009 0.0007389981 5.351821e-05 -0.0033084503 -0.00303735 -0.0032708393 0.0017995659 -0.00029472806 0.0025933618 0.0010624314 0.0013470331 -0.0013869047 -0.002574199 -0.002460289
32 -0.0018553023 -0.0028453104 -0.0037276563 0.00022220776 0.00035300892 0.00045253744 0.0023909034 -0.0008245931 -0.0018638825 0.0007999701 -0.0010328887 0.0019224732 -0.0014528271 0.0011815015 0.0003454091 0.002357373 0.0011759256 -0.0011993299 -0.0036131267 0.00032704364 -0.00018666011 0.0027977694 -0.0031227847 -0.0019679214 -0.0030765277 -0.0011263221 -0.0016823434 0.003634913 0.0013941947 -0.0021785507 -0.0010550384 -0.00042886045 0.0037729202 0.0023319956 -0.0021782625 0.00038405193 0.002861023 0.0034521967 -0.000753181 -0.0023840566 -0.00266615 0.0014992476 -0.00051836105 -0.0007281162 -0.003152313 -0.0012895617 0.0028921827 0.001653276 -0.0005619226 -0.0033155074 -0.00033629744 0.0012528417 -0.0013237362 0.0018158864 -0.0029132394 -0.0024971827 -0.0015021081 -0.00026002037 -6.297219e-05 -0.00097651826 0.00091786124 0.00044995395 -0.003016335 0.003373201 -0.003361733 -0.0009572115 -0.0024881014 0.0025855585 0.00066914136 -0.0034580913 -0.0031651163 0.0029776841 0.0010725303 -0.0014773761 -0.002274873 0.0025456424 0.0009120392 0.0006244024 -0.0003594449 -0.00015577431 -0.00095146237 -0.0015583581 0.003034667 0.00043608612 1.059923e-05 0.0034479694 0.0016287912 0.0008007895 0.001203962 -0.0026055446 0.0010456523 0.0025886886 0.0019521939 -0.0025042482 0.0015016512 -0.000140659 0.00036477018 -0.00087603857 -0.003620282 -0.0036520204 0.001820938 -0.0026002405 -0.0031095443 -0.0022276787 0.0024103876 0.003836991 0.0030525422 -0.00240121 -0.003428931 0.0017309306 0.0006335157 -0.0022349684 0.0021633839 0.0029416068 0.0028806624 0.0022261187 -0.0004906633 0.0030827306 0.0033575795 -0.0014685871 -0.0013848344 -0.003699204 -0.000258224 0.001930564 0.0030310522 -0.0035478468 -0.0036995371 0.002709904
17 -0.00041682963 -0.0009062723 0.0007955965 0.0025378878 -0.0037782297 -0.0026179922 0.0022091884 0.0019982078 0.0036473263 0.0032169581 0.0014701447 0.003874528 0.0018423703 0.0022886149 -0.0020406994 0.0029607785 9.7295924e-05 -0.0037364033 -0.0019758537 0.00228675 -0.00017851175 -0.003527725 0.0027207748 -0.0025396585 0.0030249942 0.0023499203 -0.0011457478 -0.00012930148 0.0018438918 0.003017956 0.0009800366 0.00023715898 0.0021343003 -0.00081665965 -0.0017901025 -0.0031304536 0.0024555502 0.0017361554 -0.0008505608 0.002095975 -0.0009639161 -0.0034842412 -0.0022076613 0.0025843605 -0.001775806 -0.0018118072 0.0014696338 0.0024429823 -0.000607798 0.001657477 -0.0020164936 -0.0020540603 0.00053327373 -0.0038257183 0.0022377379 -0.0014261678 -0.003605122 0.0037092655 0.0027177825 -0.0035195295 0.0009840827 -0.0012131119 0.0019691295 -0.0016900282 0.0006819925 0.0027826503 -0.0005020097 -0.0007595899 0.0008492776 0.0018067519 -0.0026971227 -0.0006616864 0.0004463121 -0.0021823863 0.0027319528 0.0038726127 -0.0026195482 -0.0023690437 0.0010232095 -0.0033546705 0.0012970937 0.00021170054 0.0032355306 0.0032272711 -0.003444769 -7.046168e-05 0.0032635478 -0.0019430165 0.0038835304 -0.0009414903 -0.0030015535 -0.00042757453 -0.00073937385 0.0033137263 -0.0012072792 -0.0005306917 0.0034564417 0.0016715511 0.0024668013 0.0024751727 0.0018669178 -0.00068354816 -0.002027557 0.0020121224 0.00029047616 -0.0013988646 0.0005816842 -0.0025925727 -0.0021373464 0.0030963237 -0.00016344727 0.00077623175 0.003743361 0.0016249943 0.00035228685 -0.00024226282 -0.001044892 0.0033611995 -0.00061697914 -0.0035013782 0.0030909525 0.0029657914 0.0021521016 0.002317658 -0.0037120613 -0.0018872995 -0.0001328645 0.0027247136
28 -0.0032478156 -0.002638065 0.0039052747 0.00027601127 -2.3608834e-05 0.0030769662 0.00044742273 -0.0010287497 -0.0027094581 -0.0003138737 0.0015188531 0.0027171806 -0.00037030905 0.0026493026 -0.0022831608 -0.00045471874 -0.00075096794 -0.0020637992 0.0022914093 0.0018152046 -0.0035352358 -0.00021237179 -0.00037808693 -0.00097038044 -0.0018689462 0.002665562 -0.0033420431 0.0013555113 0.003400725 -0.000410324 -0.00070863095 0.003145836 0.0019866268 0.0033099607 0.0004516875 -0.00332917 0.002291999 0.0014358535 0.001511742 0.00092296064 -0.001363374 -0.0029678599 0.0022183503 0.002729661 -0.0032332595 -0.0024844706 -0.0037101095 -0.0007996931 -0.0034294692 -0.0023686646 -0.0037640634 0.00056735025 0.0021274686 -0.0026220004 0.0034108649 -0.0003549782 -0.0028726193 -0.0029389076 -0.0036631927 0.00027578967 -0.00020803588 -0.0021624821 0.0026480772 0.0022130334 0.000976379 -0.0010402645 -0.0010157005 0.0033494064 -0.0031068244 -0.0037996352 -0.0015466115 0.003137827 -0.0030110364 -0.0033359493 -0.00092819694 0.0011648728 -0.00064368336 0.0029741665 -0.0035321717 0.0029320756 0.0001369137 -0.0037253762 0.0017653242 0.00091233617 -0.000583524 0.0036939278 0.0008134008 0.0028376381 0.00030445727 0.0014305862 0.0011041076 0.00018553864 -0.0022858258 -0.003243731 0.0027880094 -0.0014038314 -0.00023206498 0.0021513985 -0.00029519835 -0.0028852767 -0.0024798685 0.0035451641 -0.003405513 -0.0016021658 0.002083562 0.0035394786 0.0034437508 0.0035307005 0.0010425152 -0.0034959153 0.0014873714 0.0011697324 -0.0026782078 -0.0006720281 0.0010707015 -0.0023780074 -0.0027547842 -0.0011493956 -0.0011541946 -0.002040086 0.00036108968 -0.0013942425 0.00028397725 0.002704775 -0.0029480082 -0.0035570276 0.000956636 0.0019772814
14 -0.001649933 -0.0022809121 0.0037665865 -0.003069394 0.0020419501 0.0013440705 -0.002192045 -0.0013348643 -0.00211942 0.002037641 -0.0037847883 0.0016620232 -0.001417411 -0.00027339757 0.00010236802 0.001355823 0.0021761463 -3.7373244e-05 0.0008749245 -0.002285439 0.0025530204 0.0038240615 -0.0001719742 0.0022061965 -0.0012517666 0.0019030647 0.002900207 0.0038574287 -0.0035340562 0.0029675087 0.0019529412 0.0011315078 -0.0013264964 0.0029250795 0.0024895864 -0.0013398563 -0.0014607917 -3.0017436e-05 -0.0012454453 -0.00019610664 -0.0033017427 0.0002526125 0.0017499233 0.0023502284 -0.00027341454 0.000987005 0.0011022531 0.0023159801 3.1686035e-05 0.0036641515 -0.0014482067 -0.00011865444 -0.0011096227 0.0021634365 0.00018856184 -0.0014548389 -0.0031576895 0.0036862479 -0.0026207364 -0.0020139571 -0.00035379722 -0.0029047285 0.0023780696 -0.0033318296 -0.0028340253 0.0023972876 0.0021919578 -0.002578081 -0.00050970813 -0.0019534046 -0.0027867076 0.0026984843 -0.0029245748 0.0036848728 0.003051019 0.0018365242 0.0013597888 -0.0006590334 -0.0005912953 -0.0033153922 -0.0018429235 0.0004902372 0.0024584155 0.0036993618 -0.0028735898 0.0032965415 -0.0015076667 -0.0013791306 0.0021593822 -0.00087499863 -0.0009998397 -0.0009154507 5.2525756e-05 -0.0010039068 -0.0020059205 0.003836719 -0.002575437 0.0033356044 0.0029879115 0.00076941936 -0.003033991 0.00012296074 -0.00042559 0.0020961151 -0.003249744 0.0023583581 0.0035252424 0.0035618786 -0.0036644563 -0.0009017307 -0.0034533811 -0.0029139149 -0.002225473 0.0016841753 0.0033924945 -0.0012222838 -0.0025713907 -0.0009219148 -0.0011866821 0.0013629989 6.142119e-05 -0.002029814 -0.00060129 -0.0030157357 0.0018638893 -0.001470283 -0.0021178129 0.00017527552
8 0.0005469344 -0.0034851893 0.0020799774 0.00085331744 -0.0025582088 0.001374523 0.0019591404 0.0007629775 -0.00021169959 0.0028947117 -0.0017247916 1.027652e-05 -0.0024626274 6.749291e-05 0.0030394353 -0.002485529 0.0021423495 0.00016374071 0.0036626065 0.002416306 -0.0011884773 -0.000146561 -0.0006082479 -0.0035923335 0.0011294789 0.0038827704 -0.00021044801 0.0027334264 -0.0017075704 0.002336991 -0.0009626435 0.00046649924 0.00094012194 0.0023461368 -0.0012473 -0.0012031472 0.0033335038 -0.000908546 0.003281793 0.0036046675 -0.0011092811 0.0001749523 -0.0027326362 0.0027712043 0.0010082652 0.0027737624 -0.0025402426 -0.00056256563 -0.0015774834 0.0020736482 -0.0020700977 -0.0022826847 0.0038848873 0.0023443322 -0.0029346128 6.990882e-05 -0.0035742477 -0.0012529186 -0.0019216088 -0.0022869564 -0.0022508493 -0.003215459 0.0007786989 0.0011957648 0.0019149757 -0.0027737478 0.0030905907 -0.0015016587 -0.00025622884 -0.0028166943 -0.002811734 -0.0015828977 -0.0020307542 -8.758712e-05 -0.0006771846 0.0012793278 -0.002453016 -0.0008390633 -0.0005959041 -0.0003527763 0.0023135247 -0.003375882 -0.002393509 0.0017810069 -0.0032676265 0.003749709 0.0026789892 0.00081262615 0.0010986573 -0.0026978827 0.0018373878 -0.0023895828 -0.0006104485 -0.00027185073 -0.0012002705 -0.0027374867 -0.0011867789 -0.003494538 -0.002517669 -0.003118832 0.0029446892 -0.0033048878 -0.00382027 -0.0012997787 0.0030273867 -0.0030769063 0.0019821394 -0.0038789918 -0.0017189085 -0.0022862004 -0.0037896927 0.0018884636 0.001983948 -0.000275322 -0.0037440436 0.003161572 -0.0015945155 -0.0011297571 -0.0021065443 -0.00014516294 -0.0020617414 -0.0032391597 0.0031679168 0.0007649755 0.0019875893 -0.0036310814 0.0025925143 -0.002436019
11 -0.0032011592 -0.0025360323 0.0014647163 0.0012541714 0.002033936 -0.0015527934 -0.0028207789 0.0032751332 0.0026209052 -0.0031625258 -0.0006554372 0.0008398226 -0.0021092498 0.002342274 0.0036431253 -0.0032700284 -0.0014189229 -0.0007287949 0.0004890524 -0.0031176775 0.00253387 -0.001050504 0.002379186 0.0005684314 -0.0011278971 -0.0022016107 -0.0017945219 0.00034490885 -0.002605663 -0.002795647 0.002101546 -0.00053234445 0.002290636 -0.0036434121 0.0019390045 0.0034799757 0.0035413064 0.0024678286 0.000107069354 0.0035314441 0.0024605528 0.0027806917 0.003654198 -0.00033821125 -0.0013502355 0.0022332852 0.0029712871 0.0027367019 -0.0014284686 0.0017474723 0.0016270649 0.0008779561 -1.0170744e-05 -5.3202577e-05 -0.00017852329 -0.0027196489 0.0008590751 0.0025668298 -0.0037533254 0.001127293 -0.000255819 -0.0023118907 0.003718983 0.002698528 -0.0029604912 0.0011912987 -0.0038356797 -0.00078112097 0.0025879575 -0.0034098318 0.00043125913 -0.00040155303 -0.0027723063 -0.0012049215 0.003642241 0.0012512885 0.0010521562 -0.0027196603 -0.0026422613 -0.0012672853 0.001460895 0.0035390249 -0.0007702569 -0.0010806713 -0.003406655 -0.00035825206 0.00375333 0.00025963716 0.0017612942 0.0006898839 -0.0014460468 -0.0028715853 0.0012253247 0.0029053441 0.0016763367 -0.0022904954 0.0020421185 -0.00061849935 -0.0011675006 0.0032398351 0.0034187164 0.0035560501 -0.0012568409 0.00090756017 -0.0013191578 -0.00053771556 0.0019621172 -0.002918052 0.0017101554 -0.0024813162 -0.000291194 0.0032964263 -0.0038589558 -0.0020255193 -0.00039101831 -0.001875511 -0.0026862633 0.0019368302 -0.00089975435 -0.0021406026 0.001156832 -0.0025651744 0.0036690948 -0.0036380424 -0.0012629564 -0.0035698107 -0.0023054539 0.00030347361
7 0.0035864913 0.00036663222 -0.003436318 -0.0009074817 -0.0030780975 0.002589851 0.0007673624 0.0009752715 0.003617034 -0.000802092 -0.0017527862 0.0005909593 0.000848753 -0.003851457 0.0027593183 0.0006863028 0.0008820653 -0.00034235048 -0.002778283 -0.0007286364 0.0009550478 -0.001848022 0.00045046848 0.00293262 0.003218447 -0.0027729946 -0.0035834643 -0.0020121578 -0.0023940413 -0.00143751 0.0026392585 0.003223865 -0.0024473418 -0.003405856 -0.0025018137 -0.00034367476 -0.0022708839 -0.0036026875 -0.0013281676 -0.0022390415 -0.003710116 0.0012116048 0.0013441164 0.0022993535 6.511146e-05 0.0020564168 0.0013558612 -3.286587e-05 0.003002865 0.00073713186 -0.002398439 0.0029079036 -7.489958e-05 0.0033741193 -0.0026427817 0.0021946423 0.00048994774 -0.0024472051 0.0028694829 0.0036338659 0.0013582773 0.00028558006 0.0008515279 0.0019557676 -0.0011227295 0.0014779058 0.00134973 0.0037277022 0.000478813 -0.0027902997 -0.0014157826 0.0026578144 -0.0030063572 0.001506249 0.0011434852 0.0010721057 -0.00090080965 0.0018891733 0.00016109858 -0.0026612969 0.00055522926 0.0032517656 -0.0009684687 0.0036640242 -0.0012923579 -0.0028919464 -0.0030529655 0.0008044292 -0.0020106724 0.0023652157 0.0035941284 -0.00020101006 0.0030109293 -0.0007807931 -0.0008012388 0.0026871653 0.002870604 -0.0035015768 -0.002792039 0.0005740383 -0.001632158 0.0012664604 -0.0034833627 -0.0009770612 -0.0010621862 -0.0032087432 -0.0031509025 0.0003345671 0.0033754625 0.00067695073 0.0015253873 0.0036543398 -0.0015972855 -0.0029935827 -0.0023369861 -0.00057875743 -0.00072524685 -0.0022689162 -0.0032005627 0.0036086666 -0.0018486418 0.0032709641 0.0030323192 0.0011209011 -0.0024362206 -0.0021245503 0.003367341 0.003263866
4 -0.00012158513 0.0037312494 6.9076304e-05 0.0016388842 0.0023812507 -0.0025742932 -0.0034618361 0.0038678655 0.0005499688 -0.0021957338 0.003458155 0.00093462534 0.0026859804 -0.0010116774 -0.0010267015 -0.0008770009 0.00081695145 -0.0023961328 0.0011379333 0.002345344 0.0013529025 -0.0007990716 -0.0023730213 -0.0014550523 0.0018826323 0.00087483966 -0.002522964 0.0020439248 0.0032772915 -0.0015940806 -0.0019376131 -0.0025840425 -0.0005095941 -0.00044984813 -0.0016696891 -0.0010989241 0.0024461462 0.002262931 0.0014175307 0.001928209 0.0012486464 -0.0031997943 0.0032530255 0.0034176814 0.0016571223 -0.0031964015 -0.000920978 -0.003146071 -0.00258434 -0.0024652327 0.0028653222 -0.0030695654 0.0008380963 0.0014144207 -0.001993043 0.001435494 0.0019025501 0.00052680366 0.0016596598 -0.0016076082 0.0037682857 -0.0020530191 0.0015018304 0.00033385103 0.00255458 0.0036020577 -0.0038279204 0.001742124 -0.000110936584 -0.0014011498 0.00051972986 0.0012820971 0.0026884305 -0.0035335748 0.002065961 -0.0011319336 0.003552028 0.0021536658 -0.0016651598 0.003098403 0.0012928861 -0.003865413 -0.000781476 0.0011296408 0.0021380722 -0.00070850854 0.0038034501 -0.002150512 0.0027657829 0.0012872694 -0.0028601328 -0.0007546702 -0.0035677548 -0.0013749173 -0.0012195206 0.0014639848 -0.0032217086 -0.0019502189 0.00034775835 -0.00026406947 -0.002575031 0.0010350465 0.0038744467 0.0032810967 -0.003167854 0.0019082965 -0.002422835 0.0014771759 -0.0015568059 -0.0011083423 0.0032153896 -0.0011396653 0.00030573728 0.0011365352 -1.7881612e-05 0.0026568405 -0.00015306647 0.0013562205 -0.0005890012 -0.00014479856 0.001968182 0.00096728205 -0.0036188636 -0.0038956802 -0.0035913764 0.00096289633 0.0034797117 0.0023901328
26 0.0031242082 0.002225776 0.0008229745 -0.0012944097 0.0016817664 -0.0021695185 0.0018158624 -0.0015652204 -0.0038427627 -0.00168443 -0.0013551428 -0.0032814026 0.0033820767 -0.0028269624 -0.0011953943 0.002604814 0.001558027 -9.298956e-05 -0.001321793 0.0014353017 0.0034405077 0.00084805355 0.0032465886 0.0019408652 -0.0018931433 -0.0017350181 -0.0036930265 -0.0023498014 -0.0019259076 0.003075167 0.0021138254 0.0007599268 0.0012449134 -0.003481862 -0.0035737506 -0.003083684 0.0017615377 -0.0013422495 -0.0014782086 -0.0011625154 -0.0003678775 -0.0032386146 -0.0029834614 -0.0011434135 -0.0018075168 0.0038941493 -0.003347126 9.743433e-06 -0.001587272 0.002950915 0.0032821845 0.0021402715 -0.0016335227 -0.0030638939 0.00014377979 -0.00069816876 0.0015237479 0.0010410247 -0.0032190636 0.0005607522 0.0017832596 -0.0016630491 0.0005815977 0.0034744553 0.0006555043 0.00033677378 0.0017626982 -0.003205086 0.00091479556 0.0007597129 0.0004397787 0.0006029949 -0.0022494749 -0.00076181965 0.0020762004 -0.0027560333 -0.003838481 -1.3488635e-05 -0.0011068882 -0.0014057644 -0.0027761946 0.0020229667 0.0010543969 0.001360823 0.0021451225 0.002354802 -0.0034669826 0.0005683077 -0.00031131555 -0.00026424197 0.0012080761 0.00037820477 0.002814684 0.0037560756 0.0026452488 -0.0017796905 -0.00088698254 0.00113469 0.0028468382 -0.0020425357 0.0012744631 -0.00024795806 0.00066176546 0.0026156968 0.0015311474 0.0017612593 0.0027428276 0.00087439496 0.0037528803 0.0034425166 -0.0030482933 -0.0016434791 0.000873004 0.0028911915 0.0011789489 -9.770647e-05 0.0011741125 -0.0021926353 0.0038606247 -0.003890192 -0.00019842498 -0.002525788 -0.0022176069 -0.0034476672 0.0010921748 0.002946405 -0.0018106542 -0.0035829903
3 -0.003473655 0.00079846213 0.003562606 0.0006488009 0.0011070863 -0.00026325 0.0020788384 -3.1508724e-05 -0.0036898165 -0.0014233647 0.0016904826 -0.0029075008 -0.0037908652 -0.0037385663 -0.0017258994 -0.0026848791 0.0036736669 -0.0028102256 -0.0006542732 -0.0021654288 -0.0031752838 0.0014665216 -0.000899626 0.0037101354 0.0037236079 -0.0016143699 -4.7749647e-05 0.0027129864 0.003906735 0.0035176764 -0.0020276997 -0.0023258019 -0.0033919422 0.0035170643 -0.001014456 -0.0030069486 0.0011408497 0.0023657593 0.0012412572 0.002111543 0.00071019394 -0.0037982604 0.00097069336 0.0032734685 -0.0018122285 -0.0007308762 0.002638283 -0.0026133386 -0.0038902229 0.0027121855 0.0033914638 -0.0014313372 -0.0037067905 0.0010048082 -0.002431796 -0.0023606636 -0.0019125298 0.0010586118 -0.0017947493 0.0036175768 -0.003554845 0.001800653 -0.0010676724 0.0035791153 0.00019822108 -0.002552395 0.003486258 0.0025477686 0.0010586305 -0.0028955638 0.0024971853 0.00081796065 -0.0023095154 0.0025581385 0.0016156165 -0.0015737442 0.0035530631 -0.0009725906 0.003577493 -0.00085911754 -0.00032936968 0.0026617788 -0.0012690148 -0.0019895188 0.001456646 0.0016047135 -0.00030728764 0.0011530785 -0.0024414177 -0.00092195155 -0.0016498565 0.0019270043 -0.0011451293 0.0006416948 -0.003310768 0.0026178248 -0.003425614 0.0031566727 0.0033696447 0.00029905434 -0.0034428718 0.000982642 -0.0033738052 -0.0010753025 0.0017436425 0.0038947402 -0.00046702308 -0.00045666817 0.0028956817 -0.0020068658 0.0025273105 -2.0827409e-05 0.00075785763 0.0006933871 0.0008511831 0.0018590114 -0.00087697036 0.0021574039 0.0031799262 0.0003617475 -0.0018815331 -0.0033700555 -0.0014064233 -0.0007320056 -0.0026364797 0.0006726202 0.0011703362 0.001643294
30 0.0032271247 -0.003281307 -0.0032296584 0.00376222 -0.0037009604 0.0013425557 0.0027635323 -0.0017264244 -0.00043751753 0.0017985172 -0.0038301037 -0.00011169507 -0.0012358308 -0.0017515923 -0.0017687115 -0.002487856 0.0011392728 -0.0003998288 -0.0037677318 0.003564376 0.00094797305 -0.0020344313 0.0037228842 -0.0037512055 0.0014534442 -0.0021551945 0.0028083604 -0.00020764062 -0.0032755807 0.0019119047 -0.0005648891 -0.0025051644 0.0009850932 -0.0017829104 -0.0023034285 0.0030008259 0.0002498911 0.0027333193 0.0009813276 -0.003372052 0.00020193816 0.001398057 0.001184817 0.0033355488 0.0003193214 0.0006572547 0.00013490739 -0.0030238768 -0.00067181466 0.0015329769 -0.0004697535 0.0023954052 0.0020027857 -0.0038339968 0.0022423929 0.0012171604 -0.0038375915 0.0012227307 0.0022761852 0.00048503172 0.00093502324 -0.0030890969 0.0031377512 0.00083933235 0.0037191063 -0.0020240487 -0.0020055347 -0.0013626466 0.0018775768 -0.0024673804 0.0015014572 0.000480955 7.517998e-05 -0.00011461912 0.00039741435 -0.0020436638 0.00025320356 0.0033107754 0.00012582545 0.0031562936 -0.0038566517 -0.0019906634 -0.0035533751 -0.0006807029 0.00070158346 0.0029071225 -0.0029781568 0.0014677392 -0.0022042696 0.0011401395 0.0029960328 -0.003410945 0.0004254893 0.0020228873 0.0033529017 0.0012609209 -0.0024871195 0.003106935 0.000724432 -0.002230975 0.003730655 0.0008846093 -0.0018158625 -0.0038134262 -0.0012047654 -0.0010085133 0.0018023865 0.0011630172 -0.0036851242 -0.0006440098 -0.002254849 -0.0038709266 -0.0024690528 -0.002452519 0.0033891883 -0.001746175 -0.0030752309 -0.0011008843 -0.0013700831 0.0037283686 -0.0029949031 0.0013551272 0.00031006517 0.0019409746 0.0026989013 0.002007624 0.0038005356 0.0007491452
22 0.0024777038 -0.0018552996 -0.00078066153 0.00010026788 -0.00055841636 -0.002629706 -0.0010685195 -0.0011421148 -0.0024115343 -0.0011515454 -0.0013705473 0.001109452 0.0021118617 -0.001984439 0.0022403528 -0.0012973786 -0.002632866 -0.0011214274 0.0037116774 0.003260897 0.0025153875 -0.0003012648 0.0033456695 0.0004265779 -0.0029951008 0.0034160574 -0.0009997371 -0.0038702467 0.0019107001 0.002618408 -6.717155e-05 -0.0026122045 -0.002896118 6.5843335e-05 -0.001151074 -0.0027294618 -0.0009250911 -0.0014536072 -0.0022751687 -0.002955815 0.0035399979 -0.00366099 -0.0030359735 0.0028821959 0.0021941974 0.0037862011 -0.0033645367 0.0023888652 0.0027772908 -0.0017460372 -0.0023702031 -0.0021062316 -0.0033651153 -0.0014749966 0.0034813643 0.0006084004 0.00267817 0.0031343207 0.0020852175 -0.0030539639 0.0015906545 0.0016230181 0.0018489108 0.003246924 -0.00071280816 0.0011011974 -0.0037935395 0.0019141848 0.0036608563 0.0030763529 -0.0016329003 0.0019638927 -0.00043364448 -0.0014761711 0.0037808854 0.0017582601 -0.0028797986 0.0016944375 0.0029041725 -0.00061037735 -0.0028243214 -0.0011449341 0.0026226016 -0.0036909485 -0.0002497161 -0.002418836 0.002886343 -0.0032669618 0.002454312 -3.964004e-05 0.0019919167 -0.0016474689 0.00015936972 -0.003432397 -0.0005444485 0.00060714793 -0.00080809754 0.00048728447 0.0028562427 -0.002562291 -0.0006890615 0.000850033 0.0018679315 0.0029145125 0.0011297459 0.0027085957 -0.0004986523 0.0022912275 9.603198e-05 0.0005210464 0.0027436775 0.00036069247 0.0024572674 0.0029853603 -0.0015270372 -0.00037628668 -0.002685766 0.00013607985 -0.0025274847 -0.0011602046 0.0016428271 -0.001923767 0.0013980074 -0.0021463896 0.0012627991 0.00048103306 0.002147335 0.00050161296
13 0.0026854167 0.00038628085 0.001360963 -0.0027287554 -0.0011545916 -0.00068668654 0.0011443438 -0.0025725642 0.0009236546 0.0027080316 -0.0021449116 -0.0025725532 0.0017094689 -0.003287343 0.0011187975 -0.00035436428 -0.0030083202 -0.0013203807 -0.0012843503 -0.0029200856 0.0036728538 -0.00014118687 -0.0036084806 0.0009988002 -0.0036572793 -6.4639775e-05 0.0036320908 0.0025792003 0.00093136524 0.000104135725 -0.0023946234 0.0020994633 -0.0010759059 -0.0021966745 0.00022151125 -0.0023369188 0.003598398 0.0037582142 0.00057500694 -0.0007822223 0.0020473793 0.00029626422 9.386834e-05 0.001770259 4.403191e-05 0.00328627 0.001159159 0.00081603834 -0.0019398738 0.0024900855 -0.0025832132 0.0027061608 0.0021237065 0.0025543796 -0.0027139317 -0.0025141502 -0.003191661 -0.0025989253 0.0024182468 -0.0026152343 0.0024280357 0.0005419517 -0.0022637134 -0.0028825772 0.0026277974 -0.0027792624 -0.0024093252 -0.002435435 0.0030966774 -0.0035381443 -0.0024741117 -0.0016773364 -3.4673645e-05 -0.0022851122 0.001387817 -0.003376116 -0.0011812286 -0.001597346 -0.003001029 -0.0027498698 0.00036951507 -0.0027226366 -0.00095289154 -0.0018234224 -0.0036460513 -0.00018834216 0.0023995927 -0.00064027694 -0.0028571608 0.003903277 0.0038653803 -0.0016433665 -0.002671711 -0.0032807675 0.0006115676 -0.0020501392 -4.7830796e-05 -0.00377853 -0.0027009647 0.00016096311 0.0028502042 0.0002511029 -0.001034809 8.001793e-05 -0.0012462471 -0.0038338858 0.002931285 -0.0022541152 -0.00024826263 -0.0037942855 0.0036462678 -0.00065617746 -0.00090277963 0.002934132 -0.0031573786 -0.0028009545 -0.0029791 0.0032250031 0.0012946447 -0.002125685 0.00083982333 0.0027470095 0.0037231538 0.0015463136 -0.0013761511 0.0025681667 0.0017964061 0.0029185025
29 -0.00094474154 -0.0001018951 -0.0022059407 -0.0015472309 0.0017241412 -0.0021715092 -0.00016182257 -0.0031959082 -5.868014e-05 0.0013131509 0.0016648712 0.0034794374 -0.0019444505 -0.0013496513 2.9148541e-06 -0.002204971 -0.0034855297 -0.0035297002 0.0022006417 -0.00046236426 0.0019727845 -0.0017010823 -0.0034833676 -0.0009621213 -0.0028703026 -0.0017684728 -0.00027157427 -0.0018354751 0.002960072 0.0023156898 0.0027900473 -0.0011131637 0.0024099464 -0.0004206996 -0.0027838491 0.0009496775 0.0035115522 0.0014651787 0.0019246724 -0.0036623466 0.0035651817 0.0022558207 -0.0037741852 -0.0036856348 0.002222203 0.003799634 -0.0017037187 -0.0006814767 -0.0024226925 0.0003338079 -0.0011465787 -0.00082202605 -0.0022572957 3.9833394e-05 -0.003887306 0.0038910226 0.0038900275 0.0025920838 0.001548695 0.0015889934 0.0012442351 -0.003260573 -0.0024428193 0.000107441025 -0.0031782931 -0.0022107675 -0.003687958 -0.0012669694 0.002513895 0.003546872 -0.0030031826 -3.9365317e-05 -0.003359808 0.002403867 0.00075993326 0.0035033387 0.0031762244 0.0005458004 0.0012778352 -0.00010793685 -0.0034933519 0.0025211005 0.0023328676 -0.0028359832 0.001067564 0.0009779237 0.0025316426 -0.0033447167 0.0002660469 -0.003620984 0.0010049351 -0.0029177656 -0.00072806654 0.0013048907 0.0036089276 0.0031492072 -0.0028180117 0.0032148107 -0.00037858475 -0.00326803 -0.002499634 0.002706112 -0.0009750388 0.0008248848 0.0013609393 0.00029236628 -0.0029272072 -0.0028947147 0.0011405491 0.0016683027 0.002205608 0.0006405504 -0.0030995673 -0.00192018 -0.0031183562 -0.0033756192 -0.0017091362 -0.003210005 0.003221368 -0.00044357852 -0.0012343805 -0.00078982394 -0.0027403375 -0.0023121426 0.0028549933 0.0021929974 -0.0015721336 -0.0032890316
5 0.00056586484 -0.0033950964 -0.0038826393 -8.160522e-05 0.0029156927 -0.0012027803 0.0034105622 -0.0033684955 0.0036421786 -0.0026389605 0.0029812863 0.002891298 -0.0028154966 0.00095842127 0.002096848 -0.0033472138 -0.001959559 -0.0030884906 -0.0011950295 0.0019674965 0.0021112903 0.0031444381 -0.0035309498 0.0038914622 0.0013841498 -0.0027709648 -0.0006013622 -0.0032513188 -0.0011434397 -0.0008454706 -0.0021704983 -0.0012603025 -0.002181826 0.0015075373 0.0023145925 -0.0029012533 0.0008847394 0.0015724273 -0.0009395949 0.00021521038 0.0034039554 -0.000615504 -0.0020867228 -0.00032072995 -0.0024574483 0.00036837903 0.0005336884 -0.0008486593 -9.301297e-05 -0.0018460003 -0.000777749 0.0031746428 0.0032084247 -0.0035371191 0.0023077661 -0.0022717589 0.002210928 -0.0012362719 0.002622451 -0.0036901482 -0.0014957661 -0.0024565582 0.0023542382 0.0027590313 -0.002907028 0.0004301093 0.003108287 -0.00082873885 0.0015236167 -0.0027906792 -0.0018231447 0.00054906076 -0.002538314 -0.0031653587 0.00091722055 -0.0029156532 -0.002281626 -0.0031430114 -0.003180929 -0.0034127769 -0.0026526053 0.0004025213 -0.0014805621 -3.97801e-06 -0.0022548726 -0.0037557853 0.0022695868 0.0035310257 0.0018491251 3.3138e-05 0.002888783 -0.0013375662 0.0015619027 0.0012075297 -0.0027507104 0.001055023 -0.0031684148 -0.002470829 0.003446692 0.0036369204 -0.0038426558 0.00012297864 -0.0018942045 -0.0037277774 -0.0036028267 -0.0012264046 0.0013205556 -9.440677e-05 -0.0030896263 -0.0011730822 -0.0023917423 0.00022835845 0.0012089583 -0.0027301277 -0.0023072006 0.0033401249 0.0034951945 0.0005639979 0.0033122187 0.0014470165 -0.00037579652 0.0016173117 0.0008688652 -0.0036845424 -0.0032315666 0.0019613504 -0.0017150064 0.0037647132
10 0.0008060681 -0.000386185 -0.0020063808 0.0008619419 0.0016818458 0.0037320422 0.0022319166 -0.00018970516 0.0032584153 -0.0027882056 0.0021435705 0.0023823709 -0.002457565 0.002982406 -0.0015053465 0.0030944992 0.001309073 0.002587301 -0.0020707324 0.0008873045 0.0019332145 -0.00055338006 0.0006499206 0.0037004354 -0.001586768 -0.00089411036 0.0014906414 -0.002668816 -0.0010602161 -0.0024266038 -0.0030566712 -0.003271624 0.0015390523 0.0029312125 -0.0030883215 -0.000662792 0.002680264 -0.0034328504 -0.0028959827 -0.0032875733 -0.0022085507 -0.0013458284 0.00329403 0.0032707783 0.0031716179 0.0038279265 0.0038253423 -0.00087586406 0.003902379 -0.0030598077 0.00037480122 0.0011379555 0.0031010078 -0.0016394288 -0.0012314491 0.002363286 0.0016769005 -0.0035181632 -0.0034303407 0.0017063194 0.0013819367 -0.00014266 -0.0036977537 0.0009774187 0.00032957477 0.0011430356 -0.0019382364 -0.0022628591 -0.0034185082 -0.0029586297 0.002749347 -0.0030653235 0.0036097358 -0.00030580402 0.0035736926 0.0015170722 -0.00016911502 -0.0017634146 -0.003116005 -0.00014770331 -0.0036612723 -0.002464939 0.00023160523 0.0025729036 -0.003082403 0.00088447554 -0.0028360663 -0.0026187564 -9.299789e-05 -0.0017898425 0.003270264 0.00079863204 0.0033659914 0.002925393 0.00035465905 0.0024178736 -0.0005443081 -0.003420209 0.0008130992 0.0024336372 -0.0014953151 -0.001514129 -0.00012848682 0.001074101 -0.001949491 -0.0009944381 0.00351769 0.0036108731 -0.0028056432 0.0020057028 0.0034771247 -0.0037898521 0.0019178637 -0.0013345769 0.0016921583 0.00026021485 0.001072825 0.0028890492 -0.0010508181 -0.002949717 -0.0002733612 -0.0015573195 3.9293078e-05 0.00034685558 0.0038886867 -0.0010860208 -0.0021298542 0.0010585681
12 -0.0037405922 -0.0031440747 0.00038881708 -0.0027151082 -0.0020506466 -0.0014245404 -0.0025424114 -0.0036332747 -0.0024018537 0.0026010189 0.0037267902 0.0038863567 -0.00094244845 0.0019458986 0.00020558093 0.0026868843 -0.0035045443 0.0011885144 0.0024484626 -0.0036255314 0.0014300878 0.003081335 0.001473715 -0.0020145974 -0.0035925854 -0.001575507 0.0021732969 0.0011239204 0.00046405563 -0.0005160531 0.0017302525 0.001495683 -0.0038486973 0.0011183094 0.0012419675 0.0027753452 -0.0011272557 0.0024607095 6.3025676e-05 0.002000001 9.216429e-05 -0.00022175773 0.0019707142 -0.001089238 -0.0010079162 0.003660344 0.0017417138 -0.00086677156 -0.0032077043 -0.0013793103 -0.0016097671 0.0017644793 -0.0007391051 -0.003792082 -0.0031378085 -0.003279838 0.00049493206 0.00051408506 -9.464024e-05 0.0015544314 0.0025552693 0.0015735383 -0.00257607 0.0021700389 -0.0031459457 0.00043001724 0.0023381624 -0.0004239291 0.0033234197 0.0037016657 0.003897931 0.0020874448 0.0013147342 0.0011967691 0.000874546 -0.00039136413 0.0035520645 0.003222275 0.0006543875 0.0036936882 -0.00079392776 0.0009937469 -0.0031634576 -0.0021220034 -0.002876836 0.0032960004 -0.00078762823 -0.00083481846 -0.0025226667 -0.0030954466 -0.00037172786 0.0028221116 -0.0014585018 -0.001242278 0.0017796113 -0.0024011869 0.002652742 -0.0036703306 0.0013836841 -3.0518713e-05 -0.003893641 -0.0032947017 0.0003901802 0.0008369617 0.0002617435 -0.0038270259 0.0004219857 -0.0005092337 0.0036548204 -0.0033844472 -0.003328973 -0.0002733875 -2.5663669e-05 0.0024276953 0.0009840267 0.0029971055 -0.0013555267 0.003288634 -0.00369947 -0.0033131787 -0.0016708731 -0.0018911914 0.0017575008 0.0025831326 -0.0014415686 0.0004663059 -0.0038674017 -4.473726e-05
24 0.0022100706 0.0016078978 0.002932421 0.0036262618 0.0011166498 -0.00080939586 -0.0003460577 0.00079029246 0.0011982433 0.0014427025 0.0033989477 -0.00030500672 0.0028049585 -0.0031110188 -0.00030678685 -0.0017826385 -0.0013484108 -0.0007193883 0.0009905907 -0.0009771356 0.00075987517 0.00109495 0.00019150453 0.003373528 0.0012885096 0.0030251788 -0.0009791189 -0.0024263635 -0.0006124328 0.002405705 -0.0033541543 0.000556467 -0.0036260455 -0.0013025068 0.0012469522 -0.000994684 0.003876507 -0.002129219 -0.0003071584 -0.0023661242 0.0010878154 0.003534416 -0.00015653919 0.0018117924 -0.0006188257 0.0015828772 -0.0026164032 0.0031779553 0.0010846205 -0.0024485597 0.0036776785 0.0010231346 -0.0033201524 0.0035062314 0.0031707303 0.003274686 0.0030183112 0.0005013787 -0.00094713736 -0.0015837754 -0.00022816808 -0.00052875065 0.0012357436 0.0003290807 -0.0030668352 -0.0021098712 -0.0011158341 0.0019458088 -0.0012815774 0.0023772162 0.0012323369 0.0022387453 -0.0032119101 0.00043386698 0.00026336167 -0.00031972872 -0.0032117965 -0.0027399869 -0.0005676571 0.0034879602 0.0033617353 0.0025678258 0.00071952684 0.0026908135 -0.0015015117 -0.0029004682 -0.0024534033 0.0037797254 0.002044284 0.0013968013 -0.0014235191 0.0009983347 0.0012087827 -0.0016087866 0.001821806 0.0036785973 0.0025263608 0.0011862884 -0.0010988391 -0.0012586403 -0.0024948905 0.0035593521 0.0029067695 0.0022058513 -0.0019714031 0.0027888024 0.00057909073 0.00088471815 0.00039902361 0.002014097 0.0035095618 -0.0021777041 0.00019694743 0.0005976346 -0.003647167 -0.0011522535 -0.0010427651 -0.0016323501 0.0024422691 0.0028546418 0.0009743099 -0.0031568718 0.00064480264 -0.0019633921 0.003383777 0.0016660999 0.00025119065 0.0027312054
25 -0.0027911696 -0.0013684343 -0.0023027037 -0.0013516769 -0.0034680758 -0.0009958501 -0.002073874 -0.0028301252 0.0036104554 -0.0005303087 -0.0014553313 -0.0022857005 6.887553e-05 0.003024449 -0.0008430585 -0.0032701737 0.002130441 -0.0019780365 0.002257337 0.0034458654 0.0029030587 -0.001079967 0.0027549174 0.00258077 0.0010775055 -0.0033639453 0.0011082168 -0.0011308558 -0.0036967355 0.002052059 0.0019745512 0.0003288233 0.0007566075 -0.003316282 -0.0035246294 0.001548337 -0.0031880878 0.003053372 -0.0022880547 -0.0019035022 -0.003149334 0.0021487863 -0.0020964681 -0.0031345985 0.002215754 0.003517303 0.0016131059 0.003329472 0.0027361484 0.00014508863 -0.0037193194 0.0026940738 0.0020132186 0.0014637805 -0.003309553 -0.0014671629 0.002625555 -0.0037544009 -0.00089468906 0.0031949726 -0.0017661668 0.0024389175 0.002043615 -0.0015199264 -0.00326964 -0.0018056062 -0.00082786876 0.0018790374 -0.0035542005 0.00049183227 -0.0006091653 -0.0022408601 0.001956469 0.0025982198 -0.0012491039 -0.003496522 -0.003677079 0.002087735 0.0021748466 -0.001547935 0.00024314891 -0.0021859554 -4.1191102e-05 -0.0030681104 -0.0006468862 -0.00077908795 -0.00031396412 -0.0036639508 -0.0034361547 -0.003619497 -0.0025230718 -0.0009675043 0.0032279573 -0.0026183666 -0.0013943318 0.0012481514 0.00019787949 -0.00020518663 0.0007960906 0.001514793 -0.0032617068 0.0015011125 -0.0031276748 0.0010498149 0.0018104248 -0.001191966 0.0012021158 0.0016862584 0.0023848906 -0.0014595046 -0.0018533411 0.00013673965 0.0016371639 -0.0019090925 -0.0038610005 -0.0011191668 0.0024867158 -0.000579658 -0.0005580716 -0.0012278393 0.001021431 0.0034118814 -0.0011532044 -0.0023785376 -0.0017509793 0.003811412 -0.0033441195 -0.00014580601
27 0.0021245412 -0.003796459 -0.0025724974 -0.0031917961 0.0006321328 0.0014857127 0.0016364052 0.003402366 -0.002746079 0.0008670347 -0.0019463341 -0.001763219 -0.0011974731 0.0032992882 -0.00047535816 -0.0023422732 0.0035521598 -0.002274113 0.00010075949 -0.0037802178 0.0029241554 0.0016804648 0.0014173585 0.0035549945 0.00034997804 -0.003245891 -0.0035610253 0.0032082326 -0.001939852 0.00143352 0.00059201935 -0.0030801473 -0.0015809498 -0.0026083097 0.0021640623 -0.0023635526 -0.0019032779 -0.0004385232 -0.0013837186 -0.002831321 -0.0029128515 -3.7531347e-05 -0.0008332974 0.00078925956 0.0012444613 0.0028025953 0.003784689 -0.0005121262 0.0002578238 0.0023339372 0.0025676454 0.0022820707 -0.0025157072 0.0033814718 -0.00074329413 -0.003034502 -0.0006990835 0.0012118717 0.0032874758 0.0016960332 -0.002539135 0.00380083 -0.0020437841 -0.00031577356 0.0006752127 0.0002023024 -0.00268481 0.0028071422 -0.00077709835 -0.0008329179 -0.0035380605 0.0029664787 0.0005152044 -0.0037739263 -0.0022837739 -0.003450774 0.0023771585 -0.0026052343 -0.0018189675 0.0009940864 -0.0028366435 -0.0006019745 -0.00014371763 0.003466203 -0.003526923 0.000598894 0.0036761537 -0.001358255 -0.0038643796 0.00070434524 -0.003032486 -0.0035737446 0.0009145089 0.0008535679 -0.0027779634 0.00024030943 0.00087865937 -0.0028263703 0.002909794 -0.0028899466 -0.0038746498 0.0004039713 0.0029005143 -0.0036383532 0.0021630877 0.0019897732 0.0032687203 -0.0030017768 -0.0029649187 0.0024486273 0.001964743 -0.00026097105 -0.00094193337 -0.0015973923 0.0017931869 -0.00181696 -0.00030717914 0.0011093444 -0.0025336137 -0.0006001292 -0.0024890245 0.0029520018 0.0017698338 -0.0030774155 -0.0027044439 0.0022474118 0.0010765761 0.00025894417
20 -0.0005442001 -0.0014590734 1.4919939e-05 0.0008550626 -0.002816978 -0.0035986397 0.00343723 0.001804009 -0.002853034 -0.0015544546 -0.002255971 -0.0026923232 0.003906105 -0.0004902704 -0.0014334507 -0.00080995273 -0.0029301546 0.0013581665 -0.0013228891 -0.0030663968 0.0021290947 -0.0017288242 0.0026580363 0.00032339475 0.00150983 0.0028452808 0.0038362883 -0.0009756625 0.0012175716 -0.003163706 -0.0029409279 -0.0012459722 0.0010537166 -0.00092222885 0.0026352557 0.0017922784 0.003621738 -0.0028631897 -0.0026381765 -0.0039026805 -0.0034978718 -0.0021066202 -0.0024942951 0.00012667656 0.0018420058 -0.00010123497 0.003233455 0.00031445266 0.0011117117 -0.0027739892 -0.0036442918 0.0002469114 0.002487041 -0.0035257896 -0.00072722073 0.00063108746 0.00034247263 -0.0037396296 -0.0031739261 0.0022355919 0.003884844 0.0016215272 0.0013441385 0.0012190297 -0.00064398616 -0.000696145 0.00017976278 0.0024276406 -0.0027876818 0.002990041 -0.002088946 0.0015652097 -0.0017715701 -0.00043486283 -0.0002853705 0.0021893214 0.0017018311 -0.0008497057 0.0013042702 0.002641898 0.0009663365 -0.0033531075 -0.00037803297 -0.0035109776 0.002524969 0.0036779295 -0.0029014158 0.0013954748 -0.0023710346 0.0018462634 0.0024087809 0.00043538737 0.00047843484 -0.0010306134 0.0012648691 -0.00024583717 0.002089234 -0.000631709 -0.0028001864 0.0033975164 -0.0022345257 -0.002984347 -0.0033541473 0.0033427721 -0.0005525958 0.0024839002 -0.0007130857 0.000542452 0.0031141804 0.0029072755 -0.0019689517 0.002361727 0.0005330439 0.001758691 -0.002317039 -0.0018734455 0.00307036 0.0020030236 0.0004246641 0.00082592695 -0.00053312455 0.0037558954 -0.00014556838 -0.0029620756 0.0013573832 0.0020854 -0.0027454079 0.001127376
21 -0.0031451564 0.0036464117 0.00027573665 -0.0036324763 -0.003539918 -0.00073255086 -0.0010523546 -0.0026446825 0.0005026234 0.0037268721 0.00040422528 0.00027994593 0.0006840045 -0.003364054 -0.00037519928 0.00051616086 0.00018229043 2.9046223e-05 0.0020997575 0.0007136476 0.0023344653 -0.00042518135 -0.0012401855 0.0019292092 0.0004867978 -0.0012218198 0.0015572748 0.00048822747 0.00031437338 -0.0001517817 0.0028541598 -0.0010413813 0.00017764137 0.001686314 -0.0030963337 -0.0023735778 -0.00088277896 0.003648295 0.0027395955 0.0013117987 -0.0028984095 0.0036305748 -0.002783038 -0.0023832854 -0.0031258094 0.0012213733 0.00070729194 0.000991642 0.0029218951 -0.00071682135 0.0032608698 0.001992069 0.0027205572 -0.0024862401 -0.0011280498 0.0016933229 0.0003469706 -0.0033555941 -0.0036852183 0.0030911842 -0.0022273385 0.00014524414 0.0007098648 0.0028584348 0.003712403 -0.0011342664 -0.0004732947 -0.0035103913 -0.0020257996 -0.0036967504 0.0032200671 -0.0038644187 0.0007660377 0.0017679147 0.0024111401 0.00015669169 -0.0026112425 -0.0028468866 0.0015892637 0.0027679037 -0.0018216212 0.00090173155 -0.0014675495 -0.0037360676 -0.0026748949 -0.002101688 -0.0023588734 -0.0020557137 0.0034750558 -0.0027426565 0.0032319112 0.0015521175 -0.0021686996 0.0035732954 -0.0001223007 -0.0015247614 -0.00253709 0.0020209942 0.0009948037 -0.0004063099 -0.0013359357 -0.0018331911 -0.00094945624 0.003447677 0.003829065 0.0023081903 -0.000554759 -0.0029566332 -0.0014017635 -0.0021934924 0.0039019845 0.002988577 -0.00086642825 0.0016176746 -0.001936408 0.0035108237 -0.0035728684 -0.00044844038 0.00094935193 0.003581576 -0.0004244291 -0.0015162511 0.00017234347 -0.0037528644 0.0026770288 0.0009064167 0.0030401964 -0.0033563927
23 0.00071562116 0.0029150355 -0.0036992363 0.001217597 -0.0006145055 0.0027170333 -0.0009800175 0.0031933135 0.0017386035 -0.001574424 -0.0015647347 0.00036300818 0.0007187922 -0.0028786012 -0.0028365967 0.0022372198 -0.00046112307 0.0029061292 0.0017495103 0.0037089349 -0.0012621847 -0.001499985 -0.0032857517 0.002636473 0.0009380071 -0.00070795097 -0.0033355795 -0.0030524128 -0.0035163169 0.002322295 -0.00056771835 0.0010657065 -0.0007372977 -0.00021589157 -0.0033582062 -0.0023835944 0.0015731712 -0.0024535104 -0.0028342085 0.00056258024 -0.0006379427 0.0003476481 0.0014988735 0.0016780825 0.002298208 -0.0014934598 -0.0015262099 0.0031371077 -0.0022892691 -0.00074011856 0.0011435266 -0.0010827039 0.0027546254 -0.0032004502 -0.00019297986 -0.0034078204 -0.002101076 -0.000472815 -0.00021513482 -0.0035294092 0.0004015593 -0.0016343788 0.002936656 0.00090035296 0.0029155964 -0.00062615913 0.0021118866 0.0031938942 0.0012946203 0.0031426293 0.00030445564 0.00071562076 0.0037601027 0.00055719056 -0.0034871588 0.00044774072 0.002147818 0.00083293876 0.003580696 0.0016864064 0.003795384 -0.0022795575 0.0030542132 -0.0005028727 -0.0014307555 0.0030229038 -0.0020381259 0.0012155061 -0.002660355 -0.0016179595 0.001102565 0.0012002822 -0.0032611769 -0.0002473383 -0.0038680248 -0.0021495873 0.0011164135 -0.0015008673 -0.0013884648 0.0035362267 -0.001212365 -0.0011948936 0.003110356 -0.0033118671 -0.0007849165 -0.0033175594 -0.0031460067 -0.0019506384 0.001988715 0.0012107133 -0.0035506985 -0.002517448 -0.0015041648 -0.0031247444 -0.0012487365 -0.0010539215 -0.002548139 0.0014035872 0.0006508662 0.0003249855 0.0014856143 0.0026870004 -0.0023979435 -0.0022644736 0.0021170238 -0.0030198265 -0.00037923988 -0.00041290116
1 -0.0038907367 -0.0038348301 0.003684141 -0.0026906948 0.0017031704 -0.0037722494 -0.0006645454 0.0027217653 0.0031065294 0.00021813295 -0.0023295155 -0.000726832 0.0021808096 -0.001568893 -0.0019549888 -0.002341467 0.0022167186 -0.0016783386 0.0036777055 -0.0019819331 0.0015018978 -0.00034860856 0.0007215914 0.0014258121 0.00081962737 0.0010481519 0.0024138477 0.0035849228 0.001490358 -0.0020744533 -0.003732738 0.0022991328 -0.000276851 0.00084708974 -0.0017024514 -0.0030090685 -0.003800806 -0.0017422884 0.0035319426 -0.0038957484 -0.0026553923 -0.002867978 0.00250662 0.0022271299 -0.0012834696 -0.0026614969 -0.0023373011 0.0003934544 0.0034875427 0.0030770816 -0.0032684114 0.0033707805 -0.0013772432 0.0037673293 -0.0033413568 0.0008215753 -0.00038082738 0.0035363387 -0.0026729915 0.001724122 0.0018500164 -0.003765753 -0.0028436212 -2.448026e-05 -0.002855514 0.0010212319 0.00085117575 0.0018281789 -0.0034494773 0.00012091221 -6.357057e-05 -0.0034955936 0.0035580548 -0.00013461304 -0.0026082944 -0.0022604323 0.002890901 -0.0024227442 0.0021231996 -0.0036446487 -0.0014607061 -0.0033002864 0.00021985445 -0.0029340673 -0.0016913642 -0.0031305507 -0.0013714572 -0.0005694096 0.0027601705 0.0008130521 0.00058301876 0.00045116147 0.00052311475 -0.00024757287 -0.0007146453 -0.00086475513 -0.00042486493 -0.0026372345 0.0030806733 0.0014658539 -0.002478309 0.0026801934 0.0022178164 -0.0010180098 0.002207487 0.0034945044 0.0027992474 0.0021066642 -0.001651931 0.0009344206 -0.0014874232 -0.0020175644 0.0009947756 0.0034092558 -0.0017548006 -0.0019190032 0.0029506404 0.0018533488 -0.0030139692 -0.0019135318 -0.00047727866 0.0022985297 -0.0032051234 0.00046167552 -0.0012575386 -0.0009721697 -0.0011000271 0.0008607867
2 0.0030049018 -0.00051868265 -0.0006970097 -0.0010581912 -0.0010692388 0.00024677988 0.0015576966 0.002282994 -0.0034797685 -0.0004610483 -0.0012128032 0.0020479427 0.0020523423 -0.0024346095 -0.000663019 -0.0028805733 -0.001997586 0.0021005971 -0.0005856606 -0.00028866102 0.0007499127 0.00088394503 0.0028379564 -0.00034815865 -0.0029180383 -0.00076197716 -0.0017265348 0.000467316 0.0025057965 0.0014256563 0.002807158 -0.001499014 -0.00319892 0.0032087998 -0.0032541952 0.0023191124 0.0005278598 -0.002890658 0.0015655822 -0.0010807045 0.0017362207 0.0026291376 0.0017683343 -0.00066609186 -0.0023715561 -0.00079516077 -0.002064158 -0.0011478662 0.001493263 -0.0019899278 0.00079336425 -0.0032401937 0.0016994325 0.0037200116 -0.0038241216 -9.565723e-05 0.0023496824 0.0033338985 -0.0022338587 0.0035437038 -0.0022732094 0.0020574904 -0.0005785156 -0.0028731332 -0.0011126517 0.0031577626 -0.00090824673 -0.0015717326 -0.003430335 -0.0015026876 -0.0010259718 -0.00071705313 0.0032109194 -0.0005491623 -0.0014629111 0.0025837098 0.0013949968 -0.0016557921 0.0009221958 -0.0011139954 -0.0019832293 -0.002057805 -0.0032903308 0.00055113266 0.0025170173 0.0031332965 -0.00078286155 -0.0004296104 0.0032523798 -0.0024868087 0.0018537408 0.0029596172 2.8370318e-05 -0.0037883366 -0.0037626189 0.0009843296 -0.0014946489 -0.0018490849 -0.0024510478 0.0028830695 0.002656429 -0.0021981366 0.00171095 -0.0037679495 -0.00040377548 -0.0032704477 0.0038722504 0.0035393145 -0.002771619 0.00064994034 -0.002732337 0.0016245327 0.001637605 -0.0015351877 -0.0027788265 -0.00079530355 0.0011205424 0.0015832379 -0.0028303752 -0.0012343779 -0.001211102 -0.0018738963 0.001284134 -0.0034236147 0.0015662585 0.0016547864 0.0037674757 0.00029166468
6 0.0010224354 -0.0009923154 0.00091395783 0.003576262 0.00043381331 0.0012536303 0.0019206052 0.002407545 -0.00048427886 0.0004213476 0.0012950881 -0.00079255836 -0.0012026523 -0.0017780841 0.0021232609 8.0481215e-05 -0.0010425014 -0.0026820349 0.0018163378 -0.0025719788 -0.0013165742 -0.0024325051 -0.0010387177 -0.003241301 0.0028643003 -0.0021509377 0.001284574 -0.0036014135 0.00039365128 0.0033125938 0.0005536679 -0.00297065 0.0021228367 -0.00071310956 0.001187838 0.00018247237 0.0007484654 0.003273935 -0.003563754 -0.0039049354 -0.0018047937 0.0021153132 0.003630697 -0.0024387902 -0.0035752985 0.0012312806 0.0024431266 -0.0035432081 0.00360493 0.0030387752 -0.00022118211 0.0021441183 -0.0034719424 0.00023576547 0.0028823786 -0.0020327286 -0.0002428242 -0.0018220075 0.0025657283 -0.0034485124 0.003800423 0.0023301214 0.00017086016 0.0001481331 0.00040415168 -0.0031525637 -0.002909895 0.000347439 -0.0025036333 -0.0026594542 0.0021384745 -0.0006661276 -0.0022081207 0.0035758985 0.0022682461 -0.00047338018 0.0018782344 0.003568211 -0.0009255055 0.0012090597 -0.0033054142 0.002874903 0.002070456 0.001267464 0.0036740652 -0.0037361153 0.0029116848 -0.001454552 -0.0011223162 0.00020824243 0.0025359364 0.0013458215 0.0018179122 0.0024098486 -1.0448775e-05 0.0010827265 0.0012889763 -0.0038366164 0.002545527 -0.0018515745 0.0028069876 -0.001623363 0.00028830062 0.0003491524 -0.002450822 0.0027366385 -0.0008396179 0.0036318153 0.0021900164 -0.0012518035 0.0027713731 0.0017612252 -0.00071059336 0.002081656 0.00084340863 0.0034298995 0.0016535453 -0.0022239613 0.00023677606 -0.0007479208 0.00082137313 -0.0019382176 0.0025796774 -0.0038400616 -0.0033741253 0.0010669082 0.0037691873 -0.0036614167
9 -0.0011815361 0.00054051337 -0.0032810841 -0.0009247447 8.340274e-05 3.159234e-05 -0.0005191623 0.0018884925 0.003717663 -0.00057816587 0.00079692376 0.0030675791 0.00042413833 -0.003566589 -0.0011116178 -0.00091149507 -0.0017757738 0.002670891 -0.0018917549 0.0012899146 -0.0035931454 0.0032882004 0.003773697 -0.0036245699 -0.0014841706 0.002432864 -0.0015321376 -0.003733997 -0.0009147216 0.0019017287 0.0012794923 0.003358064 -0.0020679135 -0.0021954507 0.003645603 -0.0021320593 0.0030475794 -8.873482e-05 -0.0035465753 0.0028594083 -0.0033496316 -0.0034839916 0.0014446619 0.0030965528 -0.0027836543 -0.0020934825 0.00020811288 -0.0021687255 -0.0018404073 -0.0037150295 -0.002475483 0.00086640567 -0.0024184159 0.0008028472 0.0033639066 -0.0011777167 -0.0016610661 -0.0002455823 -0.00079928606 -0.002236322 0.00017947164 -0.00029822503 -0.0028621277 0.0016397703 0.0021175737 -0.001633532 0.0018090535 -0.00012283266 -0.0012096763 0.00033033203 0.0016158834 0.0031305314 0.0034538908 -0.0014758651 0.003092382 -0.0018461122 -0.0026600184 0.0036411649 -0.002964725 0.0022995132 0.0027552103 -0.0010003347 -0.0034258296 -0.0037456583 -0.0014155698 -0.00042458388 0.0002443159 0.0001902158 -0.0021851824 0.001471716 0.0019872657 -0.0013457749 0.0037176528 0.003600547 -0.0006677774 -0.0037838302 0.0021000039 0.00013568392 -0.00013404677 0.0017511802 -0.0033755063 -0.0032088372 -0.0029418117 0.00093685224 0.00076727103 6.493043e-05 -0.0018079709 0.0032381858 -0.0038704723 -0.0030307453 0.0029228104 0.00039386193 0.0034194754 -0.0013395281 -9.462181e-05 -0.002230414 -0.0032498217 0.0031845158 -0.001535909 0.0027894464 -0.0015773328 -0.0020379745 -0.001550418 0.0009665795 -0.0021759414 0.0032142128 0.00025208187 0.001558816
15 -0.0035724698 -0.0022878791 0.002721214 -0.0030871907 0.0009471598 0.0037279031 0.0019176312 -0.0035595482 8.905578e-05 -0.0014108254 0.0015537902 -0.00035165195 0.00024248452 0.0015239421 0.0016248362 -0.0014160975 -0.0028755746 -0.0020081894 -0.0028972474 -0.00344179 0.0032378768 0.0018952519 0.00032819368 0.001095219 -0.0030197077 0.00011595783 -0.0024143055 -0.00015976597 0.0004132417 -0.0027814829 -0.002202294 0.0020581249 0.003107586 -0.0006332336 0.00041831518 5.3576237e-05 -0.0017701528 -8.522791e-05 0.003708136 0.0014343341 -0.0026921104 1.6319544e-05 -0.0007816356 0.00025981868 0.0026703628 0.00353922 -0.00380585 -0.0006680327 -0.0008449708 -0.0016224964 -0.00039504835 0.00021021643 -0.0005481806 0.0017891971 -0.0027247453 -0.00373161 -0.0039012562 -0.0036335762 0.0010105807 0.0028699515 0.0032842064 0.0032302674 0.0006377197 -0.00331078 0.0012131386 0.0035303386 0.0010335376 -0.00066182413 0.0031839178 0.0029741006 0.0020356784 -0.0020006506 0.0018144888 -0.003447297 -0.0024275312 -0.0010735684 0.0017058263 0.00014155923 -0.0038996164 -0.0031704614 0.00016350376 0.0024822487 0.00025859932 -0.0029058806 -0.0029611283 -0.0026881287 -0.0014027656 -0.0036075532 0.00012203544 0.0024034942 0.0016341237 0.002195085 0.0031291314 -0.0023349884 -0.0034510344 0.0023114267 0.0015636341 0.0037311749 0.0014879634 0.0033305185 0.002874278 -0.00033636304 -0.0028531114 0.0011386345 0.0023238454 -0.0030909097 0.0023084532 0.001270732 -0.00029268404 -0.0036903156 0.00035054501 -0.0008737772 -0.0015717725 -0.0029890544 -0.002470657 0.0031440759 0.0019372883 0.003905641 -0.0031853532 0.0028124913 0.002671874 -0.0031486542 0.0035866778 0.0027112036 -0.0038686227 0.0003784958 0.0018923659 0.0022337632
16 -0.00043492182 0.0014041392 0.0008491823 0.0001232331 -0.001036368 -0.00024779452 0.002457021 -0.0009702569 0.00013088375 0.00068913866 -0.0023162672 0.0015694585 -0.0017407967 0.0030928925 0.0030302403 -0.0022029488 -0.003554348 -0.0038962287 -0.0037856812 -0.003424988 -0.0006332463 0.0012723377 0.0024653294 -0.0013310808 0.0015329225 0.0004034402 0.0012543839 -0.000489811 -0.0013280301 -0.0035044 -0.0026978317 0.0019247278 -0.0011643587 -0.0036551205 0.0016719046 0.0017247283 0.00358759 -0.002978448 -0.0022825785 -0.0037068608 -0.0022760562 0.0032690375 0.0023534275 0.0002561042 0.0019227295 -0.0013940204 0.0021644824 0.002769629 -0.0028049701 0.003831241 0.0029533103 0.0008205735 0.0007561771 0.0017207823 0.0016153057 0.00025745982 -0.00023685684 0.0005858263 0.0005925891 -0.0033997984 0.0021529957 -0.0037658364 -0.0012626621 -0.0037037453 0.0018090447 -0.0009883224 -5.4868808e-05 0.0033504528 -0.0014400276 -0.0030301206 0.0029404764 -0.0037702415 0.0010740465 -0.002233534 0.003279024 -0.0015017535 0.0033278205 -0.002399133 -0.0019074214 0.0013570605 0.0036471242 -0.001906332 0.0006565348 -0.0015742618 0.0009891768 0.0035738766 0.00036055304 0.0031743334 0.0018747577 0.00082482497 -0.0032651203 0.0013345167 -0.0038203772 0.0013680871 0.00034369383 0.00238973 0.0031068888 -0.0016015151 -0.0017541569 -0.003864643 0.0035027424 0.0018716326 0.0038562058 -0.002285755 -0.0023020671 -0.002761724 -0.0020265023 -0.00062426535 0.0027488964 0.0014689949 -0.0011949275 0.0036653094 -0.0037647109 0.0020608418 0.0017479426 0.002205464 -0.0012373729 0.0026420592 0.0007938665 -0.0023625433 -0.0007600609 0.0016945716 -0.001889241 -0.0020225947 0.0030737282 0.002199457 0.0005404592 0.0036866209
31 0.0017494005 0.0011015624 0.0029692322 0.0025182955 -0.0008670648 -0.003281385 -0.0006934102 -0.00359594 -0.003469758 0.0009315676 0.0031322022 0.003882136 0.0034773718 -0.0033738695 1.333338e-05 -0.0034738064 -0.003784186 0.0016092677 0.0015707719 -0.00016942056 0.000833669 -0.0015959506 -0.0026812174 0.0029494076 0.0012966902 0.0010525371 0.0023256766 0.0036267322 5.570182e-05 0.00020543532 -0.0024684318 0.0036987693 -0.0036629639 0.0028821542 0.002175207 0.0029338792 -0.0007929288 -0.00062135974 0.0034374716 -0.003826125 0.0005711382 0.0024592981 0.00022801224 -0.0017867733 -0.0015553436 -9.384925e-05 -0.002697585 -0.0030432604 -0.0011993375 0.0019199623 -0.0033516595 0.0029640007 0.00029808958 -0.0017224442 0.00092625094 -0.001999122 0.0013963481 -0.0019894075 -0.003758081 -0.003480375 0.0031791858 -0.0011596732 -0.0032938737 -0.0032022488 -0.0027480812 -0.0015026851 -0.003873051 -0.0019820416 -0.0021477626 -0.00021999818 6.340153e-05 -0.002118852 0.0002457775 6.556829e-05 0.0022349013 3.3756423e-05 0.0037374392 -0.0009188516 0.0034981696 0.002108761 0.001480504 -0.0015749685 -0.0021906144 -0.001959862 0.0013271521 0.0001454901 -0.0031505667 -0.002347804 0.00036811145 -0.00283196 -0.0037907017 0.0032595631 0.003461403 -0.0010438485 -0.003876511 0.00042786764 -0.0027415827 -0.00022198152 -0.00063835765 0.0030203927 -0.0038968646 -1.9580035e-05 8.40876e-05 -0.0033566912 -0.0018056155 0.0008521376 0.0015432518 0.0024955093 0.0018427918 0.0003836912 -0.002885848 -0.0037817704 -0.0021830194 -0.0026951735 0.0012391479 0.002727855 -0.0032675723 0.003538069 -0.003672585 0.002349011 -0.0023408756 -0.002183236 -0.00214147 -0.0035855176 -0.0007509759 0.0022804395 -0.0036063176 2.3464478e-05
19 0.003390791 -0.0019226931 0.0034133196 -0.0019722776 -0.0009895756 0.0010305366 -0.00097542634 -0.002365496 0.0020289079 0.00033818386 -0.0031881414 0.0023763955 -0.001126875 0.00093517697 -0.0013288476 0.0010726267 -0.0030409512 -0.0032374398 0.0025515053 0.0035189784 0.0010987471 -0.0032425094 0.00024035068 0.0018154653 6.302275e-05 0.0032220301 -0.0010549143 0.00045011973 -0.0012857062 -0.0013838417 0.000121680074 0.0012546069 0.001160047 -0.003829651 -0.0010315609 -8.488249e-05 -0.0038530165 0.0024847505 0.0026486628 0.0011439209 0.0003408769 -0.0006714261 -9.654327e-05 -0.0013955338 0.0031592527 0.0015919277 0.0025402913 -0.0026551238 -0.0008825132 0.001461776 -0.0014561755 -0.00073785894 -0.0033505578 -0.0017905274 0.003508019 0.002377063 -0.0029620186 0.0019119694 0.003747574 -0.0012334214 -0.0006426192 -0.0022724594 0.003080932 0.0024301093 -0.00044187115 -0.0032796038 0.0028576744 -0.000866969 -0.002224723 -0.002395528 0.00082614867 -6.019925e-07 0.0006092033 0.0008016574 -0.002165305 -0.0037526905 0.0028769844 0.0021498203 -0.0031899195 -0.0029507086 -0.00078378565 0.00043018957 0.00026606183 -0.0030219452 -0.002080248 8.680831e-05 0.002749869 0.0017187526 -0.0028868462 -0.0015371299 -0.00058683736 0.002753924 0.003757949 0.0021525135 -0.0019542556 0.002950172 -0.00056150963 0.0004259213 0.00066779915 -0.002837415 0.0021186285 0.0021527268 -0.0030168435 -0.0024684619 -0.00088287896 0.0004187268 -0.00051395997 0.00022684562 -0.0008395948 -0.0012213881 -0.0020866897 -0.00019443076 0.0007148082 -0.0022785263 0.0031084449 0.0024787786 0.003657556 0.0031054118 -0.002835982 0.0028964418 -0.0012503599 -0.0012802591 -0.0018514169 -0.002615132 -0.0032784275 0.00082231814 -0.0034971305 -0.0026875657
18 0.001347558 0.0003351629 -0.0032659243 -0.001099243 0.0017161093 -0.0010044005 -0.003478862 0.0018895676 0.0026092844 0.0038795487 -0.0007676682 0.0027271206 0.003074075 -0.00032507168 0.0009820723 -0.0033316938 -0.0013773561 0.0016382479 -0.0029481952 0.003709409 0.0037994648 -0.00050621893 0.0038689442 0.0005832767 0.00327294 0.0033728434 0.0006412273 -0.0001034078 0.0017741248 0.0012428598 -3.1632302e-05 0.0023948778 0.0014003058 0.0024135516 0.0018446246 -0.0019721584 -0.001317802 -0.00036797926 0.0011138703 0.0031713964 -0.0012062566 0.0037735798 -0.0032045054 -0.0014319341 -0.0008949443 0.0028020125 -0.0034993289 0.0003673722 0.0016399362 -0.00193016 -0.00034214166 -0.0031234648 0.0031195139 0.003415972 -0.0005686486 0.0035138796 0.00066867325 -0.0035966055 -0.001847783 -0.001215134 0.0018034197 -0.0035850978 0.00011515495 -0.00061737484 0.0032344512 0.0007846381 0.00069525966 -0.0020135532 0.003254156 0.003471822 -0.0024129455 -0.00040170748 0.0027199173 -0.0036758233 0.0029379604 0.0022999777 0.003513586 0.002240149 0.0014838693 -0.00051861233 -0.0036205668 0.0022544498 0.0022246684 -0.0028325 -0.0031025147 0.0014341449 0.002863049 -0.00033461585 -0.0027108842 0.002903596 0.00053073355 -0.0028844113 0.003120603 -0.0031254855 -0.0039039017 0.0014555551 -0.0021301256 0.00290873 0.001692033 -0.0019492639 -0.0006832992 0.0027762095 3.813781e-06 0.0010100498 0.0005344357 0.00043991877 -0.0028388042 -0.0032439018 -0.0009075523 -0.0030249783 -0.0022784262 -0.0026219387 -0.0029108166 -0.0021808 0.00049008115 -0.0024417108 -5.279494e-05 -0.0031572487 0.0029464196 -0.0011079406 -0.00056934945 -0.0034117124 -0.0006999362 -0.0010801166 0.002265449 -0.0037493717 -0.0030423342 -0.002422926
