34 128
34 -0.021658096 -0.17753577 0.034490436 0.1306742 0.15708913 -0.17160822 0.15027736 -0.047117274 -0.10583338 0.016220227 -0.064175814 0.16583703 0.08139669 -0.17248915 -0.04786597 -0.21660072 -0.052335173 -0.050537128 -0.03359019 0.040902823 0.28015572 0.046855643 0.15807416 0.10027182 -0.08628687 -0.14132507 -0.063178614 -0.001918913 -0.07123539 0.18282276 0.031267524 0.10744042 -0.14724511 0.06289032 -0.09371831 0.01807806 0.3036533 0.04270933 -0.040785614 -0.14727898 -0.1457031 0.28257445 0.08192999 0.027423631 -0.08837468 0.13195756 0.027768426 -0.05485025 -0.09392796 0.047131404 0.052510265 0.2181863 0.059714027 0.08602629 -0.19557302 -0.11161266 0.031358335 0.061722998 -0.09277209 -0.0006103101 0.089401215 -0.15251975 -0.13208629 0.07673696 -0.10899275 -0.16554798 -0.1335367 -0.09063433 0.054424696 -0.013166779 -0.06643931 0.056992296 -0.10870733 0.028722191 0.04038451 0.02670278 0.061241794 -0.016085 0.025976693 0.10642178 -0.0642412 -0.11538875 0.017079363 -0.14415106 -0.037629917 0.29878545 -0.1005477 0.023777243 -0.037866656 -0.067498475 -0.051872555 0.08748403 0.1374117 -0.067655735 -0.06282978 0.32076418 -0.16413674 0.07259094 0.010129497 -0.04670885 -0.28827357 0.14547777 -0.080789424 -0.11992308 -0.11705421 0.041090306 0.27807227 0.023783054 -0.03628872 0.08391847 -0.033076983 -0.119766794 -0.09991603 -0.08363651 -0.039238997 -0.06401509 -0.112937145 0.1695504 -0.04517796 0.080240496 -0.09153896 -0.17457318 0.011888099 -0.31210026 0.07980725 0.18204476 -0.14286764 0.09667724
1 -0.05378095 -0.24618022 0.069697104 0.13615532 0.14386886 -0.2632576 0.10703584 0.08546747 0.07183942 -0.0148134455 0.025757011 0.22999734 0.054936375 -0.17694962 0.110579394 -0.25136054 -0.12262067 -0.14469877 0.03743421 -0.06858617 0.2628069 -0.010167088 0.10376147 0.055412423 0.0402574 -0.111291364 -0.020467492 -0.031369697 -0.004132869 0.12525603 0.022672364 0.055291764 -0.15632328 0.04149599 0.018594328 -0.035878163 0.27101013 0.090231255 -0.026978852 -0.04907866 -0.014459002 0.14661832 0.14278208 0.08490065 -0.20805131 0.10720129 0.068814255 -0.051026795 -0.009381334 0.13200058 -0.056083705 0.18036988 0.036178183 0.056389503 -0.13182946 -0.18090948 0.043519225 0.14611755 -0.033877585 -0.12594464 0.15464844 -0.18509856 -0.02558542 0.10320861 -0.18567048 -0.019448683 -0.12284204 -0.090722315 0.11845489 -0.095372416 -0.09579752 0.008605986 -0.16352582 -0.018004877 0.21951099 0.07301467 0.08535394 -0.09736287 0.00096184184 -0.08943395 -0.08193317 0.01592708 -0.013530924 -0.08307257 -0.12652944 0.023049513 0.11684447 -0.010434597 0.11315328 0.0016008032 0.02070522 -0.0040474525 0.09562453 0.029182926 -0.123026855 0.13001837 -0.06415555 -0.1262139 0.09694949 0.14066733 -0.15579467 0.09543265 -0.077830724 -0.051400196 -0.18348917 -0.012194683 0.17175439 -0.0013367365 -0.019643791 -0.021886522 -0.03727004 0.045896634 -0.04298853 -0.0038610436 -0.1215942 0.024872338 -0.06139218 0.16989698 -0.089617096 -0.024207622 -0.0121314805 -0.09967813 0.15308444 -0.30536816 -0.15186597 0.034798943 -0.041859053 0.13154836
33 -0.02596534 -0.18711792 0.04065752 0.12890416 0.15134011 -0.18955277 0.13241275 -0.014676537 -0.065213636 0.0073872246 -0.03643536 0.17604564 0.07332008 -0.17185849 -0.005096534 -0.21649866 -0.072304346 -0.06740965 -0.022765605 0.012987729 0.27109367 0.03594132 0.14105348 0.08517294 -0.06266346 -0.12723283 -0.056976736 -0.0064212084 -0.049010973 0.16478197 0.025980206 0.09438998 -0.14610088 0.060830034 -0.07144505 0.002753459 0.29111734 0.052178886 -0.04139696 -0.12065512 -0.11137352 0.2464392 0.09372701 0.03515139 -0.114440694 0.1302306 0.03245092 -0.05495661 -0.08049701 0.05962266 0.025742767 0.20469795 0.05309364 0.075095475 -0.18058309 -0.12021312 0.033978168 0.07874544 -0.07654326 -0.024793798 0.10771987 -0.1602094 -0.105746016 0.08195412 -0.12399065 -0.13189955 -0.12712334 -0.089645654 0.067632385 -0.031051766 -0.06825648 0.047147334 -0.116982594 0.01687758 0.08077538 0.04065086 0.070227355 -0.035230067 0.018924193 0.060801845 -0.060960796 -0.08512792 0.0064255614 -0.12903348 -0.05417177 0.23522574 -0.04985792 0.013463 -0.0011220642 -0.052458506 -0.029273368 0.069036976 0.1250398 -0.049946725 -0.06989049 0.27409932 -0.14230454 0.02168708 0.03149276 -0.0068095243 -0.25471127 0.12509327 -0.08030409 -0.0945485 -0.12603171 0.025854278 0.24911352 0.021932581 -0.027335322 0.053877592 -0.03505011 -0.07948463 -0.085058786 -0.068830885 -0.055486694 -0.039776895 -0.10211876 0.1619585 -0.055615008 0.047941204 -0.070797235 -0.16005649 0.044495724 -0.3092599 0.031359788 0.14548087 -0.12243838 0.10053286
3 -0.042825874 -0.20147517 0.055630907 0.12607628 0.14358939 -0.22099312 0.11701553 0.026309192 -0.017516552 -0.0057706493 -0.003855489 0.19351856 0.063702434 -0.17656313 0.04065203 -0.23460263 -0.085994475 -0.10223614 0.011127744 -0.018224454 0.25412515 0.019246383 0.11603059 0.074657656 -0.013615212 -0.113956906 -0.040315185 -0.010544374 -0.017265882 0.14743789 0.022819955 0.06545499 -0.15051322 0.058573373 -0.036025632 -0.01687755 0.27859554 0.071265854 -0.02709134 -0.08185579 -0.060152873 0.18384391 0.10752015 0.061266158 -0.15269111 0.11521961 0.044389386 -0.05290405 -0.053410012 0.087206386 -0.005558658 0.1792539 0.042409003 0.07096864 -0.16576229 -0.14834401 0.044734813 0.10521337 -0.070267916 -0.064766355 0.119918324 -0.16298746 -0.06848814 0.09687491 -0.1508137 -0.077340215 -0.12361286 -0.083520964 0.08561702 -0.06530808 -0.0803385 0.03140318 -0.13411155 0.0008242288 0.1468825 0.053034265 0.077181324 -0.058997065 0.01748251 -0.00392256 -0.07133053 -0.040709026 -0.0051632477 -0.107140355 -0.076996975 0.14074035 0.02781846 -0.0009093434 0.049935605 -0.036450673 -0.010770395 0.0365912 0.10381132 -0.01990137 -0.098016575 0.19762957 -0.11423334 -0.04030072 0.057776988 0.057314366 -0.21042758 0.10743071 -0.0801506 -0.07121974 -0.14344947 0.018528385 0.20891826 0.012530801 -0.020004528 0.015432378 -0.03241823 -0.023249324 -0.058311004 -0.03091635 -0.088667944 -0.0045099943 -0.08436351 0.16640946 -0.060424015 0.011074426 -0.04690962 -0.14155649 0.08208067 -0.3084791 -0.050326273 0.09589052 -0.08069815 0.11312997
2 -0.037263464 -0.21445307 0.057288963 0.12763959 0.13548431 -0.23146358 0.10827585 0.05991229 0.029806681 -0.011385705 0.014390746 0.20972402 0.058285404 -0.17005697 0.081801385 -0.23462361 -0.113601096 -0.11832174 0.019784331 -0.04698023 0.25074744 0.0023966928 0.108016215 0.057861537 0.01217709 -0.107414365 -0.031467985 -0.027038489 -0.007524548 0.1281277 0.025195358 0.05500731 -0.15320733 0.04735282 -0.0034180495 -0.020725587 0.2710439 0.075678125 -0.027690997 -0.061626926 -0.028342351 0.16641885 0.1258843 0.0691294 -0.17985974 0.109039925 0.05554371 -0.053371057 -0.026933987 0.1022743 -0.029306734 0.1682673 0.039824635 0.060783718 -0.13807721 -0.15861708 0.045713335 0.124891475 -0.044051357 -0.09653906 0.13543534 -0.16586392 -0.04083776 0.092227325 -0.16441236 -0.040987052 -0.12431486 -0.08987017 0.10157249 -0.0810075 -0.08602295 0.018971002 -0.14584349 -0.013446079 0.18483345 0.067333624 0.081521414 -0.08026949 0.0031597903 -0.04789962 -0.07589496 -0.007995415 -0.0143803395 -0.09132423 -0.099931955 0.07597124 0.07746754 -0.0044498015 0.0873471 -0.013824786 0.010686266 0.017172977 0.097837485 0.0048188 -0.1122906 0.1600819 -0.083897375 -0.089523464 0.0728678 0.1043334 -0.17007701 0.09552616 -0.07440262 -0.06251276 -0.16879162 -0.0070568 0.1858183 0.007732055 -0.022450186 -0.005187798 -0.034961447 0.020015728 -0.05046502 -0.021533769 -0.10722896 0.013453387 -0.07080353 0.16759518 -0.07939043 -0.005790681 -0.026841542 -0.11899504 0.12595749 -0.3064846 -0.10262089 0.064269185 -0.051549517 0.12181502
4 -0.044449374 -0.21519196 0.062046558 0.1314151 0.14452599 -0.24739465 0.103070274 0.0646381 0.0321294 -0.014848131 0.021504367 0.21841432 0.065302074 -0.1809505 0.08334749 -0.24639063 -0.116636306 -0.12697943 0.02658418 -0.043896556 0.26222613 0.0024904895 0.10476167 0.060960352 0.016143557 -0.10459105 -0.033779636 -0.022805393 -0.0010459329 0.13047849 0.0197926 0.05512663 -0.15513137 0.048382916 -0.004506146 -0.027426368 0.2803087 0.082846306 -0.024108745 -0.056418907 -0.026551662 0.15720189 0.1283915 0.07751851 -0.1794023 0.10924006 0.052881416 -0.056368805 -0.03442168 0.10201226 -0.03003088 0.1683867 0.04121622 0.06489999 -0.1483377 -0.16321656 0.050204672 0.12556283 -0.04979786 -0.104574814 0.14790687 -0.17694612 -0.039873328 0.09999021 -0.16626218 -0.03901477 -0.1316573 -0.08846851 0.10583557 -0.084013075 -0.08855421 0.021308763 -0.14579588 -0.018876236 0.19729908 0.06645063 0.089562 -0.07745615 0.003349082 -0.04536859 -0.073251136 -0.013348223 -0.013952232 -0.09619328 -0.101056196 0.07452728 0.08609387 -0.010747763 0.09030813 -0.013238029 0.007227368 0.013708309 0.09295205 0.0024019482 -0.1156224 0.15615113 -0.08933436 -0.09287572 0.07476341 0.106050864 -0.17660205 0.09594529 -0.072572246 -0.050616942 -0.1700166 0.00021005163 0.17853905 0.0076828487 -0.020838808 -0.011919918 -0.029679032 0.017107708 -0.048897628 -0.015923886 -0.11081201 0.018749872 -0.073906444 0.17156895 -0.0765469 -0.008404306 -0.023843598 -0.122761406 0.117490776 -0.31598234 -0.10912376 0.06371709 -0.05202468 0.12512751
32 -0.026367664 -0.16762841 0.02939279 0.11474892 0.14057913 -0.1677211 0.12985857 -0.03336504 -0.0870123 0.009848908 -0.046041016 0.15798387 0.07086054 -0.15711601 -0.027796188 -0.20025657 -0.051446702 -0.057099663 -0.025237774 0.028655963 0.25181025 0.044482797 0.13167393 0.086733826 -0.074470155 -0.124324724 -0.058339316 0.0039880006 -0.05143561 0.15918593 0.025912073 0.08811176 -0.12977046 0.060333107 -0.08395214 0.009073523 0.27600327 0.048122276 -0.03624984 -0.12970465 -0.119426586 0.23818016 0.07505878 0.027783917 -0.09589705 0.12041713 0.026615417 -0.045512654 -0.08206393 0.04305051 0.035680458 0.193356 0.048819546 0.078797765 -0.18109354 -0.10911599 0.03577999 0.063989066 -0.08800846 -0.009013897 0.08838089 -0.14219953 -0.11292535 0.07802892 -0.11648133 -0.1359625 -0.12683651 -0.07744841 0.050488308 -0.027153458 -0.06847862 0.052063305 -0.10110706 0.018580927 0.056081608 0.031963866 0.059594866 -0.022660939 0.022784466 0.077843025 -0.061902378 -0.09805456 0.013591893 -0.12511767 -0.03911933 0.25296032 -0.067922674 0.013469574 -0.013875313 -0.066416785 -0.039290212 0.07376121 0.12417902 -0.05999819 -0.05981168 0.27118474 -0.14585665 0.043951582 0.014817027 -0.030166142 -0.25333178 0.12206468 -0.07755072 -0.09960003 -0.104725115 0.041969836 0.2504522 0.02236375 -0.032832526 0.06657374 -0.031521976 -0.09742872 -0.0801265 -0.06375844 -0.044316795 -0.045971304 -0.10174796 0.15717211 -0.038773376 0.05232252 -0.07866118 -0.16264355 0.017541545 -0.2912969 0.057574417 0.15137905 -0.12873034 0.09384286
24 -0.022152968 -0.1821144 0.03850595 0.13327132 0.15228172 -0.18307465 0.14234841 -0.03498178 -0.084973656 0.011916471 -0.04421554 0.16997218 0.07931744 -0.17274041 -0.028612237 -0.22296426 -0.061855808 -0.06611251 -0.023390044 0.027278518 0.27740604 0.042046983 0.14634784 0.10190905 -0.07082607 -0.13511279 -0.060798254 -0.0067417156 -0.062177885 0.17731337 0.0239204 0.09771371 -0.1484864 0.05727843 -0.08327511 0.009268909 0.3015808 0.04805435 -0.04064531 -0.14376369 -0.124246225 0.2644774 0.08362343 0.03254452 -0.10318428 0.13513525 0.027130837 -0.04778543 -0.08512268 0.052309543 0.040513206 0.21737666 0.052748658 0.082163796 -0.18450978 -0.11456242 0.04221359 0.06888783 -0.09048511 -0.014475337 0.09689381 -0.15762246 -0.11441189 0.08260809 -0.12787686 -0.15167446 -0.13675287 -0.083933264 0.055198126 -0.02456517 -0.069871955 0.054975487 -0.12098002 0.022125015 0.06377194 0.029758072 0.058802206 -0.030343024 0.022034913 0.08709893 -0.062486794 -0.09718588 0.012933709 -0.1293103 -0.046697248 0.2599191 -0.07714646 0.022618428 -0.017077405 -0.06289849 -0.043448213 0.07506958 0.13298264 -0.059301432 -0.060721345 0.29559448 -0.14909662 0.046892438 0.01962936 -0.028218007 -0.27423987 0.14106117 -0.07800563 -0.106064446 -0.12079818 0.04095314 0.2643461 0.024573311 -0.028364828 0.07266831 -0.030697256 -0.10246608 -0.09286499 -0.07457744 -0.05566146 -0.054148026 -0.10913212 0.16398717 -0.043202195 0.063226335 -0.0820057 -0.16874656 0.02632401 -0.31783313 0.05765885 0.16857189 -0.13502018 0.10426686
14 -0.04071146 -0.21168776 0.059425857 0.12569955 0.14462471 -0.22366442 0.112922214 0.03583544 -0.0013729839 -0.0038471106 -0.0053875055 0.20482656 0.06390806 -0.17401835 0.0547297 -0.23377666 -0.09721429 -0.10701447 0.012829288 -0.029114945 0.2631343 0.01627575 0.11760831 0.07040414 -0.008961133 -0.11024054 -0.034996226 -0.013986806 -0.02333568 0.14366962 0.026064886 0.0685146 -0.15179345 0.05458116 -0.02106998 -0.016733043 0.27836275 0.07124661 -0.029591337 -0.07860658 -0.05770199 0.18614094 0.117268175 0.066215195 -0.16030653 0.11604045 0.048755277 -0.050075173 -0.04392192 0.09554977 -0.01614805 0.17955667 0.042991683 0.06961887 -0.15465419 -0.15248924 0.03969024 0.115348205 -0.06249175 -0.08061102 0.12965074 -0.17125799 -0.05716563 0.08951883 -0.15825585 -0.06449335 -0.12577437 -0.09146845 0.09262662 -0.069705635 -0.08706054 0.030736549 -0.14191525 -0.0019704013 0.16189991 0.060900606 0.08062398 -0.066100016 0.008899042 -0.01914759 -0.074130245 -0.032027405 -0.0036672838 -0.09987241 -0.09094033 0.1263361 0.040217325 -0.0027407529 0.063924044 -0.02710937 -0.0050168866 0.028881814 0.10529969 -0.012788906 -0.103583835 0.19398384 -0.10461625 -0.051011723 0.063171335 0.07217693 -0.19937077 0.105923675 -0.077486075 -0.06708921 -0.15791251 0.010132611 0.20660684 0.014159615 -0.02755003 0.010120898 -0.038396005 -0.014733291 -0.062042724 -0.029025951 -0.089665115 -0.0027907875 -0.08377774 0.1670744 -0.071686976 0.011182263 -0.039811872 -0.13509387 0.0972295 -0.31141004 -0.0629114 0.084659874 -0.07576095 0.11695372
7 -0.04298505 -0.24509439 0.055446643 0.14326055 0.13179678 -0.2515624 0.105231754 0.09442566 0.100574926 -0.021120897 0.03535104 0.2266763 0.039783485 -0.16703457 0.13590397 -0.23916006 -0.12769829 -0.15194139 0.02957881 -0.08150046 0.24868272 -0.0238491 0.09506741 0.049554072 0.06111473 -0.124106824 -0.023075158 -0.052915294 -0.013372129 0.115450375 0.032935943 0.04950399 -0.15314215 0.021231577 0.031964757 -0.032016095 0.26051292 0.09524819 -0.044253077 -0.0440946 -0.0038001921 0.14827347 0.15048999 0.07816554 -0.21829675 0.111914285 0.08724391 -0.04927734 0.004088733 0.1438071 -0.06435765 0.18853034 0.031301685 0.043984164 -0.110691436 -0.18546118 0.04479347 0.1426727 -0.005727103 -0.13498007 0.15814187 -0.17787765 -0.0070240633 0.10643568 -0.1910309 -0.012956634 -0.11991083 -0.08445471 0.12935841 -0.10640491 -0.092919394 0.009767639 -0.18295923 -0.012710179 0.23445205 0.07534375 0.07665921 -0.09779368 -0.007144405 -0.107844554 -0.08032139 0.04837853 -0.01433123 -0.06354117 -0.1315904 -0.013910262 0.13333127 -0.006134048 0.11277212 0.014525408 0.03186391 -0.0151310265 0.09923861 0.048095226 -0.11840116 0.119699344 -0.039314326 -0.14865284 0.10130811 0.15400596 -0.13433924 0.09242688 -0.08383789 -0.049738385 -0.19621786 -0.030800903 0.14790554 -0.0071525667 -0.0027267083 -0.028735876 -0.031900875 0.07375645 -0.048585806 -0.012936343 -0.124893636 0.032560144 -0.057327285 0.1565776 -0.09265853 -0.025923936 -0.0044068275 -0.0803648 0.1821455 -0.300173 -0.17932332 0.021981636 -0.029648362 0.13512345
6 -0.047945134 -0.25256017 0.06283409 0.15036148 0.13349238 -0.25941426 0.10511468 0.10693445 0.1144966 -0.022712199 0.04847898 0.23029718 0.033510063 -0.16415189 0.15170112 -0.24155514 -0.13769001 -0.16502592 0.03865058 -0.09602142 0.24492869 -0.030630618 0.088080086 0.039015774 0.07427016 -0.12459527 -0.014216096 -0.060190048 -0.005438746 0.11564469 0.031160222 0.03920402 -0.15030618 0.020553404 0.048542567 -0.035137177 0.26208037 0.1083747 -0.04702386 -0.03691211 0.010048625 0.1402708 0.15977255 0.07724122 -0.23522455 0.108888276 0.095279515 -0.053708043 0.013081595 0.15616193 -0.07178421 0.18813014 0.025623579 0.037538353 -0.0981586 -0.19942817 0.044644255 0.15031384 0.003547886 -0.1553792 0.16777378 -0.17733806 0.0015042985 0.10670457 -0.19870608 -0.006601559 -0.124965645 -0.08946408 0.13544303 -0.115064085 -0.09230608 0.0022314936 -0.1932527 -0.013626817 0.25444978 0.07859025 0.081163004 -0.10479684 -0.011812253 -0.122637205 -0.08720135 0.06280181 -0.013826182 -0.061707407 -0.13648914 -0.03974726 0.16018322 -0.010145913 0.12714435 0.020393077 0.03727462 -0.020469867 0.0965173 0.0616044 -0.124677 0.1058182 -0.030562313 -0.16815396 0.11552936 0.17102376 -0.119329445 0.08688594 -0.082508676 -0.044553995 -0.20827894 -0.03199605 0.14230424 -0.0069492385 -0.0009929729 -0.040144812 -0.029063921 0.08956296 -0.045023724 -0.002612894 -0.13162658 0.04593674 -0.05117392 0.16061248 -0.09459071 -0.03704213 0.0057728877 -0.07936771 0.20092894 -0.30865648 -0.20654386 0.014757334 -0.019557456 0.13513955
8 -0.03607129 -0.19801705 0.051517814 0.12120227 0.13182096 -0.20886374 0.11063454 0.03073857 -0.0035611624 -0.0018107165 -0.0045607085 0.19007604 0.059416376 -0.16291013 0.04949174 -0.22403502 -0.08931731 -0.10104282 0.014398877 -0.016987296 0.24558869 0.012915434 0.10986112 0.062908106 -0.01075748 -0.104340166 -0.04025189 -0.013081176 -0.021797523 0.13763608 0.022527082 0.06591877 -0.13939492 0.05008528 -0.029669458 -0.016803784 0.27047044 0.0683035 -0.024314959 -0.074029244 -0.055715673 0.17917868 0.103066206 0.06032658 -0.14760996 0.11324689 0.04056701 -0.048932347 -0.047613252 0.08558973 -0.013199154 0.16989876 0.046715245 0.06600934 -0.15111642 -0.14016044 0.03795129 0.09957918 -0.060071275 -0.07296075 0.11736909 -0.162094 -0.05768749 0.09008537 -0.1403722 -0.07089037 -0.11833135 -0.08193474 0.083256155 -0.06613626 -0.08159744 0.026110264 -0.12984742 -0.0058976123 0.14237519 0.05314414 0.068761304 -0.058970723 0.007949898 -0.008842297 -0.06411794 -0.03898029 -0.0063522505 -0.09672922 -0.08350968 0.12583517 0.038430624 0.00011502403 0.054304924 -0.030860804 -0.0041170544 0.026239542 0.097625576 -0.013928587 -0.09213526 0.17776513 -0.10082188 -0.050579496 0.051615346 0.05597721 -0.18735175 0.099399135 -0.07715376 -0.06834134 -0.13841704 0.0071234317 0.19609785 0.0052434937 -0.023491496 0.010098478 -0.034487262 -0.013023434 -0.056458756 -0.031823788 -0.09059865 -0.0014589842 -0.08173716 0.15640953 -0.064913385 0.009217922 -0.04168275 -0.12943454 0.08934294 -0.29096183 -0.053217012 0.08192319 -0.070430495 0.10633713
30 -0.014907838 -0.17148715 0.031970177 0.12665038 0.14591339 -0.16233958 0.14561673 -0.04952973 -0.10918827 0.017349737 -0.064429715 0.16028248 0.0780061 -0.1694164 -0.049413845 -0.21069801 -0.052607212 -0.04760165 -0.039062552 0.042441867 0.27103022 0.046026997 0.15603586 0.09524651 -0.08633537 -0.13129315 -0.06069456 0.0017449011 -0.06882882 0.17663367 0.02564636 0.10011411 -0.1412138 0.06143381 -0.09631412 0.019238833 0.2938032 0.0395057 -0.036107417 -0.14824906 -0.13921243 0.27120587 0.07720542 0.030562367 -0.08164316 0.13143003 0.021298341 -0.05578221 -0.097426124 0.042240497 0.052059624 0.20844172 0.05749338 0.076737404 -0.18576819 -0.09983953 0.026437838 0.062260948 -0.09250107 0.0042544883 0.0880757 -0.15387028 -0.12240657 0.07481501 -0.10387586 -0.16312915 -0.13208927 -0.08947581 0.052249197 -0.015683902 -0.062015217 0.0584287 -0.10530775 0.025367048 0.041862708 0.02658172 0.06585177 -0.015583695 0.025020402 0.10916019 -0.06435867 -0.11587735 0.010786851 -0.14095713 -0.034611627 0.2994807 -0.105009526 0.02476839 -0.036161833 -0.067577645 -0.045790415 0.083740555 0.13301302 -0.06591382 -0.054872297 0.31397605 -0.1680079 0.076313145 0.012047694 -0.049297545 -0.28217515 0.14288749 -0.08173068 -0.119321875 -0.114833474 0.041833166 0.27839455 0.028429277 -0.039248686 0.08171487 -0.03833501 -0.12407662 -0.103146195 -0.08759816 -0.03505951 -0.06380851 -0.11903614 0.16822763 -0.0473456 0.081003875 -0.09572847 -0.17862745 0.009631663 -0.31528485 0.087265484 0.18316945 -0.14050576 0.09760023
9 -0.030093316 -0.1805537 0.041487124 0.11820578 0.13749428 -0.18785465 0.11786851 0.0074078003 -0.03223765 0.001316778 -0.02070823 0.17806098 0.0654656 -0.16414493 0.013374509 -0.20873208 -0.08006618 -0.0772854 -0.008710984 -0.0016276175 0.24757825 0.02751468 0.127666 0.073085405 -0.037335906 -0.11139263 -0.046823658 -0.015580664 -0.0371214 0.14875834 0.024975302 0.08044176 -0.1412654 0.050638203 -0.042854965 -0.006746191 0.27251562 0.05504431 -0.035675824 -0.09545236 -0.086555384 0.20315884 0.09761504 0.04975793 -0.12658115 0.112052515 0.03782641 -0.052771963 -0.061748143 0.06532332 0.008605138 0.18179433 0.042002965 0.06737469 -0.15257889 -0.12624018 0.03269466 0.087288156 -0.067273006 -0.04772943 0.107829034 -0.15243208 -0.08367303 0.08225698 -0.12509115 -0.09841665 -0.117304854 -0.08393075 0.071045585 -0.04234177 -0.06833101 0.039919745 -0.1147913 0.005613327 0.109390415 0.042424135 0.06669845 -0.041708887 0.010606754 0.030083183 -0.061461706 -0.058719188 -0.0004712452 -0.11432052 -0.06649453 0.17565359 -0.012193713 0.007861444 0.021035451 -0.037158966 -0.017108597 0.04796624 0.1133894 -0.024448618 -0.08092681 0.22054474 -0.11565124 -0.005265719 0.04153574 0.028147535 -0.22098264 0.10886908 -0.07625057 -0.08029522 -0.13263452 0.020360611 0.21735997 0.019506164 -0.031512644 0.034387488 -0.028965175 -0.05078435 -0.068538636 -0.051328775 -0.06724243 -0.02595503 -0.092646845 0.16409177 -0.05976438 0.03793803 -0.057762913 -0.14465198 0.060219232 -0.29560825 -0.010858722 0.1201374 -0.09624177 0.104954846
28 -0.03076788 -0.18697754 0.041471627 0.12657672 0.14594969 -0.18302822 0.13419743 -0.02276104 -0.07364719 0.0074399244 -0.039184812 0.17606927 0.07205828 -0.16516025 -0.01694145 -0.21910505 -0.06391859 -0.0735385 -0.014311232 0.022920724 0.26372957 0.035362013 0.13860296 0.08857144 -0.062987104 -0.12855017 -0.060333896 -0.0029606207 -0.04948151 0.16647667 0.027415263 0.09289051 -0.14019987 0.060294982 -0.0766535 0.0015703876 0.29126602 0.05553992 -0.035937004 -0.12709686 -0.11370426 0.23930615 0.09071925 0.03934389 -0.11422243 0.12442704 0.028181784 -0.050701424 -0.08187737 0.05764364 0.02408016 0.20529157 0.054378428 0.07354985 -0.17699933 -0.12065844 0.035633277 0.073361546 -0.08773642 -0.022017084 0.099079356 -0.15918098 -0.10118766 0.08633403 -0.12496858 -0.13304693 -0.13247351 -0.079417564 0.056145858 -0.03941341 -0.072879754 0.050932985 -0.119051814 0.014115427 0.07656242 0.03585374 0.06284762 -0.028357219 0.017649468 0.06853177 -0.0653021 -0.0924915 0.01090511 -0.12322411 -0.05085603 0.24001907 -0.052138496 0.016583115 -0.0034252491 -0.0581592 -0.033986975 0.06550223 0.121030584 -0.052263137 -0.06395794 0.26622286 -0.14325827 0.029623525 0.026778188 -0.015549315 -0.25786975 0.13350719 -0.08287256 -0.10184152 -0.11948292 0.037730858 0.25473636 0.025260128 -0.027656538 0.055887878 -0.03265689 -0.08268391 -0.087340936 -0.06559714 -0.055513207 -0.045310948 -0.106540605 0.16162564 -0.050867673 0.046662644 -0.07464346 -0.15994008 0.03527528 -0.30695078 0.031704713 0.14516585 -0.120762706 0.10319381
11 -0.053686284 -0.26764694 0.06752537 0.15587175 0.14629354 -0.27950397 0.10701357 0.1091049 0.114890635 -0.02600048 0.0453045 0.2497011 0.040908553 -0.17445336 0.1545725 -0.26268932 -0.1477931 -0.16791232 0.03750609 -0.095584266 0.27000082 -0.026761997 0.100871645 0.04870699 0.066423334 -0.1278253 -0.020154824 -0.055664383 -0.009109963 0.118781075 0.032755602 0.048234485 -0.16118248 0.023261925 0.046749942 -0.03267554 0.2860552 0.109556414 -0.043180402 -0.035422463 0.009941297 0.15378307 0.16603157 0.085017785 -0.24098942 0.11794025 0.09517373 -0.050878607 0.002507104 0.15667656 -0.07068428 0.19607036 0.033701077 0.042091597 -0.11266997 -0.20688249 0.04901389 0.16201402 -0.010694253 -0.15608746 0.17381512 -0.19631508 0.00039172015 0.11434875 -0.2099556 -0.005042224 -0.13368383 -0.09708733 0.14496806 -0.11718801 -0.09983975 0.0053006033 -0.19781277 -0.021233456 0.26425806 0.085101925 0.087112136 -0.11417611 -0.012984404 -0.12308762 -0.08496245 0.057828873 -0.017277665 -0.07122205 -0.14784946 -0.025452679 0.16045217 -0.0088626845 0.13389444 0.01866277 0.03296561 -0.02248763 0.10076745 0.05862631 -0.12839219 0.112204455 -0.03601637 -0.16316126 0.11117043 0.17730084 -0.12693183 0.094933875 -0.08501787 -0.044965167 -0.21179102 -0.033935856 0.15217416 -0.011798062 -0.0051520336 -0.040260185 -0.03547822 0.08637972 -0.049470734 -0.007853262 -0.13375773 0.039425094 -0.058591634 0.16921273 -0.097223066 -0.036925387 0.004238964 -0.08572221 0.19925295 -0.31666476 -0.20023409 0.012356957 -0.029728178 0.14149179
26 -0.025086707 -0.18378587 0.037217394 0.12968266 0.15747072 -0.18830192 0.14544362 -0.039081696 -0.09796929 0.008693901 -0.05252468 0.17025779 0.082364455 -0.1766177 -0.034329608 -0.22296906 -0.05463034 -0.06395239 -0.024386343 0.035967533 0.2848213 0.045937397 0.15380108 0.10195833 -0.08064421 -0.14241597 -0.06795804 -0.002372241 -0.064367495 0.18390754 0.03231562 0.10049355 -0.1457554 0.060111303 -0.09642732 0.007008731 0.30836573 0.051020555 -0.042342704 -0.1449008 -0.13244818 0.26388004 0.08246306 0.030282348 -0.106768146 0.13955665 0.024994822 -0.050951574 -0.09245658 0.05540873 0.04350276 0.22104031 0.056464296 0.080515146 -0.19692852 -0.12039719 0.04249976 0.070168875 -0.10207838 -0.008506262 0.09722473 -0.16195846 -0.12010829 0.089804314 -0.12540078 -0.15370633 -0.13721022 -0.08975453 0.05411253 -0.028233197 -0.07217243 0.056006894 -0.11831853 0.022482142 0.06379079 0.028218929 0.057704363 -0.024682634 0.023821678 0.08843263 -0.069644615 -0.10659284 0.014536209 -0.13531199 -0.04138632 0.28089157 -0.08246128 0.018335007 -0.019758817 -0.07183672 -0.044527687 0.07877888 0.13791858 -0.059460323 -0.060696688 0.29809138 -0.1614318 0.051117614 0.02152398 -0.03505139 -0.28135222 0.14058945 -0.0831234 -0.107860334 -0.11623506 0.045709 0.2787149 0.026886385 -0.027412955 0.07645025 -0.038587864 -0.10798259 -0.09285298 -0.072399266 -0.050776977 -0.05524858 -0.112840444 0.16891839 -0.0418174 0.05578938 -0.08702149 -0.17863148 0.018311892 -0.32998842 0.06252164 0.17434737 -0.14355958 0.098771125
5 -0.057624 -0.28596175 0.069671996 0.15752004 0.14430739 -0.29951978 0.104562834 0.13650864 0.1642409 -0.035045426 0.07351631 0.26443547 0.029340206 -0.17383435 0.19577451 -0.26943955 -0.16603021 -0.19558793 0.05120512 -0.12208609 0.26258582 -0.038200635 0.078647986 0.04113618 0.10476914 -0.1250337 -0.006309443 -0.070227444 0.008528959 0.10449153 0.026072046 0.03194025 -0.16648382 0.020943936 0.08069443 -0.052322753 0.27184635 0.1228797 -0.043854255 -0.012229804 0.046501707 0.115535446 0.17661263 0.097133316 -0.2734708 0.10819756 0.10842979 -0.05442927 0.027736856 0.17652108 -0.099802814 0.1901776 0.030137204 0.027857363 -0.08868997 -0.22625683 0.052092534 0.17682305 0.016897181 -0.19369838 0.18747942 -0.19979054 0.027854962 0.120498024 -0.22954652 0.029821595 -0.123313636 -0.09747783 0.1632268 -0.13925049 -0.10855243 -0.0063716145 -0.2161563 -0.033991393 0.3080095 0.091020435 0.089423686 -0.1366961 -0.021778192 -0.17742737 -0.09558516 0.09292167 -0.025239184 -0.054279022 -0.1699376 -0.10303337 0.2166367 -0.011858815 0.17004032 0.039225172 0.05672005 -0.044484485 0.0919359 0.08455943 -0.1494397 0.07016958 -0.016520167 -0.2186463 0.14211003 0.23019017 -0.104708135 0.08257821 -0.0883996 -0.036122132 -0.23874016 -0.049496822 0.12836292 -0.016645713 -0.004336723 -0.06639095 -0.037086118 0.12812193 -0.033124905 0.009475798 -0.15818241 0.06813545 -0.03862575 0.17191702 -0.104071654 -0.058425467 0.023291828 -0.062176246 0.24000125 -0.32177377 -0.26823136 -0.016756486 -0.004248833 0.15801127
31 -0.024001133 -0.1704656 0.044172786 0.118827544 0.14033227 -0.1814339 0.12466965 -0.02069398 -0.071328275 0.0078759 -0.032784093 0.17046355 0.07571139 -0.1670856 -0.012277088 -0.21281995 -0.07139278 -0.064104825 -0.014502138 0.015506469 0.25543433 0.034232292 0.12889022 0.087920025 -0.05619594 -0.11342896 -0.048820958 0.00024713913 -0.042478006 0.15543784 0.019213298 0.08830908 -0.142734 0.061687417 -0.064175546 0.0055003506 0.27396396 0.046245586 -0.02680136 -0.117719814 -0.10208805 0.22699408 0.08391093 0.037273142 -0.10408023 0.11797594 0.02414977 -0.054150566 -0.07679195 0.054710045 0.024297543 0.1867019 0.04921808 0.073542096 -0.17029986 -0.11461141 0.036014806 0.07194717 -0.083963335 -0.02732256 0.10057224 -0.14946611 -0.10222906 0.07302666 -0.12120678 -0.122786306 -0.12682618 -0.086142495 0.05930612 -0.030573927 -0.06782604 0.042429417 -0.108363084 0.012263308 0.08205824 0.03665513 0.07307315 -0.034678042 0.02262404 0.061994366 -0.060520418 -0.0857411 0.0035604164 -0.1275304 -0.049558815 0.22511755 -0.04995795 0.009603222 0.0012073531 -0.05506699 -0.035030708 0.06823786 0.11988735 -0.0501198 -0.07784686 0.25793687 -0.14205532 0.02633587 0.026832547 -0.0008541062 -0.24829148 0.12135292 -0.074454665 -0.09558058 -0.12268055 0.031460214 0.23906414 0.024126463 -0.02956287 0.052536257 -0.03533173 -0.08274816 -0.080488406 -0.06304823 -0.055850882 -0.03421437 -0.099508576 0.16485596 -0.053338625 0.052373685 -0.07189864 -0.15834633 0.032360803 -0.30172098 0.029339489 0.14389388 -0.115796454 0.09839268
29 -0.033545133 -0.19872603 0.043565594 0.12878883 0.14725213 -0.20803651 0.12751697 0.0032086556 -0.033649724 0.0026175533 -0.019047808 0.19051793 0.06589672 -0.1716874 0.020294858 -0.22781394 -0.083306424 -0.093772255 -0.0017356108 -0.004129453 0.26712182 0.021433977 0.12595676 0.079824485 -0.035577487 -0.12812684 -0.04798977 -0.016431874 -0.036611963 0.1590159 0.030502588 0.07857323 -0.14487416 0.052395146 -0.05238462 -0.0053243414 0.2892612 0.065473765 -0.03536817 -0.10939742 -0.08208341 0.22057004 0.09835274 0.0442167 -0.13620028 0.12726486 0.04125263 -0.05184944 -0.062217418 0.07966438 0.0058927224 0.19791675 0.045539867 0.06945978 -0.16962418 -0.13392688 0.04463079 0.09574473 -0.06741583 -0.049472336 0.11587144 -0.16544794 -0.08520403 0.089659885 -0.14532249 -0.10542669 -0.13321948 -0.088294044 0.08010329 -0.04732853 -0.08083515 0.038349174 -0.13604198 0.01106428 0.118972294 0.04938927 0.07109478 -0.04888976 0.016736297 0.024362838 -0.0741269 -0.055373225 0.005892472 -0.11611955 -0.06938425 0.18073133 -0.004819685 0.0043692244 0.027067306 -0.045880582 -0.019118387 0.0451709 0.11745824 -0.02627671 -0.07989988 0.23794179 -0.12577608 -0.010375542 0.04718207 0.026453622 -0.23472573 0.124235965 -0.08190102 -0.08599796 -0.14042352 0.021411598 0.2289652 0.012592144 -0.023049092 0.039861158 -0.031742483 -0.047294986 -0.07732261 -0.051679987 -0.078011654 -0.026927805 -0.0945437 0.16208698 -0.056344267 0.02973875 -0.058884304 -0.14590651 0.067611165 -0.3153602 -0.01428347 0.1230833 -0.102406695 0.10675204
25 -0.033265054 -0.18611115 0.035832793 0.12177466 0.13790607 -0.18918793 0.12388889 -0.014755087 -0.050190922 0.0038490107 -0.033202138 0.16934521 0.06764527 -0.15971422 -0.0014859401 -0.22024706 -0.0637628 -0.0792395 -0.0070240917 0.014510914 0.26104137 0.029257264 0.13213696 0.08692809 -0.048157677 -0.13151605 -0.05069951 -0.008796587 -0.05167818 0.16016859 0.029863833 0.08353631 -0.13751332 0.048005693 -0.068276614 0.0033464252 0.2738524 0.061039377 -0.03841238 -0.118584454 -0.10130511 0.2280926 0.087814935 0.034652576 -0.11488327 0.12605919 0.036398914 -0.043649483 -0.06618471 0.066325195 0.014316401 0.20174386 0.0506989 0.074889645 -0.17498764 -0.12651356 0.04310872 0.07523131 -0.07774166 -0.028253812 0.0993097 -0.15098776 -0.09089888 0.08228615 -0.13363355 -0.11988383 -0.12908354 -0.07798471 0.059760477 -0.040307827 -0.0728442 0.040329304 -0.116838895 0.017006708 0.08766671 0.031787258 0.05755548 -0.034045633 0.020655356 0.046644785 -0.06476786 -0.07640118 0.0064305393 -0.119304895 -0.05673826 0.20486036 -0.033709157 0.0062786667 0.0028715013 -0.056050587 -0.03191929 0.05371126 0.12127772 -0.04290846 -0.0708398 0.24592538 -0.12845752 0.010549874 0.032819428 0.0039839232 -0.23914069 0.12359901 -0.0796691 -0.09004909 -0.11952784 0.027244896 0.2339363 0.019722126 -0.021882972 0.04659807 -0.033724602 -0.06709232 -0.07663585 -0.059266914 -0.06725718 -0.036747944 -0.09366541 0.15568317 -0.050754298 0.03806542 -0.06496705 -0.14299554 0.04452874 -0.30113453 0.012118285 0.1377079 -0.113778144 0.10008461
20 -0.037282545 -0.2073678 0.055434857 0.12894881 0.1378297 -0.22377852 0.11801218 0.035737716 -0.0023203148 -0.0067670587 -0.0043944535 0.1972223 0.06794283 -0.17036782 0.051552143 -0.23172843 -0.10278272 -0.1037862 0.0082790395 -0.029538022 0.25974947 0.009521686 0.11981203 0.06840264 -0.0063202246 -0.10836286 -0.032601077 -0.020381559 -0.020471673 0.13572988 0.020696752 0.066743 -0.14628789 0.04808393 -0.019538863 -0.011548968 0.27877802 0.067021884 -0.03188708 -0.08231217 -0.057819385 0.18393078 0.11099086 0.0604236 -0.15355097 0.11455289 0.051067036 -0.0517875 -0.04330593 0.08865987 -0.01757232 0.17925107 0.04643033 0.06086663 -0.15110585 -0.14736687 0.04172922 0.10462991 -0.060625218 -0.075369604 0.13296418 -0.16486652 -0.057273395 0.09093733 -0.1524978 -0.06934876 -0.12504752 -0.08634423 0.08868165 -0.062121883 -0.08339022 0.02869067 -0.13985734 -0.0047423732 0.154964 0.059100438 0.080104396 -0.06446993 0.009294224 -0.011580883 -0.0693084 -0.034093495 -0.00571246 -0.10528552 -0.08299731 0.12556057 0.03568824 0.0015288579 0.054420955 -0.02265228 -0.0022298286 0.030327758 0.10372697 -0.011633192 -0.096067056 0.18746313 -0.09689142 -0.05159648 0.05605398 0.07218023 -0.19373359 0.10185357 -0.079026826 -0.0649544 -0.15344675 0.008407189 0.19734842 0.011356752 -0.018301444 0.014234785 -0.03687662 -0.010018856 -0.060866013 -0.031076904 -0.091739856 -0.00447225 -0.07594664 0.16620596 -0.06832692 0.0119677335 -0.03964971 -0.12583323 0.0957518 -0.30520442 -0.061124492 0.08892055 -0.07717644 0.114581466
19 -0.02276012 -0.1814604 0.04506093 0.12128187 0.14396106 -0.18107551 0.13002324 -0.017607234 -0.06258209 0.0072075585 -0.03950718 0.1744366 0.07035215 -0.16543184 -0.01166163 -0.21174242 -0.07251209 -0.07197875 -0.015686128 0.015759422 0.2616531 0.030776456 0.13676468 0.087639116 -0.055894084 -0.11898733 -0.052922994 -0.006722752 -0.048804693 0.15829071 0.024305858 0.089065515 -0.14122875 0.053253278 -0.06607941 0.0038061594 0.27896953 0.05150721 -0.032497674 -0.11779078 -0.10626169 0.23247208 0.090534166 0.038435232 -0.106199004 0.122973196 0.03506389 -0.055674046 -0.075796835 0.060603764 0.025263434 0.19350976 0.045396212 0.07208239 -0.16759527 -0.115595914 0.030895095 0.07962209 -0.07461639 -0.027811855 0.10103198 -0.1551633 -0.09795732 0.08092049 -0.12336731 -0.12810294 -0.12354658 -0.087345876 0.06185651 -0.03465114 -0.067420654 0.045445103 -0.114509486 0.015689945 0.08106031 0.034054194 0.07242068 -0.03302265 0.014858247 0.05652453 -0.06458325 -0.08062037 0.007026986 -0.12726629 -0.055386383 0.22546826 -0.045242548 0.015495428 -0.003080679 -0.052178875 -0.03185811 0.06747637 0.12404579 -0.041592397 -0.07413716 0.26453647 -0.13711812 0.025283044 0.030558573 -0.004925311 -0.24442005 0.12659688 -0.079369955 -0.09799744 -0.12675165 0.029682044 0.2407375 0.02211869 -0.031086886 0.053604133 -0.034398504 -0.07846944 -0.08228436 -0.065823585 -0.05369283 -0.036851093 -0.095676176 0.16854487 -0.056147803 0.05415662 -0.0723335 -0.15843822 0.039142057 -0.30814457 0.023207601 0.14514607 -0.1189606 0.099528864
13 -0.039716493 -0.21780528 0.059149515 0.1284325 0.1393609 -0.23454073 0.11142441 0.0500895 0.031794973 -0.0080107385 0.012399225 0.20842758 0.058267046 -0.174346 0.08094777 -0.23729497 -0.11474853 -0.12445517 0.018172704 -0.048246484 0.26141977 0.0030733012 0.103217386 0.06457892 0.008554013 -0.11340758 -0.027795445 -0.02465369 -0.012673567 0.13294256 0.020862347 0.06264723 -0.15214047 0.04263571 -0.0036146815 -0.024567282 0.27780876 0.084712826 -0.03036985 -0.06686643 -0.032924943 0.17057857 0.12492555 0.06983598 -0.17725712 0.11709297 0.059747946 -0.051547803 -0.033224877 0.108757496 -0.033003848 0.18291925 0.040902026 0.06261201 -0.14378579 -0.16561896 0.041152097 0.11775051 -0.041703656 -0.10164946 0.14221887 -0.1701097 -0.047017027 0.093066126 -0.16365756 -0.052292265 -0.12802546 -0.090380944 0.10701425 -0.08285833 -0.08822375 0.01904729 -0.15016592 -0.012062149 0.18513414 0.059519015 0.079330534 -0.078121565 0.00023695416 -0.047439612 -0.07393762 -0.0104153 -0.009949303 -0.09514667 -0.10529809 0.07739082 0.07598601 -0.0058086114 0.07576376 -0.010388401 0.010544768 0.014324374 0.09757132 0.0029558314 -0.10679687 0.16130139 -0.0827686 -0.087131694 0.07088748 0.09793478 -0.17177671 0.098453805 -0.07820107 -0.059705906 -0.16612063 -0.0065073376 0.18460935 0.0032384978 -0.018252797 -0.00867233 -0.02747711 0.013226019 -0.054575715 -0.01981122 -0.10581233 0.009357849 -0.075379506 0.1678821 -0.07294869 -0.0051095677 -0.026000109 -0.11424198 0.12414222 -0.29935563 -0.10221345 0.06822386 -0.05746344 0.12349161
15 -0.026166862 -0.17630579 0.04167923 0.1189631 0.14506614 -0.16980119 0.13578439 -0.029201897 -0.07596925 0.008684856 -0.042062446 0.16648096 0.07268523 -0.16286804 -0.018999808 -0.20909831 -0.06907059 -0.06508498 -0.027744127 0.016057508 0.2645426 0.039275333 0.1403805 0.088944666 -0.06800068 -0.12361431 -0.057425726 -0.0059254337 -0.05271168 0.16026238 0.023111388 0.09445826 -0.13642964 0.055899322 -0.07145545 0.008038163 0.28051436 0.04617042 -0.032942075 -0.12408575 -0.118670054 0.24298967 0.084313065 0.034005553 -0.0975091 0.1260367 0.026400289 -0.05336672 -0.081488214 0.051610976 0.033513006 0.19634621 0.04841905 0.07592634 -0.17443344 -0.11556039 0.02678258 0.06776911 -0.07807003 -0.015707858 0.10008067 -0.1464242 -0.10609227 0.07181486 -0.11546631 -0.13240363 -0.12522966 -0.08729666 0.0630368 -0.023410153 -0.0638456 0.046967912 -0.11007685 0.014933957 0.067232855 0.03328121 0.069392145 -0.029153256 0.014631055 0.069061704 -0.06216744 -0.08657394 0.010155344 -0.13228577 -0.050745737 0.24212943 -0.064126566 0.013357392 -0.010847095 -0.05234297 -0.03432611 0.07407721 0.1270208 -0.052028406 -0.07083347 0.27843913 -0.14111719 0.043399673 0.025722375 -0.012677687 -0.2514846 0.1279267 -0.08072949 -0.099799395 -0.11954928 0.029272245 0.25096312 0.024532698 -0.031955495 0.058553286 -0.032099303 -0.08991565 -0.09019843 -0.07346624 -0.05287533 -0.042025737 -0.10183278 0.1709342 -0.054324724 0.063027054 -0.07389323 -0.16623487 0.036594238 -0.30556285 0.038058914 0.15615836 -0.12177631 0.10262346
17 -0.049201205 -0.25133023 0.062291503 0.14755026 0.1309196 -0.26191735 0.10801287 0.099210225 0.10596569 -0.016961785 0.04100916 0.23383488 0.041003615 -0.16152029 0.13458808 -0.24017155 -0.13076259 -0.16100645 0.033999857 -0.08118332 0.2492951 -0.027304282 0.0966058 0.043704916 0.06679126 -0.11917594 -0.018761832 -0.051140707 -0.0066963355 0.120172076 0.030905407 0.04640242 -0.15017726 0.024593024 0.037165035 -0.03787809 0.2646187 0.102995835 -0.041941 -0.036803667 0.001902205 0.13876316 0.1485534 0.08141033 -0.22604835 0.104865655 0.08886908 -0.047496706 0.003557548 0.14846075 -0.0688356 0.18353216 0.032775585 0.035533004 -0.10374019 -0.19292188 0.04016975 0.15166919 -0.004044017 -0.14744535 0.15910669 -0.18109885 -0.0025574607 0.10371167 -0.19317564 -0.0077455095 -0.12123766 -0.08941576 0.13135332 -0.105486356 -0.09764218 0.005176645 -0.18357219 -0.018529229 0.24199034 0.07930895 0.07563026 -0.10562903 -0.006615211 -0.11510088 -0.08199563 0.047178242 -0.010950809 -0.06331116 -0.13804673 -0.017714227 0.14701468 -0.008458555 0.1243472 0.0133211035 0.026571136 -0.017600304 0.09447454 0.054878775 -0.12340654 0.11238039 -0.037718005 -0.1500371 0.11093594 0.16345423 -0.13181871 0.091271445 -0.0844101 -0.04795676 -0.19952437 -0.029614706 0.15245794 -0.010966448 -0.009466452 -0.028824117 -0.03525866 0.076041706 -0.041800726 -0.0054164496 -0.12720773 0.035891254 -0.05618603 0.16666816 -0.092978045 -0.03495107 0.0017917822 -0.078795806 0.18732353 -0.30424157 -0.19172946 0.019923313 -0.030954605 0.13937846
27 -0.027527666 -0.19733217 0.042972963 0.124950305 0.14615005 -0.19694017 0.1287282 0.007163432 -0.0400621 0.0034074993 -0.025790337 0.18324861 0.06744528 -0.16591957 0.01497691 -0.22373337 -0.078969695 -0.08624672 -0.009093332 -0.007201109 0.26766446 0.02721002 0.13244349 0.08450797 -0.037339758 -0.1256427 -0.051058352 -0.010905648 -0.04357542 0.15570632 0.02584278 0.07960558 -0.14852229 0.050426107 -0.045982 -0.0049331407 0.2829271 0.05795661 -0.03720748 -0.10892426 -0.09180018 0.22241205 0.100824274 0.048205134 -0.12933734 0.124530464 0.04455967 -0.052852422 -0.06281421 0.07575702 0.013956012 0.197595 0.045271385 0.07356903 -0.16451104 -0.1354361 0.03601346 0.092088126 -0.065147616 -0.046143852 0.11123489 -0.15708897 -0.087245435 0.084102266 -0.13541722 -0.1052675 -0.12971643 -0.08548518 0.07602395 -0.045527637 -0.077768154 0.04280947 -0.12697975 0.0045573963 0.10843414 0.041984692 0.07393294 -0.05030273 0.011641334 0.032352883 -0.069908306 -0.061480414 0.002773559 -0.11308884 -0.072651334 0.18809891 -0.012063585 0.0090307575 0.018198512 -0.0395067 -0.02390695 0.04825838 0.119188376 -0.029326672 -0.0856318 0.24102876 -0.121905565 -0.0078158155 0.045257483 0.023416458 -0.23444796 0.12069219 -0.07505266 -0.09154675 -0.13839436 0.021442179 0.23300903 0.01349754 -0.030684717 0.04245777 -0.031917077 -0.053959392 -0.07800981 -0.056017652 -0.06808242 -0.028329989 -0.09338423 0.16682473 -0.0626098 0.037667263 -0.06160709 -0.1434009 0.06728469 -0.31071177 -0.010539709 0.12573434 -0.100835025 0.10894776
22 -0.038948644 -0.21956931 0.056981254 0.13010421 0.13279973 -0.23602934 0.10242849 0.06572939 0.0466769 -0.014483479 0.02004929 0.2093347 0.053346984 -0.16617814 0.095497966 -0.23076768 -0.11530262 -0.12760554 0.027639568 -0.050611306 0.24629277 -0.005387975 0.10317431 0.054807905 0.024433402 -0.10409579 -0.027866712 -0.03626422 -0.0068956823 0.12489901 0.024054226 0.0496549 -0.14923076 0.03902815 0.0069207144 -0.028897833 0.2604013 0.08090872 -0.033818357 -0.05607227 -0.017989554 0.14972042 0.124634035 0.073209755 -0.1826997 0.110533044 0.059580248 -0.048432942 -0.017312964 0.110719286 -0.040903892 0.16874814 0.03244226 0.05045269 -0.12225346 -0.16223243 0.04553693 0.12834421 -0.03139213 -0.110663086 0.14168654 -0.1662218 -0.027898727 0.09971218 -0.16843545 -0.033962753 -0.12350315 -0.084512115 0.11196976 -0.08199596 -0.08747448 0.018621925 -0.15530325 -0.014074333 0.19955115 0.06816957 0.075789206 -0.08041187 0.0032222911 -0.062578104 -0.077305265 0.0066413153 -0.008809507 -0.085868016 -0.107052006 0.04638732 0.09499206 -0.008194899 0.09273426 -0.0051267403 0.016237041 0.004459189 0.09478623 0.015174398 -0.10952469 0.14362673 -0.072269894 -0.100769214 0.085105404 0.11116938 -0.16096462 0.09500812 -0.07491775 -0.0513881 -0.17109495 -0.006118611 0.17018269 0.0043245796 -0.015179701 -0.011967034 -0.029986436 0.0317991 -0.04672984 -0.013766085 -0.10936825 0.018717876 -0.06855835 0.16042973 -0.080623135 -0.012940228 -0.017523697 -0.10876597 0.13729881 -0.30079156 -0.12123282 0.05137673 -0.046273474 0.12218693
23 -0.024779608 -0.17447652 0.035639998 0.12154523 0.13992925 -0.17695081 0.12583342 -0.011254282 -0.059183497 0.005245303 -0.037022904 0.1701093 0.07069801 -0.16446877 -0.010606335 -0.20600004 -0.0695252 -0.06527781 -0.015874747 0.016184451 0.25403768 0.030845987 0.13005584 0.08575746 -0.053036083 -0.119698465 -0.054396283 -0.010430367 -0.050328128 0.15694053 0.0242399 0.08654557 -0.13863607 0.0541309 -0.066447146 0.0014387842 0.27707735 0.04725241 -0.037668146 -0.11458253 -0.103583135 0.22800057 0.089059085 0.039542537 -0.10617006 0.118263505 0.030844206 -0.047164686 -0.074604005 0.056556936 0.025330173 0.18815488 0.050623924 0.06688263 -0.1655852 -0.11854963 0.03119266 0.07533434 -0.07574949 -0.03027438 0.099762864 -0.15115434 -0.09247308 0.07863665 -0.117793374 -0.12073743 -0.120839596 -0.080561645 0.06449919 -0.02871034 -0.06728321 0.045531813 -0.10875838 0.01399013 0.07842093 0.037900593 0.06893115 -0.03329024 0.020798802 0.057837956 -0.05869195 -0.07983464 0.009977351 -0.1212077 -0.054795038 0.22091408 -0.04641151 0.014587108 -0.0016983935 -0.051249053 -0.028577413 0.06304029 0.11494162 -0.042645223 -0.07377547 0.25119218 -0.13116553 0.02150972 0.02810832 0.0020571318 -0.24042955 0.12012295 -0.072680555 -0.095776446 -0.12359366 0.024880584 0.23194067 0.018098488 -0.0271726 0.053788874 -0.03689925 -0.07742076 -0.08232919 -0.06510727 -0.056798983 -0.038851883 -0.09925023 0.16185068 -0.051245723 0.048916455 -0.067133985 -0.14973453 0.038964048 -0.3005066 0.026756883 0.13561007 -0.11419383 0.09898052
10 -0.03454501 -0.19804643 0.049007777 0.12661676 0.14586258 -0.20637716 0.12267787 0.01357315 -0.024989871 -0.003147294 -0.012295385 0.19240427 0.06597861 -0.1689481 0.026063507 -0.22407058 -0.08384248 -0.0891685 0.00082492793 -0.008813629 0.26321918 0.021545073 0.12393789 0.0814917 -0.029300097 -0.11711973 -0.041006494 -0.014029095 -0.030500779 0.14745013 0.020630788 0.0717245 -0.14573213 0.059412416 -0.045193747 -0.010140614 0.28185743 0.059970647 -0.03315273 -0.09847776 -0.076458775 0.20101827 0.10631954 0.056718543 -0.13676575 0.1226213 0.04377623 -0.05238233 -0.052721936 0.075978644 0.0011747973 0.18812414 0.04977336 0.06855869 -0.16568552 -0.13594504 0.04355233 0.09348054 -0.074418604 -0.055262793 0.119605504 -0.16297986 -0.08085044 0.090365194 -0.14348522 -0.08961751 -0.12884249 -0.089295894 0.07650013 -0.056789406 -0.07591129 0.032108717 -0.12642801 0.0034575392 0.13210088 0.05147922 0.07377915 -0.054734442 0.012191065 0.014529387 -0.07409648 -0.055957936 -0.00015104485 -0.10931671 -0.0767347 0.16613917 0.0022426508 0.0010236239 0.0367132 -0.04054067 -0.012010041 0.044761945 0.11439283 -0.024409361 -0.08885968 0.22111809 -0.118918136 -0.0262004 0.0495639 0.042615023 -0.2210102 0.11166221 -0.07705501 -0.07689138 -0.14260547 0.018427396 0.2229409 0.019181544 -0.027194338 0.030030482 -0.030536093 -0.043897003 -0.06557168 -0.042549793 -0.076941244 -0.016272506 -0.08695477 0.16625139 -0.061727136 0.020530773 -0.052572183 -0.14358348 0.07175354 -0.30358645 -0.02227246 0.107049376 -0.093662046 0.10931516
18 -0.042861808 -0.22967838 0.05735366 0.13474731 0.14417204 -0.24759959 0.10854369 0.065877646 0.045095097 -0.008783123 0.017337207 0.22344033 0.060218334 -0.17567584 0.093397684 -0.24885266 -0.12030697 -0.13003066 0.019982226 -0.04937276 0.2664839 -0.0019353575 0.111474805 0.060999956 0.024348963 -0.110641845 -0.029076118 -0.030477585 -0.008699684 0.13280213 0.024698427 0.060202993 -0.15272847 0.045872316 0.0049897125 -0.027452353 0.2786844 0.0853236 -0.03051121 -0.058198564 -0.028698357 0.1706713 0.12801611 0.07153158 -0.19125368 0.11751386 0.05967584 -0.05216984 -0.0248696 0.112972036 -0.038243026 0.17911229 0.04335693 0.06127535 -0.1402704 -0.16801013 0.046153173 0.12653531 -0.04317834 -0.11064429 0.14943372 -0.18209392 -0.036196735 0.10013458 -0.1729376 -0.04079369 -0.12851289 -0.09371304 0.11533771 -0.08411488 -0.09460302 0.01890439 -0.15777217 -0.017534893 0.20398499 0.071695104 0.0877201 -0.08269637 0.002834365 -0.058991462 -0.081868336 0.002653718 -0.008709732 -0.093758576 -0.1128035 0.065731674 0.092312284 -0.005781269 0.08858395 -0.0066172327 0.013193655 0.006944314 0.10349765 0.009909436 -0.117307626 0.1581702 -0.0825597 -0.0955141 0.08322951 0.111211374 -0.17373322 0.10296742 -0.08117468 -0.058368016 -0.17674883 -0.00618784 0.18234096 -0.00015772154 -0.019136705 -0.0129139805 -0.037915252 0.023194123 -0.05655966 -0.02125621 -0.11118943 0.014191779 -0.07211019 0.16754219 -0.07682871 -0.010950807 -0.023873147 -0.11964456 0.13501827 -0.316071 -0.115845285 0.055243254 -0.05846986 0.12523866
16 -0.021244729 -0.16617554 0.034758687 0.11920787 0.14153156 -0.16400537 0.13639328 -0.03584779 -0.08736164 0.011994771 -0.05177657 0.16049285 0.07077119 -0.1566337 -0.029476138 -0.20315313 -0.06056861 -0.057273973 -0.032898568 0.024799773 0.25599977 0.042472214 0.14335977 0.088644 -0.0724305 -0.12429117 -0.05641299 -0.0030323316 -0.059304904 0.15971392 0.023088874 0.09597731 -0.13701597 0.054280765 -0.078929774 0.013322294 0.28251737 0.038858864 -0.039858848 -0.13531893 -0.12632863 0.25146893 0.081660986 0.029168079 -0.08854926 0.1216274 0.028587451 -0.048449736 -0.087426096 0.048905853 0.042841986 0.19703467 0.05142941 0.07521355 -0.17217557 -0.103861764 0.029774226 0.06394359 -0.08285482 -0.010131865 0.09104179 -0.14815556 -0.11359451 0.0692257 -0.10697788 -0.14338955 -0.12336757 -0.079805605 0.050765045 -0.022447424 -0.059364047 0.048039503 -0.10278968 0.019224623 0.055869326 0.0284047 0.06616482 -0.02462064 0.018752964 0.08634515 -0.05609317 -0.09930938 0.012470919 -0.13007711 -0.038832568 0.26230806 -0.07852043 0.021877151 -0.020457989 -0.05898778 -0.04329141 0.07706223 0.12051601 -0.054523747 -0.058779214 0.28378707 -0.14268656 0.05156425 0.015141799 -0.034149747 -0.2536828 0.12939118 -0.07161938 -0.105422266 -0.112979576 0.033337783 0.24809857 0.02416271 -0.029148443 0.07064028 -0.033718962 -0.09671642 -0.092470236 -0.072230466 -0.03853546 -0.04964638 -0.10414349 0.15971862 -0.044299453 0.061650243 -0.080952786 -0.1587412 0.016849963 -0.29489258 0.06357087 0.16134524 -0.12774535 0.09599328
21 -0.024776503 -0.17136405 0.037916135 0.120627455 0.14329039 -0.17529704 0.1357996 -0.033084884 -0.083721586 0.014871276 -0.046287537 0.16694945 0.076632515 -0.17044957 -0.02843867 -0.21037684 -0.06268911 -0.060965795 -0.022853218 0.027539935 0.2702214 0.038840365 0.14274277 0.0949756 -0.07029467 -0.12801023 -0.057911582 -0.0037116064 -0.055786695 0.16860363 0.027765553 0.09392168 -0.14169376 0.061013572 -0.08416787 0.005230629 0.2898205 0.049133904 -0.03431193 -0.13183971 -0.12524949 0.2556799 0.08042442 0.030760152 -0.10177855 0.1293839 0.027327774 -0.051736977 -0.0824475 0.04986039 0.041516464 0.20523642 0.055435088 0.07328616 -0.18062498 -0.10911159 0.033669163 0.065853484 -0.089580745 -0.010423602 0.094038814 -0.15376575 -0.11101408 0.08210731 -0.112764075 -0.14513735 -0.13037644 -0.090074144 0.05503007 -0.027629277 -0.063795455 0.04777578 -0.11097245 0.020704323 0.0658608 0.03306074 0.06370795 -0.030444289 0.022609735 0.08474258 -0.06485277 -0.09649595 0.010071394 -0.13589753 -0.048436 0.25656924 -0.07443294 0.016508378 -0.012389029 -0.06289161 -0.03536213 0.07672967 0.12533906 -0.05158514 -0.06486166 0.28508362 -0.15390967 0.047721293 0.023546476 -0.024816187 -0.26941457 0.1328864 -0.08021533 -0.102076724 -0.11669363 0.03938577 0.26040417 0.020957444 -0.03340788 0.06619443 -0.030033356 -0.09550218 -0.09236425 -0.072653346 -0.05188071 -0.046534274 -0.11129019 0.16675381 -0.048236948 0.06551359 -0.08140921 -0.1698248 0.026918977 -0.31838778 0.055785865 0.16321251 -0.12739858 0.09623523
12 -0.05185512 -0.23888548 0.064167246 0.13392675 0.13616042 -0.25569773 0.10183827 0.076635845 0.06427147 -0.014310538 0.033974435 0.22937416 0.05030845 -0.17065062 0.113207266 -0.24256319 -0.12693913 -0.14021495 0.036404435 -0.06902562 0.2552335 -0.0074419025 0.09985982 0.050621502 0.03577306 -0.112237394 -0.020456955 -0.03452 -0.0024554657 0.12240174 0.027450854 0.050858367 -0.1563553 0.041026443 0.019267373 -0.028564788 0.26788267 0.09407512 -0.030895589 -0.044746473 -0.009205548 0.1459429 0.14028004 0.07765454 -0.20544882 0.1127941 0.07092214 -0.051969104 -0.015131134 0.12519205 -0.054433808 0.17810656 0.03602488 0.048972934 -0.13154157 -0.18260467 0.048262242 0.13891517 -0.03257364 -0.12363077 0.15541905 -0.17707773 -0.024473406 0.10600909 -0.18647934 -0.020802256 -0.123061165 -0.090152696 0.121420994 -0.09464829 -0.08975318 0.013765817 -0.16495277 -0.015594569 0.2229997 0.07392137 0.08542356 -0.088745005 -0.00031907667 -0.08058394 -0.08124593 0.020642592 -0.017353555 -0.08099439 -0.12184918 0.026893685 0.116727464 -0.011502573 0.10690734 -0.0037791114 0.021466067 -0.0005608193 0.0922127 0.025796797 -0.11693202 0.12503725 -0.061313577 -0.12845074 0.09313352 0.13587064 -0.15444155 0.08808266 -0.07915448 -0.047878698 -0.18274938 -0.017817546 0.16601814 -0.0003496927 -0.010073482 -0.027690824 -0.0371842 0.049003508 -0.044510733 -0.004860674 -0.11967919 0.031709313 -0.06538354 0.16887343 -0.0884681 -0.027577925 -0.013536415 -0.10534094 0.15607256 -0.30432627 -0.15059295 0.037317287 -0.04363414 0.12909801
