5 128
5 0.0005682121 -0.0033955325 -0.0038860987 -8.950842e-05 0.002913804 -0.0012020567 0.0034067077 -0.0033692224 0.0036481135 -0.002640267 0.0029814674 0.0028897838 -0.0028147923 0.00095912546 0.0020988502 -0.003349327 -0.0019634755 -0.0030881574 -0.0011927948 0.001964277 0.002113156 0.0031455108 -0.0035355387 0.0038963673 0.0013835417 -0.0027686306 -0.00059930567 -0.0032512748 -0.0011452273 -0.0008524934 -0.0021761302 -0.0012600457 -0.002180568 0.0015044268 0.0023150425 -0.0029029886 0.0008747323 0.0015667059 -0.00093683816 0.00020789613 0.0034060194 -0.0006186885 -0.0020895489 -0.00032384426 -0.0024544385 0.00037042683 0.0005279749 -0.0008464652 -8.838769e-05 -0.0018474099 -0.00078265957 0.0031776975 0.0032079034 -0.0035373433 0.0023094884 -0.0022665649 0.002214804 -0.0012374964 0.0026212805 -0.0036887408 -0.0014939077 -0.002459995 0.0023557516 0.002756424 -0.0029098268 0.00043325644 0.0031110027 -0.00082579686 0.0015169828 -0.002789862 -0.0018218738 0.0005446838 -0.0025317834 -0.0031684996 0.00091369473 -0.0029208516 -0.002278564 -0.003147596 -0.0031822615 -0.0034169946 -0.0026537105 0.00040170626 -0.0014839725 -5.495495e-06 -0.0022574118 -0.0037649693 0.0022674517 0.0035304297 0.0018517245 3.275139e-05 0.0028946933 -0.0013399628 0.0015643206 0.0012083063 -0.0027504773 0.0010499656 -0.0031674812 -0.0024777672 0.003448873 0.0036403795 -0.0038423112 0.00012155219 -0.0018892048 -0.0037290098 -0.0035997978 -0.0012271142 0.0013183927 -9.116053e-05 -0.003090668 -0.0011737422 -0.002396926 0.0002268864 0.0012080574 -0.0027326634 -0.0023106944 0.0033398245 0.0034996853 0.0005601309 0.0033107658 0.0014457355 -0.00037719795 0.00162308 0.00086401583 -0.0036858805 -0.0032288183 0.0019617637 -0.0017168787 0.0037625362
4 -0.000121333476 0.0037315972 6.850182e-05 0.0016393523 0.0023809392 -0.002574498 -0.0034615018 0.003868069 0.0005502921 -0.0021960447 0.0034587323 0.00093437184 0.0026861967 -0.0010116358 -0.0010267171 -0.0008772077 0.00081661955 -0.0023961272 0.0011377999 0.0023456926 0.0013525131 -0.00079965487 -0.002372995 -0.0014553887 0.0018828232 0.0008745494 -0.0025234064 0.0020433364 0.0032778305 -0.0015945332 -0.001937911 -0.002584215 -0.0005093918 -0.00045029426 -0.0016700688 -0.0010987198 0.002446369 0.0022629357 0.0014177207 0.0019282389 0.00124915 -0.0031998327 0.0032527586 0.0034173229 0.001657164 -0.0031965522 -0.00092114613 -0.0031464242 -0.002584345 -0.0024657915 0.0028655431 -0.0030695472 0.0008382656 0.0014140907 -0.001993072 0.0014357159 0.0019030317 0.00052624143 0.0016600596 -0.001607301 0.0037683398 -0.002052576 0.0015014677 0.0003343592 0.0025550125 0.0036016922 -0.0038282548 0.0017425172 -0.00011085884 -0.0014008519 0.0005201549 0.0012816855 0.0026888766 -0.0035341368 0.0020654956 -0.0011322137 0.0035518205 0.0021537663 -0.0016650696 0.0030989088 0.0012931672 -0.0038654876 -0.00078185095 0.0011290766 0.0021385103 -0.00070901134 0.0038036802 -0.0021503018 0.0027654534 0.0012874028 -0.0028599803 -0.00075453054 -0.0035677627 -0.0013747643 -0.0012192146 0.0014633996 -0.0032213158 -0.0019507277 0.00034730262 -0.00026418682 -0.0025745681 0.0010350278 0.0038745117 0.003280777 -0.0031673582 0.0019079368 -0.0024233726 0.0014766325 -0.001556247 -0.0011082048 0.0032159162 -0.0011392208 0.00030607672 0.0011362783 -1.8399043e-05 0.002657027 -0.00015267429 0.0013563611 -0.00058882026 -0.00014500644 0.0019681726 0.00096759165 -0.003618772 -0.00389522 -0.0035916606 0.0009631206 0.0034800346 0.002390106
3 -0.0034698865 0.0007965783 0.0035669296 0.00064697623 0.0011060018 -0.0002648352 0.0020757434 -3.2811306e-05 -0.0036882008 -0.001421832 0.0016864879 -0.0029054137 -0.0037898154 -0.0037389894 -0.0017260751 -0.0026845809 0.0036691912 -0.0028144645 -0.00065064523 -0.0021612947 -0.0031737546 0.0014628676 -0.0008993953 0.0037090394 0.0037237294 -0.0016101183 -5.0293056e-05 0.0027146572 0.0039059976 0.0035168473 -0.0020261072 -0.0023223686 -0.0033910554 0.003511478 -0.0010147387 -0.003006818 0.001135572 0.0023700865 0.0012449806 0.0021148846 0.0007114092 -0.0037979158 0.0009697887 0.0032701003 -0.0018099897 -0.00073110155 0.002638562 -0.0026164001 -0.0038932455 0.0027144146 0.003389451 -0.0014323936 -0.0037107917 0.0010034774 -0.0024279796 -0.0023584268 -0.001916308 0.0010625098 -0.0017880168 0.0036149188 -0.0035544492 0.0017970161 -0.0010625933 0.003581061 0.00019841151 -0.0025560043 0.0034896957 0.002547316 0.001057962 -0.002896116 0.002496947 0.00081942015 -0.0023096462 0.002558557 0.0016112891 -0.0015780733 0.0035564245 -0.0009688952 0.0035748482 -0.000861693 -0.00032770837 0.002662017 -0.0012689416 -0.001993922 0.0014560511 0.001604537 -0.00030250126 0.0011555994 -0.0024437068 -0.0009222122 -0.0016517979 0.0019296623 -0.0011430767 0.0006420393 -0.0033123055 0.0026203475 -0.003426407 0.00315752 0.0033700317 0.00029450396 -0.0034402336 0.000985367 -0.0033761251 -0.0010772246 0.0017429269 0.003894882 -0.0004692794 -0.00045764213 0.0028956817 -0.0020092777 0.0025233456 -1.9354255e-05 0.00075780257 0.00069122284 0.00085393235 0.0018618022 -0.0008733527 0.0021588295 0.003176199 0.0003657804 -0.0018818686 -0.0033701072 -0.0014083752 -0.0007353824 -0.0026418818 0.000673896 0.001167504 0.0016395986
2 0.0030067049 -0.00051760365 -0.0006946852 -0.0010594907 -0.001071772 0.00024719827 0.0015568949 0.002287561 -0.00348474 -0.00045979308 -0.0012160991 0.0020478966 0.0020562755 -0.002437646 -0.00066521286 -0.0028814487 -0.0019978527 0.0021041785 -0.00058491156 -0.00029043623 0.0007494987 0.0008827405 0.0028428372 -0.00035068791 -0.002921426 -0.0007607932 -0.0017273746 0.00047028775 0.002509002 0.0014271758 0.0028105103 -0.0014992538 -0.003200509 0.0032109013 -0.0032588383 0.0023225807 0.00052723696 -0.002894513 0.0015681037 -0.0010823868 0.0017352886 0.002631487 0.0017716066 -0.0006661676 -0.0023723706 -0.00079650374 -0.0020667033 -0.0011483236 0.0014951853 -0.0019901337 0.0007940919 -0.003244616 0.0016987785 0.0037261406 -0.0038295188 -9.421394e-05 0.002350382 0.0033382121 -0.0022379092 0.0035494675 -0.0022740723 0.0020603358 -0.00058092334 -0.0028774594 -0.0011122702 0.0031605095 -0.00091088016 -0.0015723766 -0.003434899 -0.0015022987 -0.0010257782 -0.0007185565 0.0032159314 -0.0005477105 -0.0014651895 0.0025875391 0.0013981039 -0.0016556941 0.0009253239 -0.0011134162 -0.0019835928 -0.002060407 -0.0032923627 0.0005512062 0.0025204578 0.0031380218 -0.0007851846 -0.00043227914 0.0032545857 -0.0024889663 0.001853709 0.002963203 2.7499374e-05 -0.003792563 -0.0037644287 0.0009844425 -0.0014940974 -0.00184961 -0.002454965 0.0028836383 0.002660866 -0.0021998147 0.0017140041 -0.0037691998 -0.00040157896 -0.0032721406 0.0038753555 0.0035428933 -0.0027724544 0.00065139745 -0.0027335444 0.0016255702 0.0016384863 -0.0015343813 -0.0027801695 -0.0007983837 0.001119816 0.0015845983 -0.002835445 -0.0012366788 -0.0012120367 -0.0018762684 0.0012842919 -0.0034243613 0.001569504 0.001654926 0.0037718024 0.00028971658
1 -0.003890282 -0.0038289935 0.003682057 -0.0026899648 0.0016987816 -0.0037694015 -0.0006602711 0.0027240182 0.0031065228 0.00021614545 -0.0023238051 -0.0007329811 0.0021807828 -0.0015693344 -0.0019543518 -0.0023432914 0.0022185142 -0.0016751227 0.003671605 -0.0019873548 0.001496025 -0.00034525694 0.00072339375 0.0014299941 0.0008256587 0.0010478474 0.0024161837 0.0035821456 0.0014923909 -0.00207554 -0.0037409032 0.0022970694 -0.00028275716 0.00085028756 -0.0017013717 -0.0030130495 -0.0038023214 -0.0017520111 0.0035282755 -0.0038992106 -0.0026559965 -0.002873156 0.0025067504 0.0022313686 -0.0012843999 -0.0026636159 -0.0023402644 0.00039548232 0.0034894065 0.0030762062 -0.0032653457 0.0033712701 -0.001373269 0.0037663244 -0.0033393248 0.00082148897 -0.00037882017 0.0035301906 -0.0026773294 0.0017270194 0.0018483937 -0.003761307 -0.0028461218 -2.9093353e-05 -0.0028498047 0.0010243513 0.0008562476 0.0018336484 -0.0034546817 0.00012099198 -5.616167e-05 -0.0035013813 0.0035636274 -0.00013825555 -0.0026057828 -0.00226317 0.0028888443 -0.0024298183 0.0021265247 -0.0036426974 -0.0014566671 -0.0033016317 0.0002143857 -0.0029310547 -0.0016894728 -0.0031343845 -0.0013791046 -0.0005673002 0.0027616008 0.0008157919 0.000585158 0.00045213898 0.0005189487 -0.00024724897 -0.00071728526 -0.0008689445 -0.0004214102 -0.0026421938 0.003083618 0.0014718937 -0.00247892 0.0026754339 0.0022235082 -0.0010185103 0.0022099572 0.0034907064 0.0027972297 0.0021107309 -0.0016474633 0.0009350965 -0.0014866681 -0.0020161262 0.0009967892 0.0034096786 -0.001757941 -0.0019172236 0.0029506679 0.0018519089 -0.0030120385 -0.0019182839 -0.00047729045 0.0023038457 -0.0032050265 0.0004659725 -0.001254706 -0.0009700925 -0.0010932807 0.0008660005
